0
0.013650291
-0.012411369
0.079791114
0.017849337
-0.09064539
0.011175067
0.022833709
0.0089920275
0.03862632
-0.037114177
0.017310109
-0.093028724
0.020737706
-0.0026802602
0.035838336
0.016321389
0.0400498
-0.057905376
0.07884689
0.08714206
-0.030691523
0.00053363596
-0.08271686
0.0038197718
0.06486755
0.005697084
0.04152076
-0.045036282
0.062701926
0.09671221
-0.079182915
0.040544786
0.048639707
0.005442925
0.09077604
-0.0025884965
-0.03897712
-0.016955813
-0.08550447
0.10613344
-0.044360284
-0.03766137
0.07900192
0.0005343583
0.09326928
0.019438671
-0.0720609
0.00039080906
-0.00031334886
0.04716895
0.06286929
-0.049847484
0.055780664
-0.04345147
-0.036966514
0.0041380953
-0.08113814
-0.060827315
0.034327254
0.016773973
0.05692989
0.04468869
-0.048876546
-0.02458517
0.014909313
0.038343024
-0.089314856
0.08900988
-0.018238153
-0.06654614
0.07547665
0.001978586
-0.057196394
0.0022145018
0.04823538
0.06135888
0.0043037287
0.029992426
0.03996214
-0.07070146
0.0052169296
0.0026090273
0.05916312
-0.086581916
0.07939802
-0.054379325
-0.011968158
0.0019840067
0.017155899
-0.074309975
0.08324874
0.015187752
0.019224865
0.030027922
-0.08277818
-0.082074076
-0.0601642
-0.07808764
0.07850821
-0.045761403
-0.04876786
0.01688797
0.052445218
-0.06553201
0.07976836
-0.09526506
0.05605708
0.08462353
0.056915205
-0.026987208
0.007373193
0.07709259
-0.047288615
-0.056364436
-0.017161215
-0.06705672
0.09254761
0.026788164
0.011653239
-0.08173196
0.08411625
0.004318413
-0.09728263
0.08982387
0.010045656
0.009594558
0.001267051
0.09499117
0.076004535
0.009622825
0.065990135
-0.01920025
0.00040645027
0.046664897
-0.08907184
0.009528392
-0.06826735
-0.06666612
0.021597339
0.064298645
-0.056269187
-0.03316523
-0.0682066
-0.030675808
0.0018859206
0.0017666413
-0.01590872
0.010523743
-0.038244158
-0.09230815
0.03137519
-0.0052193603
-0.06473537
0.063975886
0.023448681
-0.03524357
-0.024149425
-0.025838291
0.0020169085
0.044483785
-0.088276446
-0.07466805
0.009787471
-0.08354459
-0.08227107
0.006947531
0.033785734
-0.0003421915
-0.0754842
-0.02527763
0.07063432
0.058182415
-0.03888333
0.049012456
0.08678335
-0.00016045725
-0.00503547
-0.0650881
0.019005368
0.060217995
-0.068667695
0.025804816
0.0063515822
-0.024517147
-0.08976239
0.0078016142
0.014552866
0.046738543
-0.05080624
0.05990452
-0.047035445
-0.08390613
-0.09847568
-0.047389045
0.0009146886
-0.059528604
-0.067068845
0.085676074
0.002213157
-0.015024703
-0.086655065
-0.07700307
-0.08427245
-0.07763585
-0.02915475
-0.01007548
0.06875511
-0.090155
0.059893917
0.007230447
-0.048473436
0.00468496
-0.050146565
0.03647641
-0.09219932
0.004441308
0.050645713
0.016531993
-0.08583576
-0.04157452
0.08430991
0.07248119
0.050223395
-0.016054906
-0.029117092
0.00041919935
-0.08219347
-0.088475235
0.036600903
-0.007042076
0.045040082
0.085743
-0.04221949
0.061500132
0.0003749093
-0.025585467
0.0023957319
-0.02132753
0.0071302773
0.079817966
0.040306434
0.003967939
-0.02463946
0.09716617
-0.0021641033
0.04656553
-0.01803456
-0.027883755
0.003775776
0.05390661
0.06336618
0.07973996
-0.03631113
-0.059951767
-0.07410733
0.032397293
0.07011792
0.00012522636
-0.022609748
0.020529384
0.005558786
0.0840246
0.004368861
0.072906174
-0.0027562538
-0.05521917
0.05471409
0.082584575
0.043836053
0.04772612
0.06876876
-0.00047054546
-0.0138843255
0.090748504
0.052165285
0.05438091
0.041641377
-0.010244842
0.0133117605
0.021635484
-0.033119567
-0.08318038
0.077521496
-0.09619477
-0.0494679
0.03152792
-0.042039957
0.0889535
-0.00094475393
-0.0614184
-0.012755305
0.05997424
-0.018845811
0.09131315
0.057652302
0.026443005
-0.0023718027
0.014450915
-0.025423607
-0.060190503
0.03573212
0.00066254556
0.08105736
0.008602253
0.0034919255
0.011339351
-0.024854548
-0.07616206
0.023567395
0.03008412
-0.07065739
0.08557062
-0.0006943822
0.050714016
0.0028563282
0.056417454
0.008317674
0.06087736
0.046735797
0.0024642933
-0.062103394
0.00852847
-0.04768793
0.010063139
-0.06468635
-0.055936843
0.008893626
-0.04135042
-0.099515945
-0.042290684
0.03913357
-0.0036906507
-0.017287888
-0.080614485
0.06880359
0.017241413
-0.08909567
0.018489556
-0.038469583
-0.016868683
0.062074408
-0.027074046
-0.005004836
-0.0028115942
0.042353507
0.056820806
0.006905009
0.017602501
-0.03472946
0.016526368
-0.09019327
0.031764213
0.048423238
0.0037490579
0.0005575027
0.020054301
-0.04143933
0.008221682
-0.0163011
-0.0152260205
0.0006535187
-0.0039951387
-0.054108497
-0.020743344
-0.05399321
-0.050289523
0.051731754
0.08941156
0.059429843
0.007006493
-0.077675276
0.08501066
0.05461445
0.0400251
0.046277203
0.083282925
0.07104779
-0.00015372601
-0.0030329456
0.023438271
0.008117292
0.024663858
0.047201354
0.050274048
-0.060117383
-0.09813219
0.002210317
-0.051214293
-0.059146065
-0.03514422
-0.0012487919
-0.043269042
0.07017388
0.079906456
-0.028447717
0.10788682
0.004606426
0.06124679
0.047143146
0.051210754
-0.06399435
0.06256797
0.08342539
0.007972312
-0.021674398
-0.045505647
-0.060261432
-0.07380405
-0.06908776
-0.059970476
-0.047802277
-0.02834413
-0.043047898
0.015935818
-0.060426015
0.021365767
0.020806588
-0.04358351
0.03106555
-0.049261943
-0.052224644
0.050203905
0.039643165
-0.09237802
0.0029562302
0.001305413
-0.003565599
-0.05221244
0.0013516732
0.051430214
0.07643954
-0.046517316
-0.0668015
-0.033240236
0.025432488
0.06919102
0.013399096
0.09753484
0.058885045
-0.008358092
0.015696526
-0.098850004
-0.045250863
8.878033e-05
0.06630295
-0.0061707925
0.0018476582
0.07273055
0.008194556
-0.000864185
0.024442613
0.08721662
0.060759738
0.007715728
0.014591984
-0.077516
0.0055402806
-0.07925739
0.0578204
0.06104651
-0.07403547
0.03356752
0.07542607
0.029333655
0.07108813
0.033195242
-0.043127246
0.042896003
-0.0107501075
0.029795546
-0.051136374
-0.08508356
0.03508719
-0.06413965
0.07884992
0.055090003
0.0014649944
-0.00090056827
0.034746796
0.04148763
-0.036022782
-0.048727334
0.09884084
-0.085214585
-0.073255286
-0.05992139
-0.008259077
0.08689429
-0.011829653
-0.03673049
-0.057207897
0.0019398762
0.0673258
0.05964333
0.006854589
-0.09183997
0.053243726
0.007015695
-0.05814991
-0.07416374
0.04272191
-0.036652926
0.034285594
0.024987167
0.047566634
0.032460116
-0.04951735
0.07936756
-0.070322886
0.009354033
0.0006564733
0.07222453
