0,1,2,3,4,5,6,7,8,9,10,11,12,13,14,15,16,17,18,19,20,21,22,23,24,25,26,27,28,29,30,31,32,33,34,35,36,37,38,39,40,41,42,43,44,45,46,47,48,49,50,51,52,53,54,55,56,57,58,59,60,61,62,63,64,65,66,67,68,69,70,71,72,73,74,75,76,77,78,79,80,81,82,83,84,85,86,87,88,89,90,91,92,93,94,95,96,97,98,99,100,101,102,103,104,105,106,107,108,109,110,111,112,113,114,115,116,117,118,119,120,121,122,123,124,125,126,127,128,129,130,131,132,133,134,135,136,137,138,139,140,141,142,143,144,145,146,147,148,149,150,151,152,153,154,155,156,157,158,159,160,161,162,163,164,165,166,167,168,169,170,171,172,173,174,175,176,177,178,179,180,181,182,183,184,185,186,187,188,189,190,191,192,193,194,195,196,197,198,199,200,201,202,203,204,205,206,207,208,209,210,211,212,213,214,215,216,217,218,219,220,221,222,223,224,225,226,227,228,229,230,231,232,233,234,235,236,237,238,239,240,241,242,243,244,245,246,247,248,249,250,251,252,253,254,255,256,257,258,259,260,261,262,263,264,265,266,267,268,269,270,271,272,273,274,275,276,277,278,279,280,281,282,283,284,285,286,287,288,289,290,291,292,293,294,295,296,297,298,299,300,301,302,303,304,305,306,307,308,309,310,311,312,313,314,315,316,317,318,319,320,321,322,323,324,325,326,327,328,329,330,331,332,333,334,335,336,337,338,339,340,341,342,343,344,345,346,347,348,349,350,351,352,353,354,355,356,357,358,359,360,361,362,363,364,365,366,367,368,369,370,371,372,373,374,375,376,377,378,379,380,381,382,383,384,385,386,387,388,389,390,391,392,393,394,395,396,397,398,399,400,401,402,403,404,405,406,407,408,409,410,411,412,413,414,415,416,417,418,419,420,421,422,423,424,425,426,427,428,429,430,431,432,433,434,435,436,437,438,439,440,441,442,443,444,445,446,447,448,449,450,451,452,453,454,455,456,457,458,459,460,461,462,463,464,465,466,467,468,469,470,471,472,473,474,475,476,477,478,479,480,481,482,483,484,485,486,487,488,489,490,491,492,493,494,495,496,497,498,499,500,501,502,503,504,505,506,507,508,509,510,511
-0.043711387,-0.046574764,0.090246715,0.041222148,-0.07274335,0.03568687,0.070945434,0.005843015,0.015643584,0.018210612,-0.002145137,0.041970637,-0.053495836,-0.03737446,1.9656449e-05,-0.010615214,-0.049905863,-0.019917937,0.020503186,0.024718763,-0.07334676,-0.0311662,-0.08030816,-0.024855494,-0.00039343117,0.061106887,0.051215023,-0.030772896,-0.024665495,0.013903683,0.051355716,0.045703225,0.0819224,-0.05716102,0.04632314,0.030444305,-0.077839285,-0.0043615187,-0.01107434,0.07456616,0.023392221,0.029809454,0.069918215,-0.010239803,0.015670197,0.01714642,0.06326659,-0.06605173,0.0728257,0.08381088,0.021928174,-0.059119876,-0.058302782,-0.041094054,-0.064453565,0.0024633596,-0.066351295,0.035756033,-0.05124241,0.05146035,4.511339e-05,0.010235129,0.03338708,0.023395352,0.0689115,0.07661519,-0.036336362,0.004872653,-0.037321776,0.03487644,-0.017001418,0.012170267,0.06323967,-0.007267834,-0.021318154,-0.017311066,0.08017367,0.071263045,0.069771335,-0.07226488,0.065003105,-0.053968947,0.012826914,0.00031165016,0.02363755,-0.032569796,0.037772544,0.05323859,0.083448,-0.05285923,-0.058920655,-0.034777716,-0.023921544,0.018745665,-0.00364342,-0.08069769,0.024961019,-0.06093781,0.056541327,-0.029720943,0.017064886,0.045544464,-0.042317253,-0.06077515,-0.029759148,0.037978683,-0.045651123,-0.004404037,-0.06072693,0.0030676099,0.021157881,0.07952887,-0.03244881,0.048248876,-0.026613882,0.039546747,0.07601741,0.024200229,0.034668896,-0.03971944,0.013353924,-0.023575736,-0.041890543,0.021999493,0.020045528,0.005168875,0.021761354,0.09057625,0.032954257,-0.025328698,-0.05760303,0.052721456,0.052273784,-0.037400987,0.026818367,-0.055680662,-0.02455694,0.0280407,0.034568798,-0.04006435,-0.008858124,0.0329999,0.041531898,-0.02800769,-0.06194175,-0.05226974,-0.020426005,0.049933456,0.03568627,-0.031864375,0.046399117,0.0033949786,0.05004149,0.019050326,0.06552179,0.0019543,0.0028339326,0.066871814,-0.06759409,0.01741721,-0.03390265,0.026888033,0.0683025,0.023275562,-0.08170209,-0.061570995,0.0799787,0.026684966,0.041849982,-0.0068858387,0.038211588,0.01937828,-0.054372165,0.024920503,0.08799231,-0.042346634,-0.051861953,0.051182922,-0.031630173,0.08506222,0.0017093366,-0.00043825258,-0.053664025,-0.070455104,-0.08365146,-0.012720814,-0.010072149,-0.039653808,0.044358626,0.06309294,-0.059267282,0.021233594,0.023215603,0.060413923,0.058964856,-0.040951077,0.048207823,-0.009456485,0.06233882,-0.015485496,0.025291514,0.03274,-0.042700812,-0.00084721606,0.009858259,-0.00426929,-0.037120152,0.006033445,0.053791847,0.05379467,-0.06447444,0.0581395,-0.058485188,-0.026785662,-0.07049494,-0.0028242352,0.07102758,0.007734328,-0.056961384,-0.051259402,0.020937862,0.07705175,-0.0055197035,-0.021899277,-0.018458184,0.040046062,-0.06171791,-0.042854633,-0.016621906,0.0035858748,-0.0226474,0.009539411,0.0101889465,-0.024212508,0.00974564,-0.031374887,-0.049158648,0.06431538,-0.052703425,-0.015619127,0.082767725,0.019010091,-0.029007882,-0.009731226,0.06677525,-0.057490505,0.01881621,0.05553639,-0.014685668,0.08707074,0.0654415,0.009467711,0.028850144,-0.06901962,0.047454905,-0.05804067,0.027372813,0.03948931,0.061674703,-0.041901402,0.056388203,0.062495146,-0.03219306,0.06468132,-0.025896654,0.017147692,0.029152017,0.014995075,-0.036379997,-0.049126532,0.038320366,-0.07060671,-0.0048785517,-0.0028434896,-0.028269198,-0.057731763,-0.06110385,-0.036279697,-0.02391982,-0.04871098,-0.015011564,-0.012841606,0.0737729,-0.006128426,-0.021505624,0.04884187,-0.03112066,0.035347074,-0.035540536,0.01580907,-0.04967112,0.05035559,-0.041261796,-0.0022048466,-0.044168513,0.023573855,-0.07490316,-0.050023716,0.06107484,0.016562847,-0.019022133,0.02610751,-0.014024641,0.0027218189,-0.015579805,-0.015506929,-7.571654e-05,0.0051407707,0.04499236,-0.0026881865,-0.038070977,0.05011493,0.022749342,0.057477623,0.05336289,0.08692482,-0.042016678,0.019754188,-0.037780523,0.04511739,0.06560751,0.067235395,0.022836082,-0.050791178,-0.0532877,-0.02632844,0.049368013,-0.086910605,0.01651899,0.04423107,-0.016895095,-0.0717058,-0.042916715,0.0034735063,-0.05902809,-0.038295403,0.06155816,0.011527242,0.01015445,-0.07912128,0.0007008948,0.04252962,-0.020440606,0.035986297,0.026414223,0.065848626,0.04379141,0.0069878716,-0.0681028,-0.026084827,-0.022633836,-0.06278278,0.037980687,-0.006935301,-0.009318712,0.012866773,0.0472911,-0.051533744,0.01954383,-0.040581897,-0.067723945,-0.022233324,-0.025873488,-0.055802338,0.02121244,-0.083646245,-0.0514449,-0.04322517,-0.043458838,0.045431126,-0.080477595,0.03559641,0.070929505,-0.05943129,0.0058016838,0.023823002,0.008092956,-0.060320914,0.022249114,-0.0150700575,-0.05306248,0.05168257,0.06872919,-0.026704276,0.063043684,-0.07082967,-0.051381893,-0.07318288,-0.05880096,-0.02578044,0.04221377,0.00040259957,0.06507556,-0.046495106,-0.013235048,0.00045243115,-0.04977865,0.09193457,-0.061244305,-0.031000946,-0.07517654,-0.010785138,-0.017318971,-0.061072506,-0.0072588334,0.012163715,-0.08110196,-0.06981016,-0.007089511,-0.042383768,-0.04102225,-0.011107208,-0.07873043,0.029475672,0.010118164,0.0133840265,0.029989142,-0.03604018,-0.0039316304,-0.01855543,0.033364806,0.046979267,0.07117159,0.03422536,-0.07539715,0.037594963,0.033509966,-0.066709094,0.05228177,0.05372441,-0.027198628,0.016739598,0.063788675,-0.0074707977,0.010825646,-0.0059197308,0.047117025,0.040627364,-0.03539603,-0.015793603,0.02598917,0.0041042687,-0.07453238,0.01635722,-0.05540565,-0.0020158181,0.0422642,0.06332847,-0.06051309,0.019391788,0.051259287,-0.00500966,-0.034674656,-0.020573152,-0.022410573,-0.022786822,-0.05565821,-0.054800015,0.0030594433,0.035561748,-0.053666238,0.03735125,0.062319953,-0.034637317,-0.010864186,0.08154068,-0.069902256,0.03249827,0.0510949,0.079144016,0.020364387,-0.079338886,-0.03344321,0.06072473,-0.033923596,0.015474463,0.025733734,0.018993877,0.04333123,-0.0019090009,0.04263227,0.06258515,0.06238626,0.036074746,-0.06692735,-0.07760484,-0.03470153,-0.029826304,-0.024794525,0.0029145326,-0.047967196,0.0015544693,0.08621764,-0.039283797,-0.0029765596,0.036556426,-0.061195016,-0.03881762,-0.022435121,-0.046078313,0.024838263,-0.058757424,-0.026449963,0.028579392,-0.01844384,-0.033503804,-0.006878102,0.040999003,-0.015308879,0.057573106,0.0040802574,0.07764499
-0.026432855,-0.06872935,0.06392042,-0.01826539,0.03594894,0.017274387,0.014745507,-0.07214969,0.008956785,-0.035019357,0.044772305,-0.05946211,0.003447049,0.018339464,0.022817288,0.06583699,-0.031053528,0.018396128,0.059317462,0.06020954,0.016010337,0.015099976,-0.03568047,0.050731927,0.07465907,-0.04431281,0.08322556,0.034841582,0.072342515,0.0026124793,0.023719242,0.0879456,-0.012897634,-0.008406981,0.087652296,0.037639037,-0.057242256,-0.05414191,-0.005723723,0.08627999,-0.043589607,-0.027784584,-0.0022473626,0.07290406,0.050121658,-0.025302552,0.007059019,-0.020959022,0.04620063,0.03868554,-0.008289342,0.023058763,0.038852043,-0.037383884,-0.009293666,0.07737774,-0.052358426,-0.06543702,0.009609838,0.0069060656,-0.049095903,0.030103281,-0.027277013,0.004525651,-0.0146169625,-0.050953954,-0.055480395,0.052969143,-0.06466,-0.059458822,0.09222616,-0.077265434,0.010126794,-0.064564325,-0.05519808,-0.025216518,0.01567471,0.026542658,-0.054516792,-0.042560827,-0.062524,0.07108677,0.018666433,-0.03444828,-0.030103467,0.048728142,0.001733183,-0.0095679145,0.07440789,0.03837909,-0.00027874613,0.029197758,0.0744614,0.03237207,0.05675465,0.034259763,-0.0021487528,0.007884276,-0.036324322,-0.023013484,0.033759944,-0.035834976,-0.036687966,-0.021872299,0.01479616,-0.01936236,-0.019056657,0.08388539,0.0011343972,-0.01937755,-0.044349752,0.034004334,0.038331296,-0.048612807,-0.0058157733,-0.060314257,0.022604473,-0.01527579,-0.057998497,-0.06633959,0.012237544,0.03964419,0.0521848,-0.047867686,0.050459307,0.049497925,0.0022629565,0.063444376,0.033740867,-0.050217442,-0.0019304258,-0.03333078,0.034642626,-0.032020137,-0.028268237,0.06473944,0.015484066,0.028280346,-0.013526252,-0.0075264103,-0.025047254,-1.5701784e-05,-0.06457163,-0.02514005,-0.044802606,-0.048497524,0.03887315,0.036152784,0.040694404,-0.056277793,-0.00941718,0.0363634,0.0032013853,0.0054333466,-0.046741813,-0.07877728,0.05683169,0.03348166,-0.016089715,-0.05662156,0.0021514492,0.054046042,0.078547455,-0.085257806,-0.04450562,0.03850163,0.08900707,0.016766533,-0.07770302,0.047117688,0.05551118,0.024498055,-0.024590917,0.02728062,-0.030842837,0.068531334,0.032345053,-0.003933467,0.08184236,0.0059829615,-0.024962924,0.08136285,0.03373813,-0.0131224245,-0.048286688,-0.0015956142,0.04756491,0.015248611,0.054834485,0.01312609,0.013921459,0.03560815,-0.054078165,0.008068829,0.053079892,-0.018262746,0.044436302,0.016866062,0.0487945,-0.06348213,0.004093319,-0.055448733,-0.057771694,-0.041137233,0.027291138,0.028171642,-0.057383284,0.031499866,-0.047687303,-0.06863628,-0.021642491,0.009810227,0.059977017,0.060046244,0.0004785909,0.01952137,-0.005112877,0.0457194,0.026277902,-0.06439988,-0.044774886,-0.049469378,0.08013701,-0.0173174,0.045475237,0.062278323,-0.025446126,-0.06433943,-0.034683805,0.051003642,0.037756935,-0.041188225,0.008582084,0.078662254,0.075608715,0.026672242,0.047811776,-0.0139695285,-0.058595497,-0.0077947495,0.029090595,-0.017290652,0.05335668,0.013566506,0.048366796,0.04318006,-0.048523795,-0.04391753,-0.039355505,-0.010192311,-0.043799683,0.018505799,-0.054896723,-0.014270455,-0.035382904,0.05570049,0.01828348,-0.06783396,-0.017504053,0.016719844,-0.024169194,-0.022036912,-0.0536889,-0.05505787,0.013475305,-0.08253318,-0.053727742,0.021947114,-0.053092573,0.03332406,-0.04775888,0.06159479,-0.04099673,0.09425091,-0.03327225,-0.04793657,0.066384524,0.06458625,0.061750934,0.060943503,-0.0061621107,-0.08093525,-0.0027691654,0.06498726,-0.033439558,-0.042774323,-0.08408125,-0.0253542,0.05043008,0.020972822,0.0433326,0.0027538245,-0.004477557,-0.02033642,-0.01635703,0.004835868,-0.050090514,0.07380192,-0.036239885,-0.07053357,-0.011031541,-0.009471372,-0.031119222,0.04363682,0.0049449205,-0.052270208,0.054358248,-0.08389806,-0.0065898136,-0.01445219,0.041559335,0.015713165,0.039480153,0.048121188,0.040763192,0.08505902,-0.021521023,0.08602298,-0.04655615,0.049815297,-0.07200002,-0.03165529,-0.012142987,0.04804393,-0.03994951,0.040803403,-0.04688658,0.03334808,-0.024395552,-0.032039743,0.06822576,0.05537652,-0.031627428,0.061305907,0.021607257,-0.06814225,-0.025765091,-0.044935513,-0.06807644,-0.041614547,0.005447237,-0.035660572,-0.04355653,-0.06619882,-0.015162001,0.08006717,0.008724578,0.056795623,0.037666228,0.07230256,-0.072747186,-0.003820417,-0.054337446,0.041806422,-0.011413177,-0.061785247,-0.07066273,-0.032124277,-0.07285826,0.038255133,-0.009804646,0.046376657,-0.07617313,-0.014960541,0.01845584,0.006321005,-0.050954696,0.092184514,0.071143635,-0.030212041,0.042999893,0.04186212,0.067972824,0.007218314,0.083249986,0.06965555,-0.04280586,-0.056561828,0.06087831,0.060917262,-0.060330685,-0.029570397,0.020272965,-0.04609546,0.0070229005,-0.04124265,-0.053769123,-0.068323836,-0.0775507,0.008854354,-0.073434904,-0.069866516,-0.05726888,-0.0013946658,0.03685728,0.0014441424,0.012838628,0.0816507,-0.049400534,0.0024895407,0.004560534,0.07826164,0.001076565,0.06276303,0.045294095,0.060180135,-0.07865199,-0.050121088,-0.051806018,-0.042526107,-0.055483505,0.02286226,0.04338792,0.087922156,0.011244548,0.07067288,0.030503698,-0.04838258,-0.060880575,-0.0019722616,0.013126404,-0.045830984,-0.01877024,0.048743915,-0.07159836,-0.006244843,0.042311095,-0.06251511,0.07385557,0.07042622,0.08189,0.03461898,0.049459547,-0.045113098,0.01976449,0.08451598,-0.015835786,0.011180456,-0.011255717,-0.08463437,-0.04152322,-0.045557555,-0.043754008,-0.039703526,0.073982686,-0.059799835,0.046270173,-0.03661904,-0.06572725,0.036573317,-0.018839631,-0.0150184855,-0.054221895,-0.05776976,0.06793843,0.0004435494,-0.07889296,0.021980746,0.015693363,0.084754854,0.014664009,-0.02786364,0.035836708,-0.047067467,0.08230006,0.079329416,0.0050649056,0.058828417,0.054683264,0.029885048,-0.046819195,-0.08325709,-0.0325569,0.00054472947,0.07920762,0.0027816084,-0.0016797896,-0.08351543,0.03857896,-0.01896065,0.01865645,0.050957732,-0.02847103,0.037056606,-0.0036300633,-0.060988307,0.05791511,0.039651867,0.04305313,0.0071885106,-0.0007758177,-0.052671105,0.03728954,-0.014402325,0.05186933,0.032368183,0.008193683,0.041112404,-0.007897255,0.009666949,0.058664046,-0.057568237,0.020956513,0.07739282,0.04359785,0.039277725,-0.06719714,-0.051997785,0.01658414,0.0012274475,0.06909717,-0.002687991
-0.04262651,0.025676586,0.043634903,-0.013001102,-0.047022145,0.06219781,0.051734313,0.04672784,0.06713789,-0.01867755,-0.033341613,0.002413743,0.044469133,0.02676886,-0.019473258,-0.011704576,0.055061053,0.040917054,-0.033864215,0.009297405,0.0013347168,-0.017258434,-0.0673446,-0.06146528,-0.010423161,0.06662005,0.021002628,0.040545605,0.033061784,0.041342285,0.059249476,0.07165939,0.04334561,-0.032696813,0.0019279737,-0.038157374,-0.0071307262,-0.043458514,0.03167716,0.02976659,-0.010438717,0.055440836,-0.0351989,0.029819323,0.0143179,-0.008880455,-0.027000837,0.01294566,-0.051921204,0.012196653,-0.029822452,0.031495176,-0.0009393519,-0.011031852,0.060121473,0.0176175,0.039413147,-0.04567188,-0.05675059,0.080248,-0.02363351,0.03400776,-0.0099645,-0.027805265,-0.023023682,0.018255938,-0.07274601,-0.04722518,0.01033627,-0.06671879,-0.005677144,-0.046150193,-0.066639505,0.04786847,-0.009398865,0.014713745,0.007048505,-0.03248598,-0.013663683,-0.06080465,0.013383787,0.052252736,0.043617487,-0.056311764,-0.039515708,-0.025584634,-0.03835133,-0.08762147,0.050009567,0.042529527,-0.00037488318,0.058950294,-0.016233543,-0.003113845,-0.008621428,-0.013913444,0.025682027,-0.06056399,-0.020211807,0.030578492,-0.078944296,0.03418241,-0.04013543,0.0121612875,0.024385022,0.0406529,0.048490316,0.035500363,-0.012635991,-0.023256512,-0.049138036,-0.05072186,0.032344032,0.034773327,0.006329047,-0.06246639,0.02984935,-0.047250707,0.081899844,0.0108175315,0.013847867,0.058659185,-0.065078415,0.021054856,0.028234124,0.06374679,-0.067813165,-0.0148401465,0.03713973,0.06336403,0.0018213231,0.0300371,0.06727749,-0.00054865575,0.06450253,-0.0021645308,-0.077266425,0.024318518,-0.016316054,0.04466831,0.038761836,0.016076483,-0.02110601,-0.072766796,-0.05987469,0.06669597,0.06352205,0.055976517,0.016900713,-0.026026538,0.0026004352,-0.016487012,-0.021852912,-0.05528235,0.035281986,-0.021940472,0.01917275,0.01717766,-0.029920297,-0.019329965,-0.07045062,0.00805965,0.08086715,0.0037896223,-0.049733803,-0.03602738,-0.058103126,0.011264673,0.019072155,-0.036867335,0.04560976,-0.012622441,0.041235514,0.0841258,0.049337074,-0.017671306,-0.06801038,0.004987821,-0.038892582,-0.013579417,-0.042768497,-0.054146722,-0.06926515,0.010190889,-0.08536652,-0.016307415,0.028700266,-0.04209418,0.026054919,0.08169495,-0.064749725,-0.05638929,-0.029584732,0.05891051,0.061539117,0.0012625895,0.038246203,0.023480529,-0.04888814,0.00072654756,-0.08222755,-0.08129671,-0.026226476,-0.009831371,0.03138858,-0.055496033,0.048200224,-0.047461957,0.005208835,-0.013328367,-0.04612858,0.011155394,0.04595598,0.020452153,0.017526887,-0.027537776,-0.0155046685,0.082023196,0.03877542,0.03453788,0.070682734,0.08105598,0.008918185,-0.04731815,-0.03386283,-0.013775166,-0.012877474,-0.03645822,-0.02081118,-0.060866416,0.01785597,-0.012124472,0.06064919,0.06286527,0.019715695,0.028814897,0.06524396,0.028094094,-0.008186967,-0.0121472655,-0.031767525,0.04233056,-0.018668823,0.03563992,-0.016223807,0.0017636464,-0.06369512,-0.015868993,-0.063507944,-0.05987702,0.06134162,0.04679442,-0.055987947,-0.075363435,-0.06295726,0.070947714,0.08114418,-0.056960076,-0.075141564,0.06345438,0.049236204,0.06464325,-0.0051789773,-0.041311163,0.059377912,-0.07831218,0.004666731,0.06553303,0.07106978,-0.044083104,0.04710273,-0.064408295,-0.032898106,0.0047318796,0.0015886689,0.010990878,-0.054016054,-0.06578342,-0.029884882,-0.04962403,-0.025819175,0.044250943,0.009999514,0.05950079,-0.08223504,0.017511344,-0.056322806,-0.059676655,-0.06483068,-0.062019568,0.06668823,0.016855145,-0.06259729,0.021924965,0.0023475145,0.04911509,0.004710406,0.037435498,-0.009218344,-0.0236144,0.043651015,0.026034307,0.03581568,0.06719545,-0.009788723,0.030449932,-0.075627394,-0.00026766135,-0.05231496,0.07421319,-0.021392455,0.004904194,0.06297335,-0.009453685,-0.06827415,-0.019818982,0.04234874,-0.06251121,0.03252082,-0.027774187,0.030677844,-0.021957098,-0.03499523,0.013336332,0.014294008,-0.07132801,-0.046240855,-0.026020924,0.042360567,-0.017415632,-0.02904203,-0.052046414,-0.012746765,-0.043658305,0.062276233,0.060678404,0.021710644,0.07973838,-0.027260393,-0.028680338,0.081864715,-0.02836512,0.03913696,0.014726518,-0.014377159,0.07318481,-0.0030088134,0.05706611,-0.032875955,0.008180106,-0.014560214,-0.029966272,-0.027292462,-0.03244607,-0.0065954695,0.07425355,0.012609487,0.018921303,-0.032578494,-0.045837812,-0.023517638,-0.0042768046,-0.02522396,-0.035151698,-0.026101777,0.045052264,-0.024256863,0.028945489,-0.039172124,0.051547974,-0.0015012437,-0.018852858,-0.051813506,-0.046197243,0.08522348,0.02417016,0.03477474,-0.026160024,0.026931053,-0.007780767,0.0020522773,0.05405397,-0.05665367,-0.05447054,-0.07205957,-0.07520331,-0.053660173,0.007885509,-0.018688994,-0.009587106,-0.06946397,0.0064631724,0.07728937,0.051773053,-0.049092915,-0.009553407,-0.015054281,-0.05616596,0.038876344,-0.042403683,-0.009375379,0.011116621,-0.030088937,0.018510936,0.040604293,0.042240616,-0.02180184,0.0553803,0.026850197,-0.057985783,-0.056675825,0.009425257,-0.082657434,0.0029613688,0.034077328,0.018598143,-0.061497536,-0.023647355,-0.016923496,0.043314043,-0.058876917,-0.044846687,0.008414719,0.0499741,-0.0030698925,-0.021432344,0.055883855,-0.06427232,0.011812536,-0.027448615,0.072483525,-0.0031180528,0.030307546,0.01019828,-0.06188958,0.011073162,-0.030347614,0.06499294,0.038104255,-0.07676761,-0.063201,-0.033305928,0.05166093,-0.06635939,0.074489914,-0.048076913,-0.026439527,-0.047544748,0.025883123,-0.06802296,0.047745682,0.0010666918,-0.004932096,0.052816693,0.009469626,-0.071789294,-0.056101285,0.058385335,0.06260601,-0.05179494,0.0044347043,0.068510056,0.06317376,0.03567452,0.06994101,0.008017516,0.05557929,0.059218347,-0.01647396,0.06588738,-0.022200339,0.006422345,-0.035502028,-0.06603126,-0.060651623,-0.057659708,0.00095639634,0.01710729,-0.05518875,-0.042296465,-0.0047829184,-0.023102483,-0.004107703,-0.059074655,-0.07777956,0.011452691,-0.016404403,0.009746503,-0.001986377,-0.061159637,0.06301073,0.033753596,0.0040184762,0.07375554,-0.039896723,-0.080090895,0.03872587,0.005163318,0.02313928,0.06537449,-0.06351149,-0.049775418,-0.038763423,-0.027757742,-0.00853421,0.052866768,-0.054272134,0.01663263,0.01733305,-0.025689784,-0.055307403,-0.010370037
-0.015676638,0.050500624,0.019319728,0.045289114,-0.02667751,-0.012114299,0.008186546,0.02236791,0.039043102,-0.0067205504,0.0105319815,-0.024794137,0.0038666069,-0.018127717,0.013067324,-0.062875435,0.024165599,-0.012859468,0.08125444,0.07366742,0.034326233,0.007128323,-0.07854286,0.058899842,0.077910595,-0.045941163,-0.015443758,0.04150252,-0.00095139875,0.08859082,-0.061192572,-0.033595573,0.08774219,-0.026729906,0.042327777,-0.07521923,0.054768313,-0.029953731,0.060308047,-0.0068632104,-0.00036386398,0.03931563,0.060785312,0.043575846,-0.00028705245,0.05144679,0.015693432,-0.0082557555,0.0693044,0.029143317,0.025963569,-0.04721676,0.019363083,-0.06438849,0.002497703,-0.05922378,-0.0783919,-0.07673315,-0.0030570407,0.0671708,0.023446605,-0.07390062,0.066652335,-0.016973969,-0.0005344871,0.060835574,-0.08651842,0.049346283,0.04625649,0.057088062,0.0736327,0.0707335,-0.069083504,-0.0036910092,-0.007826432,0.09202992,-0.011306873,-0.008192821,-0.05482143,0.04315182,0.06827952,0.027156005,0.0027939184,0.0048302095,0.08271569,0.006984681,-0.055886064,-0.016710196,0.06402599,-0.0127287805,0.074825026,0.08126961,-0.05431222,0.06959932,0.008992384,-0.014445289,0.032206867,-0.049559403,0.05650141,0.04396797,0.0057107457,-0.003985754,0.021706175,-0.083202556,0.08291287,-0.0582293,0.024109624,0.02563004,0.027164845,-0.07538135,-0.012036511,0.014262636,-0.055170953,-0.051559884,-0.056309395,0.01758633,-0.032205146,0.08835391,0.025228683,0.0043458533,-0.034926143,0.039834708,-0.010852789,0.0655033,-0.0076601384,0.06336479,0.020138469,0.039147396,-0.023932312,0.048375823,0.0805578,-0.03895607,-0.022713462,0.06939527,0.038908724,-0.049963433,-0.017634073,-0.024352139,0.034172077,0.008701486,0.030028911,0.047264103,-0.027945446,-0.059296567,0.061052248,0.07097945,-0.0031469704,-0.0072661103,-0.050889306,-0.03959207,0.07065277,0.048928455,-0.07238879,-0.020281982,0.045584336,-0.047161482,-0.044903073,-0.059147663,0.06258495,-0.03831241,-0.020581642,-0.072013944,0.06908509,-0.026099095,-0.006157704,0.05302564,0.08331473,0.009431208,-0.063577004,-0.016055552,0.08712609,-0.047598552,-0.01390976,0.061058994,0.036258455,-0.02693633,0.042466905,-0.035057638,-0.0034652937,0.040472347,-0.055019446,-0.05400778,0.06374752,-0.019892048,-0.08310506,0.05626302,0.02366259,0.023135955,-0.0049866247,-0.04245708,0.06001986,-0.0078119356,0.03527387,0.0074884556,-0.07010793,0.061017517,-0.036876734,0.01532666,-0.050130177,0.050542917,-0.045782547,-0.06885391,-0.04913679,-0.026548157,0.056722812,-0.005116314,0.019148301,-0.019662147,0.06806185,0.06471407,-0.06973659,-0.06806502,0.05489419,0.035435606,-0.05197719,-0.07784615,-0.02984727,-0.05556227,-0.03731243,-0.017947603,0.08678527,0.094793625,0.03537699,-0.0003162477,-0.053734742,-0.018388553,0.016574748,0.064414866,0.047599338,0.03989181,-0.040514704,0.008778349,-0.07712176,0.071697526,0.07235891,0.020463336,-0.040628634,-0.06377233,-0.016192814,0.070891224,0.05549055,-0.088133276,0.016569922,0.083884686,0.06506283,-0.022230368,-0.07682641,0.040391557,-0.036211558,0.03559275,-0.020286838,0.012575289,0.029444925,0.0052197063,-0.004177927,0.022614254,0.030890591,0.05962395,0.028946111,0.04899733,-0.07758079,-0.039717592,-0.01684325,0.0351955,0.037596885,-0.02824357,-0.06039494,0.05399919,-0.016275153,-0.017702242,0.0891356,0.017760448,-0.026815338,0.08591128,0.012166438,0.011057872,-0.010095927,0.0021158704,0.06689841,0.034971684,-0.013190022,0.014098832,-0.031642728,0.04105872,0.0617722,-0.016594313,-0.024351358,0.01896685,0.009963584,-0.04740431,-0.030575376,-0.01188342,0.0062886765,0.04591433,0.05182508,-0.035573956,-0.03149363,-0.01727407,0.018448133,0.030855933,-0.0039679627,-0.07328921,-0.03668908,0.06910405,-0.05646325,-0.043637674,0.060176875,-0.079546586,-0.05768091,0.0703618,0.018639592,0.092439674,-0.06319352,-0.02672768,0.0019343462,-0.05490927,-0.02583566,0.04180674,0.092826426,-0.058657106,-0.061656233,0.00906423,-0.031864274,0.010993953,-0.05802781,-0.025116289,0.06546979,-0.0746973,-0.020453297,-0.0035708372,-0.039307397,-0.05505352,-0.07777136,0.06470056,-0.000690229,-0.024710014,0.04931855,-0.0067769736,-0.03012104,-0.048261926,-0.02535161,-0.0024364186,0.0020742663,-0.033308692,0.07693578,-0.0002879265,-0.044930924,-0.038689964,-0.06988634,0.037973113,0.055059772,-0.0007868979,0.049693577,-0.0018016458,-0.027613457,0.042785577,-0.062392343,0.08303408,0.035653446,0.0007028792,-0.02414691,-0.06463788,0.03846573,0.0304154,0.06852347,0.0077457232,0.06781516,0.03661531,0.015259371,0.0056350348,-0.010828895,0.08968478,-0.0539269,0.013292008,-0.039916933,0.029972505,0.08580158,0.064840324,-0.06830957,0.052751552,-0.058966648,0.07094329,0.032312036,-0.063391514,-0.06511147,-0.033564903,0.01644487,0.057906546,0.062878706,-0.08762952,0.0028837477,-0.07400859,0.053217605,-0.024139598,-0.06827797,0.09547652,-0.053871334,-0.0023826647,0.03211919,0.026740339,0.05996664,0.02632044,0.062415607,0.06694773,0.0059456564,-0.052316856,-0.025648752,-0.028701216,0.045445655,-0.07683793,-0.045120083,-0.044271927,0.029786663,0.05732603,0.0034424902,0.027418844,0.0023938168,0.00042633645,0.05272738,-0.0604385,-0.063774616,-0.0052256,0.05908484,0.03404952,0.03797898,-0.028623674,-0.05417883,-0.058827654,0.068330824,-0.04354084,-0.013744373,-0.047708936,-0.0323737,-0.079282194,-0.032613587,0.06784875,0.08230779,-0.0035164885,0.037161596,0.048904847,0.010267344,-0.027414821,-0.032414444,0.0072726035,0.049794566,0.051633775,-0.064789884,-0.035848875,-0.019380607,0.061294384,0.02366732,0.06991933,0.0711368,-0.064818725,0.07952485,0.053834673,0.028460262,-0.019365486,-0.010894293,0.04803055,-0.01973329,-0.018149193,0.024558764,0.021578755,-0.013032845,-0.058665514,-0.078992225,0.030234441,0.046875842,-0.024947925,-0.020817656,-0.03368739,0.027249048,0.021055428,0.09324428,0.086860634,0.029320003,0.0381735,0.04158141,0.04594578,-0.017592682,0.014565057,0.0054217298,0.0021146915,-0.06556381,0.0115484465,-0.0702547,0.07451194,-0.0324642,-0.06438683,0.0029319767,0.06429529,0.05911222,-0.01300162,-0.012702544,-0.05098162,-0.003489661,0.048071697,-0.020629808,0.02337649,-0.015442176,0.03199987,-0.009232959,0.08624984,-0.051823933,-0.009566223,-0.047623865,-0.0014099961,-0.014914271,-0.028603686,-0.043253865,0.04058772
0.07454627,-0.042568162,-0.03729758,-0.054392833,0.026655871,0.049588118,0.030027503,-0.042713154,0.008835912,0.006789658,0.070090644,-0.00067148556,0.051540837,0.024579374,0.08472943,-0.02398685,0.014188897,0.029942226,0.05436779,0.05042396,-0.0286914,0.040643647,-0.07641058,-0.02948813,0.06135763,0.07042608,-0.023227045,0.031062782,0.08181489,0.054059528,0.0608634,0.085733436,-0.023384495,-0.034579474,-0.04089412,-0.052246377,-0.046531834,0.006617107,-0.025966218,-0.00011113269,-0.0050201463,-0.0027182358,0.03958968,0.04075693,0.061193578,0.08790054,-0.07767595,-0.029286442,0.036628515,-0.05136243,0.081183374,0.017370956,0.065774955,-0.059555814,-0.033775765,0.047479197,-0.0008096535,-0.03102865,0.09010802,0.058552608,0.026922975,-0.06283778,-0.082539186,-0.0604021,-0.04548884,-0.01184376,0.03863441,0.09128761,0.04273927,-0.07412507,0.029012104,0.06764282,-0.07065164,-0.012615287,-0.006260165,0.084534876,0.07542571,-0.050534558,-0.008374863,-0.01122407,0.06698698,-0.051305152,0.015963128,0.0026494304,0.035453282,0.027292829,0.01750962,-0.009097685,-0.015546869,-0.019895598,0.09859089,0.06869772,-0.05807942,-0.04251511,-0.06043194,-0.041721527,0.02178598,-0.015389109,0.08181372,0.07391069,0.016307248,0.033291485,0.042308435,0.02442455,0.0967002,0.02171432,0.028334405,0.054732416,-0.051748272,-0.042449187,-0.06193216,0.05975888,0.00053315354,-0.010842668,-0.00399276,0.022250144,-0.015857212,-0.047607858,0.022783596,-0.02697813,-0.018087618,-0.020459563,0.055912126,-0.024266921,0.0033640617,0.02546312,0.014373611,-0.026901184,0.07256875,0.0024811798,-0.049497493,0.058194716,-0.024853451,0.00028830094,-0.06602748,0.037038833,0.05361351,0.06301316,0.0060967044,0.049088325,0.009105441,-0.058827627,0.021545958,-0.03115036,0.022155894,-0.053750094,0.019357055,-0.03891315,0.034783307,-0.034749243,0.069766596,-0.01779026,0.04346378,-0.046199583,-0.050861195,-0.08186643,-0.014244187,-0.04834387,-0.041112956,-0.030523608,-0.038327206,-0.054950994,-0.06104733,-0.045475483,-0.009849796,-0.022067126,0.056497075,0.02782926,0.06440979,0.064354606,0.07766675,-0.012377044,-0.03629155,0.02869864,-0.02958382,0.003210944,0.019076325,0.057971884,0.07676792,0.040350817,-0.073732845,0.06866079,-0.004118678,-0.075531274,-0.056300536,-0.043854024,-0.03206055,0.033674464,-0.0119125275,0.02130767,-0.02691707,-0.07656983,-0.057388946,0.011795774,0.07396518,-0.014251487,-0.034963712,0.06885464,0.032046292,-0.05526303,-0.07405604,0.018444829,0.06531233,-0.068946026,-0.05194284,-0.015837835,-0.034310885,-0.015463861,0.0037006647,0.06591829,0.02508266,-0.042266205,-0.050102074,0.050529268,-0.016914409,-0.062701195,0.096168265,-0.043355506,0.015494108,0.007429601,0.06814526,0.038056176,0.09548079,-0.06524521,0.031431887,0.06463732,-0.021158595,-0.029437166,0.07863859,-0.0028802142,0.067500114,0.048101272,-0.0055477237,0.07529595,-0.03226534,-0.02186349,0.0038639395,-0.0708853,0.053290654,0.076033235,0.04372265,0.02929015,-0.07209936,0.05238232,-0.054803412,-0.04311585,0.0580465,0.05714601,0.078887336,0.06303166,-0.048350237,0.09381062,-0.029975908,-0.0592197,0.052325025,0.057027735,0.08667342,0.023677435,-0.02260912,0.08856847,-0.063308924,0.022426125,0.034251373,-0.05276765,0.029190412,-0.041007403,-0.034555096,-0.0019807296,0.062001273,0.032130614,0.037142575,-0.015181555,-0.079870336,0.00091019756,-0.04375479,0.08919256,0.088434055,-0.0412994,-0.028058708,0.053794973,0.0645752,0.009706181,0.06743387,0.03441282,-0.066449985,0.03267443,0.016318876,0.06715429,-0.022507353,-0.06091915,0.03735736,0.021077305,-0.011358114,0.04322947,-0.016581668,0.07376736,-0.055298403,0.038276438,0.03976553,-0.015506824,0.0144912945,-0.0058059487,0.07471747,-0.012898627,-0.042529725,0.02965012,-0.07698325,0.06292538,0.036357135,0.021689141,-0.01584035,0.041948218,-0.0096146045,-0.051901437,-0.036132876,-0.053933185,0.07024301,0.056624975,-0.014922636,0.011446809,-0.06433399,0.04572176,-0.02578915,0.03872054,0.060254954,-0.046456356,0.029806888,-0.004584024,0.009320348,0.0386663,0.013420776,0.02774546,0.03193653,-0.07437003,0.06804592,0.049184486,0.012042396,-0.0415143,-0.023549786,0.008713738,-0.0046968604,-0.048051283,0.018082535,-0.03406213,0.0721163,0.06214864,0.044266965,0.010480141,0.036476478,0.089221515,0.0297414,-0.028397683,0.045071222,-0.019729326,0.036040787,0.02932927,-0.040537436,0.0051218728,0.013646981,0.024236042,-0.06172505,-0.04965052,-0.0074817473,-0.019435363,-0.08206934,-0.056346007,0.027073232,0.0315632,-0.023129636,0.03472024,-0.012287518,0.07696821,-0.00951844,0.07301988,0.09519298,0.07318236,0.017091447,-0.033776067,0.03338271,0.0314929,-0.062991515,0.03100311,0.0022355518,-0.0031070018,-0.010625183,0.037808526,-0.02992112,0.03171518,-0.08337398,0.03056629,-0.07326016,0.037071906,-0.03465434,-0.008080889,-0.061632458,0.06649535,-0.014865236,0.098879464,-0.030758455,0.07560788,0.056949317,-0.03161265,0.05636956,0.01049621,-0.045650925,-0.0849317,0.061549015,0.05562863,0.007336505,-0.035683654,-0.06429768,-0.060470853,-0.04284514,0.044693973,-0.03843832,-0.028179659,-0.040143177,0.044795442,-0.0052027106,-0.047542986,0.036597747,-0.03049654,-0.01025648,-0.023267245,-0.0014056346,-0.07485856,0.016698848,0.011306376,0.04774036,0.0058393893,0.09528774,-0.01873077,-0.046017513,0.04745156,0.046711188,0.024439478,-0.009730867,0.07060186,-0.018833607,-0.030592903,0.06945362,-0.07921083,-0.012395702,-0.008631556,-0.04934137,-0.042450394,0.04288902,0.09223307,-0.003100472,0.059856042,-0.070472516,0.08892583,-0.032750953,0.087903865,0.016834285,0.048098918,0.010524384,0.017349577,-0.04836764,0.003839543,-0.08612468,-0.040601935,0.08928353,-0.00057889754,-0.027192082,-0.048641264,-0.08093168,0.07138365,0.009546719,-0.038936485,-0.061284654,0.012427238,-0.036307123,0.054631352,0.09793361,0.00028626644,-0.02278276,0.024999795,-0.038803734,-0.04463379,0.005485595,-0.009988544,0.026879305,0.00572969,-0.07452634,0.029871803,0.059403285,0.098845184,0.03995439,-0.03081739,-0.07846785,-0.05978315,0.07032519,0.087492555,-0.02292625,0.01918301,0.01913498,0.064813286,-0.062722415,-0.069102846,-0.0014495065,0.020792231,0.045994207,-0.011588392,-0.045016687,0.04342163,-0.06975774,-0.039983768,0.06382734,-0.010446527,0.021164583,-0.015965123
-0.06100693,-0.040616654,0.06644176,0.036718242,0.021794947,0.0022316931,0.064068876,-0.021776265,0.045521695,-0.02456908,0.06311427,-0.02156259,0.025662722,0.044967115,-0.02613606,0.07575742,0.06283769,0.02254706,0.09331877,0.06240476,0.057876617,0.025079092,-0.026571844,0.04277443,0.08453345,0.047359817,0.05722615,-0.048556015,0.04638525,0.025713416,-0.009518817,0.004024783,-0.00912253,0.045863442,-0.007203231,0.059824113,0.033219915,-0.038374793,0.01578568,0.07742583,-0.054046698,-0.0024956663,-0.039370295,-0.021201855,0.068817325,0.024013015,-0.06672205,0.049907643,-0.04655481,0.08041793,0.0063094096,0.06613358,-0.04824477,-0.016862312,-0.07466624,0.039076548,0.04427368,-0.011298649,0.019616565,0.048882287,0.0065445756,-0.0053324727,-0.017867086,-0.084869325,0.08091891,0.06810332,-0.03282111,0.07915603,0.053315315,-0.01839996,-0.033032425,-0.060125846,-0.029978735,-0.030674484,0.06721953,-0.0033112548,0.048505392,0.092988245,0.0014614012,-0.060874913,0.0014018336,0.07555916,0.09256465,-0.038911343,0.063855104,-0.07546783,-0.026480135,0.0031576299,0.07759046,0.010469377,0.014904442,0.07665119,-0.058400393,0.012330037,-0.02204447,-0.057595845,-0.014395405,-0.069104604,0.053207174,0.007967152,0.042990655,0.0076260464,0.06360554,-0.023468658,0.05339631,-0.00832417,0.055231635,0.06097464,0.06116928,0.014276717,0.07021513,-0.04370476,-0.039380785,-0.0047573373,0.009839144,-0.04801105,0.05560973,-0.0029841636,0.04873579,-0.060047224,0.076200284,-0.011768495,-0.083521485,-0.02636064,0.048641227,-0.04667647,-0.00395285,-0.0026398269,0.023370443,0.020208985,0.053764958,0.03209991,0.039689995,0.017990395,-0.0426084,-0.018653361,-0.06281509,0.039616913,0.03715973,-0.0035675298,0.007694164,-0.054429892,-0.07519631,-0.05870061,-0.005746622,0.06782939,-0.057135455,0.051643107,0.009081059,-0.08108864,0.06040733,0.0659329,-0.00089885446,0.0046369405,0.007874471,-0.04625153,-0.0464813,-0.0024504517,0.080348335,0.08171367,0.050001297,-0.008614321,0.002047782,0.031818576,0.06568179,-0.048793655,-0.03185327,0.06318394,0.0673877,-0.031477626,-0.0045953225,0.03196243,-0.0049657417,0.018366763,0.036621783,-0.06282822,-0.011851951,-0.059171546,0.048191402,-0.019111622,-0.036872152,0.06603084,0.013899203,-0.06103705,0.0073250597,-0.0154228965,-0.036015157,0.03560993,0.016280659,-0.009313296,-0.04259624,-0.050000962,0.0026559199,0.04102303,0.06458301,-0.02428306,0.051686518,-0.046659146,0.048117828,0.017640391,0.020741172,-0.053585153,-0.00051317,0.035353232,-0.04260106,-0.07067031,0.03910647,0.016394697,0.020755796,-0.058542054,0.0010764669,-0.030346338,0.0050275046,0.07725425,0.048068997,-0.05600231,0.015787562,0.07599279,0.015208866,-0.053335797,0.08004228,0.0071279285,-0.015585566,-0.0057910886,-0.036473896,0.033311956,-0.06150148,-0.019595586,0.044674035,0.005652442,0.0026125521,0.07504526,0.046700153,-0.050798684,0.0032357876,-0.039933287,0.018393861,-0.027203076,-0.033790085,0.061179854,0.046949685,-0.07105378,-0.0068714875,-0.0049458053,0.0070544425,0.062481537,0.021806529,-0.068672955,-0.048424337,-0.008531417,0.057371963,0.040182535,0.014551901,0.046740387,0.0037336322,0.05874559,0.030868515,0.06798586,-0.024770577,0.08848717,-0.055373415,0.03117985,-0.059861183,0.023111463,0.0012795074,0.009469281,0.03236308,-0.0020220294,0.090254515,0.062209755,-0.02942899,0.03923002,0.02046407,0.048579853,0.059380364,0.092665,0.04337342,-0.076928124,0.08578203,-0.03305864,0.04062205,0.016249763,0.070100114,0.063460276,-0.048707876,-0.021347506,0.018003304,0.045323923,-0.0328523,0.06885835,-0.07250278,0.030290129,-0.06593599,-0.022801088,-0.040063903,-0.00940034,0.033505186,-0.0036758268,-0.0718879,-0.07168233,-0.009534531,0.006639592,0.067662075,-0.025853015,-0.024156252,0.039534766,-0.053061392,-0.00014909051,0.020627286,-0.041865572,-0.0066152588,0.08126278,-0.03493713,0.08487778,-0.0046183,0.017031992,0.05775612,-0.02361688,0.046759773,-0.037620522,0.059749644,-0.05207744,-0.07364067,-0.05980649,0.03288511,0.007730981,-0.068246946,-0.050214674,-0.0057283025,-0.060531005,0.0116554145,0.051176563,0.02654808,0.027820978,-0.044139594,-0.033357054,-0.028235514,0.005131074,-0.031110536,0.014628995,-0.0070880344,-0.057390843,0.03143636,0.023972616,0.0031371946,-0.0045440183,0.04078949,0.087798454,-0.07681622,0.032277152,-0.07156637,-0.036038503,-0.0016787213,0.0578232,0.060892828,0.012459648,0.020187134,-0.003735946,-0.01697162,-0.04149886,-0.05911319,0.041055672,-0.082621045,-0.019759636,0.021466542,0.045214538,-0.058352713,0.063381426,-0.03737387,0.058587603,0.019702578,0.08301067,-0.011499729,0.013337681,0.036438156,-0.021425558,-0.010519887,0.05382643,-0.0677057,0.06251098,0.037063234,0.047148414,0.0043763327,-0.012942753,-0.0450684,-0.030052243,0.026335832,0.014189072,0.040743273,-0.06693128,-0.017085966,-0.03769829,0.089640364,0.071703196,-0.028101781,0.018464543,-0.04036209,-0.048068613,0.06670325,0.05686999,0.04846488,0.027439268,0.05410997,-0.016308425,-0.07426735,-0.0049488414,0.054516573,-0.026464658,0.026418021,-0.050079178,-0.005975553,0.06305394,-0.08956147,0.05629358,0.026624193,-0.055219393,-0.0037960436,-0.07169274,0.08284611,-0.081562355,0.05522693,-0.03922921,0.09076771,-0.0037879944,-0.0027713254,-0.018284166,-0.016507465,-0.017230475,0.07634286,-0.03409555,-0.022828007,-0.06018033,-0.0003893856,0.05842731,0.038390942,0.034100767,-0.0025290623,0.0547306,-0.047135785,0.019576129,0.017739996,-0.034206465,0.063483216,0.04364116,-0.022149926,0.015041969,-0.025858194,0.047642566,0.056805223,-0.087949805,-0.025106056,-0.04313906,0.037500437,0.019448368,0.05624444,0.023808928,-0.0037919793,-0.056698382,-0.021193268,-0.008066288,0.004652298,0.080787756,-0.02984626,-0.008333158,0.027313482,0.034434404,-0.0012017102,-0.047579512,-0.013170093,0.054571535,-0.048806045,0.036254555,-0.03245483,-0.017073765,0.054340262,-0.016302913,-0.063941106,0.0623738,0.035064556,-0.0035159742,-0.06458812,0.008876902,0.0063093463,-0.00540831,0.030844325,0.0148668,0.018216517,0.040578343,0.008275415,0.039316136,-0.0018034829,-0.032932885,0.037794627,-0.009292455,-0.019261142,-0.07958704,-0.002157711,0.024337236,0.0035910448,-0.008083989,0.019883398,-0.051859602,0.012584161,0.028457405,0.0905994,0.013665157,0.01695495,-0.045292843,0.016552966,-0.0076922923,0.0031764845,-0.006024325
-0.05814709,-0.008553899,-0.013278205,0.02907331,-0.010860725,-0.06484812,-0.0010222497,-0.061578006,0.037588056,0.039915532,0.064152196,-0.052766446,-0.02323819,0.06644967,0.0012803322,0.068545856,-0.011301167,-0.031983577,-0.025917195,-0.059038524,-0.044456746,-0.009727171,0.009094588,0.012165488,0.02862837,0.04257952,0.016151559,0.018949263,-0.022051051,0.013654127,0.013893745,0.07886949,0.01557453,-0.021564415,-0.0089551965,-0.08146605,-0.012819346,0.023147076,0.0017611369,-0.011330568,-0.030100405,-0.03211381,0.07976125,0.034964554,-0.012791182,0.053055126,0.06227272,0.06924879,-0.073782004,0.052212093,-0.06707647,0.014466625,0.00869929,0.053970665,0.033675253,-0.044011857,0.032811824,-0.041065566,-0.052186232,0.034178615,0.08286567,-0.024430953,0.0070770853,0.062308308,0.05443137,0.020787247,-0.031243037,0.067810275,-0.06265102,-0.014089934,0.08793224,-0.05068533,0.022414183,0.040212233,-0.039893985,0.037193734,0.07224311,-0.020394806,0.038895875,0.010769409,-0.066875614,-0.025991365,0.020681974,-0.05796539,0.07463088,0.02580689,-0.0144464,-0.02167501,-0.06068823,0.023419514,-0.021110898,0.0123087885,-0.025501048,-0.04972656,0.01750119,-0.0026185936,0.048779894,-0.00030037956,0.013441524,-0.07346646,-0.058889233,0.0100944815,0.049873903,0.022232223,-0.045537632,0.039600812,0.043434676,0.093444735,-0.046880465,0.055850245,0.07498878,-0.0017943563,-0.017621942,0.034863632,-0.050667964,-0.012616917,-0.017509617,-0.043852337,0.048691314,-0.06984302,-0.05113653,-0.014167697,0.07589454,-0.037467774,0.020076796,0.08083047,-0.0005265097,-0.025039515,-0.004330602,-0.057674523,0.0702504,0.032455646,-0.038201567,-0.029730145,-0.06943179,0.04289148,-2.6412083e-05,0.0081706885,0.02101162,0.022526048,0.037378512,-0.06856027,-0.02371125,-0.057576664,-0.005930884,0.02450392,0.002237849,-0.058813456,0.062182255,-0.022973571,0.027315574,-0.05536782,-0.013628632,0.070274875,0.08599317,-0.017232975,0.007889305,0.054611064,-0.038534563,-0.049238164,0.026755974,-0.03443265,-0.065522276,0.0051337867,-0.06407128,0.05270364,0.013812125,-0.004886832,-0.051532075,-0.019080808,0.047065478,0.06594798,0.025884895,0.04448967,-0.055442262,-0.03119984,-0.023768049,-0.062800944,-0.056419756,0.033144098,-0.040572926,0.08522291,0.05992157,-0.07277829,0.04003504,0.023071958,0.06461436,0.016133495,-0.07722997,0.06606719,-0.04619777,0.052798416,-0.015774885,0.03956176,0.025105968,-0.0025009685,-0.032577503,-0.047114506,0.012609734,-0.0518031,0.061132804,-0.07284743,0.024071312,-0.07101814,0.031960193,-0.004974635,0.08814431,0.022797931,-0.0109873945,-0.056759052,0.03779911,-0.0426715,0.029032342,-0.048701983,-0.0061531966,0.0014605487,-0.030248921,-0.036474004,-0.043691833,0.03357972,0.0836566,0.004781492,-0.0053493096,0.0010233824,-0.045179773,0.051091857,0.030263243,0.019254293,0.057999875,-0.0083170775,-0.060708497,0.07004249,-0.05970665,0.022286007,0.06824991,-0.057974692,0.048873466,0.006201142,0.03666022,-0.059454557,-0.014269939,0.024850132,-0.08686772,0.039577775,0.034972563,0.050958425,0.01530653,-0.06107376,-0.026191661,-0.08505723,0.019110335,0.082854494,0.04022098,-0.055337176,0.013344805,0.07626666,-0.01834596,0.013333447,-0.014137628,0.0039412645,-0.06376482,0.067367405,-0.034010615,0.07383863,-0.049626216,-0.06401611,-0.042255733,-0.0048283217,0.04288651,-0.038453586,0.02800751,0.06490704,-0.048043117,-0.014957557,0.0344428,-0.012585193,-0.039174702,0.045556203,-0.05406479,-0.017037839,-0.033514794,0.044206206,-0.03359864,0.0036404612,0.028747924,0.04734742,-0.020341631,0.076913506,0.038417418,-0.03747047,-0.07973025,0.036981743,-0.044659283,0.08526111,0.04106477,-0.044388983,-0.050443027,-0.012814221,-0.037981216,0.033968188,0.022572218,0.04224688,-0.042755622,-0.05933711,0.06395412,0.029851861,0.008446631,-0.037114803,0.08058883,0.0690631,0.021717662,0.08905661,-0.03922524,0.07668009,0.07505973,0.08771094,-0.051931128,0.053078167,-0.0030515653,-0.0037010517,0.052199766,0.03453099,-0.07206678,0.026073886,0.041553207,0.024075594,-0.06934833,-0.070213385,-0.041750748,-0.07020498,0.038034093,-0.046336558,-0.03788469,0.061432485,0.09183773,-0.015136929,0.012118032,0.02077498,0.055580582,0.05448565,-0.020062765,0.024868248,0.032715507,-0.055693462,-0.04486897,0.08117514,0.043512322,-0.041181162,-0.079013586,-0.058681406,-0.031387057,0.048346903,-0.04573222,-0.039959926,0.048287835,0.08261877,-0.07206275,0.07524938,-0.0050693927,0.05190607,-0.053842813,0.0023321118,-0.03936261,0.06549102,-0.06333965,-0.07486002,0.01423178,0.0853369,-0.024315156,-0.027992142,0.0038777406,-0.034248985,-0.013779566,0.07567079,0.018825063,0.028099207,-0.036201168,0.059372324,-0.027285056,-0.0058065937,0.037532713,-0.04904025,0.020322781,0.029420711,-0.048597854,-0.04228932,0.026194649,0.03684525,0.028909422,-0.022445675,-0.06945862,-0.07020699,-0.047329012,0.06952594,-0.007730335,-0.01210536,-0.042975206,0.06600286,0.08419546,-0.036692012,-0.016986182,-0.031332806,0.008153649,0.031715702,-0.0682636,0.020945167,0.041983157,0.054780357,0.025567153,-0.048786838,0.051136144,0.022475976,-0.026296541,-0.03889428,-0.037591808,-0.010794602,0.024259249,0.004859737,0.047281984,0.032690555,-0.06715,-0.047724694,-0.017948797,-0.062666625,-0.060642287,0.046580575,0.061349213,-0.047867864,0.036670953,0.0412767,0.0768066,-0.027176183,-0.016112737,0.016786614,0.0820252,-0.015877634,0.03609542,-0.033067662,-0.032543305,0.041028764,0.0024486587,-0.0769492,0.012074188,0.06555408,0.037663598,0.01056361,-0.000123001,-0.0031935782,0.054110974,-0.023733573,-0.012023971,0.023474708,0.01433995,0.06980921,0.008560203,-0.08390852,0.0086184805,0.018807815,0.08885981,-0.037838068,-0.050304465,0.015726535,0.057527263,-0.032715436,-0.04715133,-0.029092913,-0.033322446,0.049935,0.018387325,0.07798901,-0.011129817,0.0016114393,0.004723189,0.023961458,-0.04525627,-0.021680024,0.068815246,0.050468564,0.02894452,0.06024116,-0.014330364,0.046593763,0.088085115,-0.08436159,0.042113528,-0.019637145,-0.086217456,0.090981185,-0.0011972592,0.02520051,0.06291136,0.037725314,0.022342812,-0.046598066,-0.046697427,-0.081327625,-0.0021158913,-0.048175205,-0.045088947,-0.023861254,0.07446449,0.053015105,0.038850635,0.029375654,-0.015549243,0.021608694,-0.04081915,0.013699331,-0.001380919,0.047929432,-0.02036187,0.010179772
0.049672436,0.026813164,0.070195846,0.02635158,-0.019567562,0.049541157,-0.011302745,0.014834901,0.018227307,-0.054839935,-0.008018447,0.01892067,-0.016355949,-0.06415699,0.052614182,0.020879623,-0.008920659,0.0065660807,0.014571464,0.051056203,-0.015251875,-0.002993277,0.006025073,-0.02583929,0.08447786,0.047964696,0.020255042,-0.07357405,0.09212041,-0.021514855,-0.055309393,0.021806823,-0.028241957,0.034796666,-0.028671484,-0.017806008,0.05119668,-0.029386302,-0.030182635,0.077030554,0.0064810216,-0.0733869,0.07812131,-0.06854892,0.041865982,-0.056427147,0.046729244,0.0352267,-0.035827905,-0.038414933,-0.053764984,0.049218435,0.036799703,0.039423205,-0.07722671,0.05739369,0.052806817,0.02114101,0.025879443,0.026022552,0.06913596,-0.00433169,0.049303774,-0.04274018,0.009258375,-0.040851846,0.051730674,-0.048389234,0.020284895,-0.004465248,0.023913527,0.039422717,0.05666929,-0.043958537,-0.043741338,0.082115255,-0.012616961,-0.01812066,0.030959727,0.054266885,-0.040457428,-0.028259296,-0.030549139,0.055555347,-0.04182439,-0.02112285,-0.05135687,-0.033033572,0.084128805,-0.01698703,-0.00688579,-0.05724233,0.08505483,0.0482867,-0.0389679,-0.010228215,0.021388,-0.0492911,-0.032725323,0.030985257,0.041910693,-0.051175803,-0.041615907,-0.08393354,-0.024762977,-0.04963823,0.047868807,-0.03246464,0.043783817,0.022805028,0.05931556,0.05801522,0.058507886,0.051673803,0.016969517,0.0044348263,0.05267581,0.020738583,0.007091349,0.05946335,0.044823907,0.01985945,-0.031164581,-0.05086399,0.031536505,-0.0137219755,0.033001453,0.033845976,-0.022475388,0.025446035,0.0974971,-0.042724486,-0.025514783,-0.02899036,-0.013630821,0.0366927,0.045465007,-0.066266246,0.034063928,0.056003027,0.054265045,-0.053936098,-0.06465154,-0.072970666,0.057201825,-0.017959913,-0.08640326,0.03169528,-0.07670327,-0.062002536,-0.047021482,0.018149722,-0.061210368,0.06471019,-0.047960047,0.040356286,0.06674203,-0.021920184,-0.023473809,-0.05517824,0.011204324,-0.060373433,-0.024094313,0.0043131365,-0.059613217,0.04231768,-0.05012835,-0.026396012,-0.006208384,-0.006825814,0.046083104,-0.047679204,0.0008760588,0.016032653,0.053030297,0.04042842,-0.012110556,0.04565719,-0.02733175,-0.001116371,-0.055640664,0.08962198,0.012627659,0.032715216,-0.062304866,-0.030456,0.07399822,-0.021760987,-0.047521066,-0.03434383,0.030455165,-0.078693174,-0.027565166,0.022460844,0.031773686,0.0019774942,0.04716046,0.09496863,0.06606959,-0.06360408,-0.007329504,-0.014511795,0.017191146,0.023873068,0.043752573,-0.029533878,-0.00892074,-0.014126822,0.08038485,-0.058818985,-0.016251918,0.0076351045,-0.0660101,0.06892261,-0.030321619,0.044352233,0.0116075855,0.07977495,0.028097168,-0.055853985,0.06739501,-0.02521324,0.090154365,0.021296006,0.045304812,-0.008161645,-0.06914436,-0.0011727272,-0.033315983,0.05274418,0.002831849,0.0841316,0.035985574,0.03936458,0.012611506,-0.07502043,-0.017712638,0.06392034,-0.035536826,0.043768477,-0.02725534,-0.031480297,-0.059141845,0.006818064,0.061235465,-0.042095553,-0.05103678,-0.0610706,0.033183534,-0.017934563,0.08919345,-0.043890554,-0.055341948,0.0634387,0.043016944,-0.030021207,-0.038809244,-0.047525045,0.055264484,0.087974586,0.06808868,0.099251725,-0.07540097,-0.0046658814,-0.030939355,0.047153644,0.00047507818,-0.029698804,-0.037057232,-0.022238586,0.00926107,0.020869784,0.038849026,-0.030462041,0.040993135,-0.002737796,0.013142472,0.06097508,0.0637014,0.009075681,-0.011712974,0.047195636,0.00052134367,-0.07405714,-0.08747593,0.01034663,-0.03024144,0.011710479,0.027133783,-0.008835127,0.041013546,0.027074404,0.047203977,-0.0518459,0.09513749,0.017532315,0.003084381,0.04764513,-0.0060917186,0.024243964,-0.054759778,0.0361712,0.027026607,-0.015252804,0.024997625,-0.011311461,0.032066595,-0.059329554,0.008828093,0.05614697,-0.08151729,-0.038545087,-0.05792011,0.09848415,0.013567882,0.045108426,0.0755921,-0.03771638,0.058234684,0.06019223,0.04693982,-0.0520865,0.02048924,-0.014367172,-0.04566684,0.026859658,0.016006727,-0.05303549,0.038776923,0.012729461,-0.0038602427,0.0055955835,0.019382644,-0.008467531,-0.029906994,0.0425021,0.059940275,-0.054597516,-0.07018742,0.039713755,-0.026791051,-0.076716766,0.038070973,-0.013277835,0.07759425,-0.045988694,0.0449466,-0.0017575478,-0.026430717,0.05202741,-0.08456371,0.02246727,-0.026278371,0.013635897,-0.046687488,0.0023425065,0.025701089,-0.054574136,-0.012285936,0.028699307,0.03206925,-0.0781091,0.041937824,0.059144724,0.054452464,-0.04848061,0.024619367,0.00032473536,-0.048107326,0.049379766,-0.06332459,0.022115028,-0.0026471177,0.002099444,0.08525602,-0.031993758,0.058166016,0.005950072,0.059123386,0.028397018,0.082599595,0.0072439318,-0.038093016,0.015360933,-0.041019294,-0.009237661,0.015397064,0.03500132,0.010827969,-0.06834629,0.054786086,-0.0529192,0.06587533,0.087319344,-0.06727657,0.046588443,-0.006067762,-0.046788737,0.07501545,0.009448896,0.033541966,0.01800401,0.063872054,0.06851213,0.046579894,0.027954122,-0.07471125,0.00434341,-0.059387494,-0.07537803,-0.022940563,-0.08192978,-0.02755476,-0.04242004,-0.015726998,0.044899657,-0.020774186,-0.06423007,0.01490078,0.009362122,-0.019219864,-0.041547656,0.03442355,0.024785683,0.013559915,0.008596505,0.028586911,-0.0028753218,0.014378167,0.00233009,0.03879714,0.049455937,-0.004887758,-0.05852664,0.059778146,0.098130204,0.076739274,0.0021358556,0.07218986,-0.05222284,0.021939782,-0.027939918,-0.05437286,-0.06656284,-0.047691427,0.066090204,0.002794735,-0.031807527,-0.058313522,-0.03970714,0.009869697,-0.03467787,0.05984516,-0.036903717,0.06035791,-0.06988379,-0.00023315156,0.015086481,0.0026796195,0.05063879,0.0013443889,0.08001167,0.093033046,-0.029425908,0.06512051,0.039894253,0.064858064,-0.022280846,-0.015416154,-0.023508178,-0.027915597,-0.04799064,0.094406396,-0.011225163,0.056500133,-0.035934243,0.025951024,-0.032461945,0.027895035,-0.019153763,-0.08477564,0.016780842,0.06133437,0.04460299,0.026081625,-0.04710958,-0.082420215,0.072964996,-0.032405607,-0.037870795,0.04875177,0.058798414,-0.02681241,-0.011044347,-0.042500593,0.007162035,0.05035969,-0.035716474,0.049532194,-0.04609274,0.031124348,-0.052497312,0.076691225,0.023285933,-0.026731241,-0.04117649,0.007479352,-0.021893928,0.010098805,0.01241482,0.028338451,-0.009025406
0.0073339394,0.03152693,-0.033174843,-0.046208866,-0.034654073,0.07807639,0.079331204,-0.00515014,0.09509404,0.04967866,0.06626459,0.044377632,0.06861795,-0.015185876,-0.027971745,0.035358522,0.04675674,-0.08037741,-0.040166724,0.009752498,-0.04980577,0.06965574,0.030246314,-0.039469264,0.03395461,-0.01637167,0.015369401,0.028873865,-0.0036920274,-0.052788418,0.0478467,0.0028144051,0.07362834,0.033590537,0.042364318,-0.008114778,-0.064696394,0.031035066,-0.0033065747,0.011080742,0.041826632,0.0014983128,-0.009218437,-0.06640409,0.0983954,-0.034892682,-0.049001925,0.04623213,0.05886897,0.02480162,0.03772736,-0.02134313,0.0069930186,0.043446787,-0.04290801,0.059259932,-0.06646702,0.0148592675,-0.024174605,0.052263305,-0.010022741,-0.039449207,-0.0061519286,-0.017037977,0.005761672,0.06793257,0.0021946642,0.025087265,0.048134968,-0.04665328,0.03987246,-0.046026774,0.012448628,-0.068308555,0.07528469,0.066189826,-0.04975096,0.016810339,0.0409292,0.0496188,-0.06548468,0.00638225,0.07719104,-0.018180663,-0.036556818,0.019211475,-0.052185077,-0.0077942037,0.010774095,-0.052658103,0.07925862,-0.024234625,-0.054427892,0.033409372,0.031467922,-0.08613855,-0.052296184,-0.08256884,0.050156113,-0.016866785,0.012974441,-0.04750039,-0.0035460931,0.045247626,0.019382052,0.03735394,-0.031384002,-0.042421155,0.013093849,0.064200215,-0.0032508038,0.008427359,-0.05555029,0.014612351,0.032322682,0.005655311,0.011662675,0.048580527,0.08557131,-0.017338542,0.024017273,0.053777177,0.00271111,0.067477584,0.085664034,0.040028762,-0.00022004124,-0.014369684,0.096114255,-0.036302064,-0.011292427,0.059358697,0.040458933,-0.057584304,0.04928195,0.0048002866,0.006194756,-0.06089434,0.003414504,0.022065781,0.05986793,0.039963473,0.02074539,-0.019483251,0.0071947738,0.017158443,-0.08000293,-0.006173704,0.022600383,0.059888255,-0.03751643,0.054686368,-0.0013775848,0.051611386,0.08207922,0.00795514,-0.0320289,-0.011686303,-0.009398911,-0.00011904293,-0.056369558,0.032927,-0.04775249,-0.0686986,0.028742537,-0.05558792,0.02216847,0.017304262,0.04791477,0.014816881,0.05905937,0.00914027,0.026528232,-0.006218092,-0.013271873,0.002949624,-0.050259016,0.04681039,-0.041748222,-0.014430539,-0.019730845,-0.006176895,-0.0517566,0.004304157,0.03455768,0.06176017,0.047928076,-0.02763809,-0.059345443,0.022808466,-0.07984626,0.0031950332,-0.06734363,0.0076696053,-0.044138573,0.058629002,0.010972713,0.08888539,0.040635593,0.031535532,0.022504468,-0.03709191,-0.080423936,0.0046776272,0.011995317,0.0074945763,0.06947705,0.01110646,0.09150555,-0.072201006,-0.09121756,0.018271482,-0.0062491936,0.0075928136,0.009112381,-0.072192796,0.00534671,-0.05395761,0.026078425,0.012230582,0.054424178,0.0625144,0.058999877,-0.03673812,-0.026894541,0.044711985,-0.045616556,-0.004375292,0.052960746,-0.075757824,0.05462135,0.04488534,0.02908734,-0.046274863,0.0387131,-0.051725656,0.03833783,-0.02111101,0.019280633,0.080128215,0.07460161,0.0131395515,0.05789235,0.06495746,-0.049359504,0.089566484,0.052417792,0.052064653,0.061950058,-0.016933417,0.08038564,0.04720114,-0.0052749896,0.037968524,0.008600804,0.04289042,0.052140012,-0.026263418,-0.04935807,-0.04173161,-0.031152377,0.0068980358,-0.04787337,-0.0257832,-0.022664057,0.06475585,0.016093876,0.06506281,0.007895178,0.054913223,-0.013381067,0.025042668,0.04505161,-0.020077132,-0.0518355,-0.0128408875,-0.02294209,-0.06620005,0.06200382,-0.014200906,0.012261425,-0.010910717,0.07424675,-0.07561429,-0.0073945774,0.0025527086,0.026710596,0.03023288,-0.0722006,0.014664784,-0.035877295,0.084807076,0.029690558,-0.03262378,0.09046417,-0.004542481,-0.01331855,0.007826992,-0.08796823,0.0090626255,0.086095,0.00488663,0.04431663,0.027146738,0.033096083,0.05611092,0.0018963021,0.040786143,-0.048135523,0.06571187,-0.055881754,0.09160989,-0.08732109,0.096491724,-0.007874337,0.06852747,0.06076979,-0.050725386,-0.0060065323,-0.045446996,-0.0109136235,-0.051831096,-0.07982042,0.033905197,-0.06284031,0.033572458,0.008211295,-0.034650788,-0.012645266,-0.0679885,-0.047654442,0.046852328,-0.07637609,-0.06246113,0.05707661,-0.033114076,0.014216061,-0.010403713,-0.025502976,-0.051437426,0.078919075,0.008959565,-0.02101367,0.042403214,0.092527,-0.033052277,-0.002782282,0.026299186,-0.019959252,0.070873156,0.011334049,0.049964197,0.022217596,0.06861781,0.0268514,-0.01511072,-0.0004906559,-0.026673118,-0.05608971,-0.055450547,-0.0006045659,-0.021339,-0.038616862,0.043867428,0.017749341,-0.05739643,0.039889246,0.062174696,-0.037335802,-0.01154348,0.057920516,0.087833144,-0.011051806,0.054529175,0.038477995,0.07350753,0.062648535,0.061394516,-0.002996831,0.01764743,-0.060248204,0.034383427,0.04746108,-0.05068202,0.051760506,-0.029425083,0.019787576,-0.018873706,0.022742096,-0.00047157687,-0.0352781,-0.042623598,0.0069606216,-0.03698956,0.011356247,0.0758283,-0.07670354,0.02777642,0.053476408,-0.011405158,-0.059181545,-0.012539337,0.06538315,-0.02206741,-0.057418335,0.04706118,0.027336517,-0.07924462,0.014129217,-0.07362634,-0.049007077,-0.025505006,-0.05815092,0.08000827,-0.08165535,0.055769827,0.0616032,-0.0024587049,0.013680003,-0.08451695,-0.027742272,-0.031104427,-0.0558509,0.064215735,-0.06204952,0.051405877,-0.013124815,-0.07817977,0.00938982,0.03767962,0.010079662,-0.0517996,-0.015515231,-0.040778294,0.04722473,0.07888465,0.076537035,0.027560879,0.08703333,-0.07715023,-0.04883888,0.010678586,-0.04363602,0.028044473,-0.0032139076,-0.05300599,0.057117075,-0.042841703,-0.016553225,-0.042117774,-0.010454592,0.095520005,0.059184827,0.04161473,-0.049363837,0.061525527,-0.055594888,0.033180274,0.0692024,-0.014715736,0.005324606,0.09363742,-0.021658296,0.050979204,0.06581352,0.033273075,-0.0030696478,-0.02038171,0.043939497,0.020163726,0.03541305,-0.041736618,0.009642821,-0.009840909,0.093740426,0.018088868,0.08229139,0.05662666,0.046712957,0.044400845,0.022105003,0.057525873,-0.011355473,-0.08576614,-0.03033544,0.032641586,0.022504214,0.038531538,-0.035194922,-0.05149375,0.021550037,-0.033931553,-0.039694455,-0.040656157,-0.003310318,0.034202192,-0.0470958,0.01640047,-0.015103919,0.026669746,0.014423341,-0.009855603,0.0065985913,0.049629208,-0.0012005861,0.007583511,-0.010509183,0.05329301,0.05951574,-0.024098597,0.010003982,-0.010510064
-0.075154245,0.047520477,0.043128654,-0.047352273,0.054892,-0.0384262,0.0579272,-0.03193231,-0.024652096,-0.04670763,0.024681937,-0.038519725,-0.015409074,0.05619373,0.038744446,0.008185688,0.019695446,-0.050678037,0.068499394,-0.041530553,-0.008581386,0.059359163,-0.0054268558,-0.053037427,0.047627702,-0.039114643,-0.038922273,-0.042816333,-0.028583396,-0.022142868,-0.033871923,-0.031717222,0.07415246,0.03535281,0.030455466,0.06699849,-0.013533817,0.007903162,-0.07201142,-0.009288427,0.041806508,-0.031634424,0.028674712,-0.0110425195,0.013977734,-0.046761114,-0.024901286,0.037143398,-0.05115142,0.052382994,0.01839358,-0.057953723,-0.025949229,-0.07241455,-0.05714706,0.0004932664,-0.0650462,0.0048201517,-0.053404648,-0.008221376,-0.020114169,-0.083404236,-0.011292553,-0.035824243,-0.017846465,-0.075428315,-0.07195328,-0.035635855,-0.067946985,-0.059899986,-0.060857378,0.012091696,0.017736726,-0.0052370224,-0.043028854,-0.06256045,0.022040175,-0.056158096,-0.03129034,-0.051924236,0.02949069,-0.02549487,0.07471781,-0.031997018,-0.052817117,-0.027207052,-0.071618564,-0.04934569,-0.041832536,-0.055054218,-0.025674185,0.066374496,0.028749604,0.06533042,-0.06785356,-0.047199696,0.025461927,-0.0010632878,-0.04148168,-0.027322883,0.06333753,-0.063857034,-0.037116177,-0.06524619,-0.01764254,0.00719338,-0.078111574,0.02140494,-0.0013927978,0.06565078,0.0098662535,0.0034140912,0.024134744,-0.008688743,0.06357593,-0.076213494,0.051275194,0.054167725,-0.042116284,0.039780546,0.048650064,-0.060536068,-0.07439395,-0.019534297,-0.051206194,-0.07188577,-0.05076356,0.00871303,-0.051221445,-0.054614544,0.06233268,-0.04615285,-0.055263717,-0.014681934,0.019908018,-0.05263815,0.054084197,0.016729632,-0.07094318,-0.02240069,-0.037325777,0.010462471,0.0133356955,-0.016916275,-0.07543235,-0.08608733,0.05645819,0.033587687,-0.053242594,0.051258933,0.0002362442,0.01165806,-0.016655758,-0.056730267,-0.08528482,-0.0021808757,-0.07092002,0.05843191,-0.06804371,-0.06386223,-0.007106259,-0.03369577,0.00297007,-0.030290993,-0.03572349,0.0503066,-0.015992716,-0.010970004,0.06521168,-0.036143433,0.028509162,-0.008792108,-0.05255667,0.074432865,-0.020489201,-0.036464207,0.002536049,-0.06541462,-0.037328463,-0.06297146,-0.03674475,0.056169055,0.03759051,-0.044327594,-0.068983816,-0.044959847,-0.061292168,-0.044787887,0.054291964,0.015042686,-0.07497617,-0.049953617,0.009038785,-0.05613529,-0.06319165,0.018519718,-0.072127104,0.06487802,-0.07304346,0.009839147,-0.06800167,-0.014132959,-0.0739483,-0.044339526,-0.060561422,-0.056706637,0.02805088,-0.022325093,-0.06911433,0.023544986,-0.050134264,0.052134648,0.020436343,0.027014932,-0.0065665175,-0.01747279,-0.020252349,-0.0076194317,0.06060283,-0.06410204,-0.02459588,-0.03629582,0.035048865,0.046419807,-0.05670895,-0.014158689,0.0035508648,0.0506693,0.055550665,0.030592127,0.060329765,0.04937335,0.008897995,0.03812045,-0.06364905,0.06508735,0.048998293,0.008955231,0.009154864,0.009747076,-0.055778243,0.0033863117,-0.025976265,0.06808232,0.029151594,0.032297596,-0.084249556,-0.031786043,-0.06536892,0.0497636,-0.022320976,-0.059706286,-0.00049603445,0.0014321555,0.041368656,-0.041864596,-0.011956819,-0.007558366,-0.014982927,0.01604647,0.034066275,0.00067822717,0.026230961,0.050220676,-0.041950837,0.03432848,0.030222721,0.045456287,-0.007758818,0.042164087,-0.020160625,-0.034085788,0.03898731,0.017910097,0.0007315151,-0.07526303,-0.040554155,0.035240557,-0.012415164,0.030655442,-0.0068587963,0.024237003,-0.016108602,0.0022909546,-0.040217713,0.0704832,-0.03947542,-0.03685211,-0.005978934,-0.041109335,-0.023901526,0.0043489984,0.024280272,-0.06489251,0.024907142,0.03275627,-0.034481067,0.015884602,0.03768594,-0.08443899,0.0035012881,-0.013742303,0.068108946,-0.029398441,-0.059748694,-0.04795468,0.048904043,-0.056694794,0.071123146,0.043906815,-0.082698725,-0.04420355,0.024440179,-0.06409514,-0.07091099,-0.070015304,-0.07161055,-0.0654161,0.047127385,0.05157133,-0.0597351,-0.07886854,-0.08052129,-0.046047468,-0.048965175,0.02975546,0.025372617,-0.083758794,-0.031836625,-0.03542242,0.043658145,0.0600726,0.010121193,0.034233935,-0.075504616,-0.004529562,0.02617236,0.03084469,-0.0049956827,-0.009300253,-0.04115835,-0.08355599,0.05107721,0.055201903,-0.053163614,-0.049525667,0.04470757,-9.297325e-05,-0.06329843,0.04518668,-0.057244834,-0.021868572,0.023069361,0.012736807,0.0176934,0.0588759,-0.06604647,0.03762485,-0.05337136,-0.0293876,-0.077508375,-0.05450539,0.04261574,-0.06225104,-0.075691596,-0.07924942,0.0035817341,-0.024246015,-0.06474414,-0.004887962,0.0605354,-0.028356776,0.07271615,0.013704039,-0.04960616,-0.016342869,0.051305808,-0.053371772,0.054598827,-0.02649504,-0.035594124,-0.06902854,0.056893926,0.054281637,-0.05626077,0.060223233,0.014650347,0.00072583806,-0.07270345,0.034689613,-0.0036681148,0.009402906,0.056658104,0.019728938,0.01446728,0.06966389,0.05682061,-0.030598124,0.046753112,-0.0055566304,0.003687194,0.013175907,0.050326917,-0.05478312,-0.0026303632,0.011193179,0.046719827,-0.058120284,0.060246594,0.05784928,-0.057880264,-0.055339463,0.05134969,-0.056293722,0.05768951,-0.05890183,0.03138976,-0.017360287,0.061323762,0.012525463,-0.066181794,0.07436548,0.057687752,-0.012412974,0.026549097,-0.008104606,0.05122596,0.0012452947,-0.07820991,-0.01973757,-0.04730444,0.037185803,-0.035123523,-0.052557327,0.06554118,0.050263613,0.04995476,-0.012966531,-0.022386398,-0.028249016,0.055171367,-0.055735487,0.067286976,-0.022148851,0.019695876,0.050970417,-0.059134353,-0.019461777,0.0003535076,-0.0036187374,-0.050693728,-0.022479007,-0.0075331395,-0.063413836,0.028598653,0.066650406,0.024105377,0.034754258,-0.035666402,-0.10776582,-0.07413194,-0.07593772,0.07309539,-0.07137597,0.0199076,0.013265582,0.018852117,0.04002409,0.022951037,-0.035485234,0.06510453,0.054840963,0.05546037,0.04826353,0.012999019,0.019154992,0.028330654,-0.08388986,-0.0071094627,-0.038245395,-0.07658782,0.03370672,0.021962883,0.034296814,-0.02765884,-0.021668391,-0.08665446,-0.032655563,-0.031084983,0.0074216025,0.008986161,-0.026744151,-0.047638524,0.047517408,0.024624579,-0.050958574,-0.054974984,-0.055573914,0.055794507,-0.018296758,-0.0008865881,-0.042407595,0.032914903,-0.0467424,0.06605888,0.023897583,-0.07388293,-0.010298184,0.05331519,0.03269698,-0.058570504,0.050095517
0.017559033,-0.08530073,0.004327542,0.030056976,0.055386227,0.07357808,0.035358917,-0.006543162,-0.064363256,-0.056659363,-0.032768518,-0.0045066285,0.05787799,-0.025720628,0.07873844,0.041973114,0.056098387,-0.056424867,0.023459112,0.07440343,0.048020657,0.007119248,0.024377177,0.042667594,-0.041918572,-0.05065394,0.07065513,-0.001748947,0.05153392,0.014949717,-0.06265951,0.059632126,-0.019938162,0.022021117,-0.01896039,-0.046012424,0.0067681195,-0.06910687,-0.07930578,0.028172076,-0.031872645,0.025433676,0.022181362,-0.07283641,-0.06504844,0.059636466,0.036747973,0.069573626,-0.0020476345,-0.06267155,-0.06258643,-0.04710018,-0.0073754955,0.004490732,-0.07737519,-0.006736992,-0.013176279,-0.060456965,0.0774599,0.01939154,-0.053308647,-0.07261293,0.019570297,-0.039055787,0.035324194,-0.007268113,0.028616527,-0.014093656,-0.016746383,-0.06748605,0.070655204,-0.07011747,-0.046448875,0.04716928,0.04510994,-0.051358372,0.024424914,0.07679488,-0.04698908,0.049919367,-0.04700158,0.030095154,0.061023127,-0.027047869,-0.06788178,-0.05399474,-0.044267382,0.043876883,-0.02463637,0.056964103,-0.012053344,0.024028221,-0.0037605483,-0.03042327,-0.025850842,0.05936138,0.04701935,-0.014582837,0.008164258,0.029916415,0.0050814883,0.07026479,0.033450864,0.0052105263,-0.04188027,0.0044512805,0.07656719,-0.04357891,-0.06053433,-0.019636786,0.032031253,0.085113905,0.02790263,-0.082495175,-0.080349624,-0.049552485,-0.018864866,0.007319282,-0.056695733,0.027380496,-0.029449722,-0.0044853226,-0.054057717,-0.06288463,-0.021622863,0.04111099,-0.08443189,-0.04455482,-0.050614797,0.0390748,0.06882411,0.02909688,-0.015456957,-0.015679618,0.033952814,0.049669527,-0.058579486,-0.017282281,0.0067427577,0.009484345,-0.08273571,0.007991896,0.014904317,-0.08455803,0.065248325,-0.010191858,0.018928176,0.028104834,-0.06413218,-0.00067442673,0.06891071,-0.035563737,-0.00027350138,0.0007198651,0.04505652,-0.08196972,-0.034814052,-0.019506812,-0.042089827,-0.04405929,-0.02274913,-0.068105794,-0.034496974,-0.004636487,-0.042698003,0.06466961,0.008200484,-0.01904959,0.04751231,-0.00080902217,0.04232814,5.626388e-05,-0.08035375,0.031010995,0.039570224,-0.014440105,0.045540974,-0.007905284,0.07605359,-0.069548845,-0.08343866,0.07552329,0.02428746,-0.03794962,0.059259865,0.031613816,0.06546546,-0.047841795,0.06470141,-0.030563992,-0.0030876466,0.031011855,-0.0696013,-0.039849196,-0.069063075,0.03277848,0.045733295,0.0615046,0.06672944,0.024138886,-0.02073697,0.045102995,0.0036054114,0.050511442,0.058690492,0.03727115,-0.041488186,-0.026386922,0.012562129,-0.025353702,0.015067048,0.039875768,-0.05329055,0.07025179,0.036102615,0.04722009,0.0022966678,0.02735383,0.029479329,0.03200569,0.022613412,0.04564121,-0.06724233,0.029759267,-0.029072825,0.053210035,0.037032206,-0.060408585,0.049969792,0.0073870616,-0.007030525,-0.03854895,-0.06198658,-0.026480963,0.030480405,0.018313631,-0.06209874,-0.01041792,-0.0036476618,0.045138497,0.0054957382,-0.021571606,0.0396685,-0.067460544,-0.075734556,-0.06675452,-0.052157972,-0.026275393,-0.042811643,-0.0068920488,-0.034123637,0.06379568,0.040930945,-0.049395494,-0.0074538253,-0.022172442,-0.013309185,-0.022111306,0.034744468,0.038916238,-0.039112538,0.023151185,-0.05117589,-0.0030662837,0.010112389,-0.063146755,0.030348755,0.015481829,0.055083234,0.07800449,-0.059381846,0.034399953,-0.028567106,0.012943343,-0.0005328327,0.06092439,-0.05140043,0.005849636,0.01546529,-0.006026234,0.022341099,-0.06978796,-0.015703034,-0.023609234,0.023277879,-0.05479053,0.060908206,-0.030023515,0.05922476,-0.022177532,0.002941519,-0.06346857,0.042075507,-0.033996735,0.045239203,-0.0052340226,-0.082630254,-0.058023643,-0.075012766,0.0061777374,-0.02766286,-0.04696589,0.009127367,0.025845498,0.0718975,0.028721396,-0.05726233,-0.013704508,0.020636143,0.015323778,-0.0016068963,-0.0036532932,-0.0015437946,-0.06554023,0.030669115,-0.00480432,-0.0708172,-0.00672284,0.038906027,-0.047248095,-0.059143104,-0.02613795,-0.044054154,-0.045614786,-0.005388382,0.021713281,-0.034094695,-0.0687888,0.04676885,0.036801435,0.06356409,-0.04649939,-0.086077094,0.015898483,-0.0016679936,0.03627841,0.03845262,0.031303965,-0.07553027,0.054705705,-0.063733675,0.023678638,0.014471322,-0.040997565,0.03675148,0.07009329,0.06166843,0.014782497,-0.06541324,-0.044012234,-0.08247052,0.06021687,0.024823422,0.03729599,0.06958949,0.010643042,-0.03424738,0.0042318045,0.035949532,-0.02695821,0.046480138,-0.005229506,-0.047055162,0.046446323,0.011566521,-0.07991107,0.06735106,-0.019404251,0.058922507,-0.07033517,0.023781283,-0.04198153,0.072147705,-0.047878776,0.008985315,-0.016830659,-0.006529977,-0.029651398,-0.066188194,0.072580345,0.058172386,-0.054123394,0.0039761695,-0.04220554,-0.07442616,-0.022526227,-0.061837852,-0.086594485,-0.03810598,0.017205624,-0.028038941,0.019826531,-0.06820286,0.08333843,-0.055198297,0.06998063,-0.0347321,-0.027963702,-0.02579608,-0.010562901,-0.0631973,0.08372319,-0.046318904,-0.06250692,-0.031967368,-0.049434416,0.0514202,-0.012253789,-0.030702546,-0.07272951,-0.061099686,-0.020417757,0.0070673227,-0.011155877,-0.075159825,-0.03998733,0.014159618,-0.08633227,-0.0048557487,0.015053831,0.033161364,0.056496516,-0.011267017,0.032964043,0.0022191554,0.0006027692,0.017218655,0.0074389037,-0.05940784,-0.045668066,-0.06733339,0.054021332,-0.05177368,0.042333137,0.0635104,0.048741385,0.0035286543,0.075694755,-0.0023101068,0.043987624,0.05118377,-0.045953974,0.02960196,-0.07793474,-0.0035094242,-0.04091221,0.042603582,0.051203407,-0.07089046,0.0421866,-0.06247416,-0.01545575,-0.040968,0.06069871,0.0083351,0.049883343,-0.05043224,0.04724394,0.036845997,0.039633345,-0.08382158,0.016990656,0.022446146,0.044554185,-0.041778706,0.00034436974,-0.009664273,0.078999534,-0.005460866,-0.012267955,0.02807772,0.049005937,0.07407542,-0.061364356,0.033381257,-0.04031237,-0.0014863219,0.026366131,0.035342444,-0.06742796,-0.05501022,-0.029871652,-0.03945451,-0.0037264626,0.015820257,0.0633734,0.04318632,-0.021241376,0.054055635,-0.034161292,0.033718098,0.00092975167,0.027241264,0.060066126,-0.033957988,-0.01346298,-0.012297692,-0.05753113,0.062563606,-0.07029102,-0.040279575,-0.081916325,-0.012864627,0.026836494,-0.049183663,0.03924964,0.044134602,0.05143077,-0.06858335,0.067945406,0.012147158,0.076354496
-0.00024883964,-0.00046639226,0.07640247,-0.0060907598,-0.062393162,0.03189564,0.036183294,-0.054746278,0.003427305,0.04383681,0.006950842,-0.016071176,0.014369207,-0.024771601,0.07032792,0.056879558,0.05888904,-0.04464504,0.052061796,0.04097306,-0.020559672,0.04652225,0.041323755,-0.049965907,0.06037012,-0.03141133,-0.024341727,-0.014623398,-0.047567617,0.032447636,-0.02032715,-0.046297587,0.065217696,-0.030509165,-0.03174359,-0.0040391604,-0.066616684,0.016773777,0.0059230444,-0.05657864,-0.044613216,-0.0057417094,0.0006284616,-0.080397286,-0.019748142,-0.06332812,-0.06676864,-0.03639214,0.053933274,0.01806578,0.011227028,0.0052337344,0.0497627,-0.06408731,-0.05046639,0.028410306,0.057942722,0.059967194,-0.004105787,-0.032087255,-0.0012432273,-0.0010802296,-0.059981447,0.056840952,0.075610675,-0.0010071854,-0.046345823,-0.024604952,0.038110837,0.008916461,-0.02969293,-0.019852629,-0.02947066,0.058413655,0.04118148,-0.025376474,0.011916587,-0.0032499738,-0.03866187,0.052487284,0.01389374,-0.04320299,0.015935501,-0.011707243,-0.031578943,0.03605305,-0.029147275,-0.013952627,-0.06076895,0.04026262,-0.022722978,-0.01921782,-0.011903612,-0.025779644,0.03147221,0.014675217,-0.0083751455,-0.00064535945,-0.055456594,-0.040340893,-0.045643706,0.03818807,-0.004819652,0.02862046,-0.034945168,0.040837187,0.069395304,0.039062176,-0.04739501,0.030079829,-0.014073522,-0.012480369,-0.002649576,0.02376308,0.01931178,-0.02071319,-0.0005494399,0.023521595,0.028430156,-0.07605429,-0.060768127,0.042873092,-0.07653279,-0.013573659,0.01699531,-0.06772533,0.05194519,0.07545965,-0.006756386,0.031481773,0.062092576,0.0511045,0.042815484,-0.021831248,0.01446575,0.06128865,-0.020440778,-0.055866685,0.026035577,0.059315704,-0.06470502,-0.026524585,-0.07366274,-0.08494302,-0.036269277,-0.07604146,-0.04174549,-0.06418022,-0.030973252,-0.031792007,-0.040433563,-0.041723933,-0.016479613,0.07326029,-0.04544323,0.042191084,-0.016509697,-0.0621238,0.056567807,0.041331742,0.050572984,0.0064264913,-0.034704573,-0.008265527,-0.01701134,-0.0242141,0.065578505,-0.028001769,-0.018754633,-0.04750904,-0.039865237,0.07177024,-0.06947674,-0.043740466,0.032873284,-0.012850381,0.056700524,0.019053966,-0.038318064,0.004546991,-0.0016336371,0.011504315,-0.043525185,0.0107379705,0.01951973,0.007745406,0.020381764,0.05658041,0.06255016,0.044969056,0.041802313,0.014932565,-0.045529038,-0.042858448,0.010870581,-0.003445398,0.0615807,-0.017626403,0.03867726,0.027346352,-0.03893653,0.058646485,0.012126571,-0.07688621,0.016142517,-0.08035105,0.016417775,0.0048710606,0.0757155,0.017541917,-0.08088704,-0.039198797,-0.0647895,-0.02038252,0.052983675,-0.06414307,0.07040367,0.05642111,0.0014684706,0.029391734,-0.0026137447,0.070175126,0.018740045,-0.068421714,-0.03192719,0.030129164,0.041193116,-0.06548378,-0.034522466,-0.07101002,0.06900796,0.053496633,-0.055062193,0.024653519,-0.06785408,0.053305976,0.016149357,0.016899228,-0.055551913,0.041910227,-0.055363145,-0.033791374,0.00012733035,0.057554524,-0.06382556,0.07575429,0.000104424274,-0.028329477,0.003927456,-0.08278845,-0.05246711,0.03004597,-0.02156829,-0.0473235,-0.08687284,0.06428381,-0.009864891,0.042209603,0.046429027,-0.05271216,0.03864022,-0.061060034,-0.048841093,0.052007932,-0.08128384,0.060695644,-0.05602535,0.07901464,-0.018090399,0.057511024,0.08495783,-0.0063182795,-0.016870042,0.0266194,0.023517849,0.075075924,0.06796271,-0.017866544,-0.031613175,0.004842928,-0.08196266,-0.036268715,0.07423378,-0.044014607,-0.030097434,-0.028994706,0.027356878,0.011753031,-0.068000846,-0.014431165,0.0314487,0.015038641,-0.003871946,0.028345698,0.0522147,-0.017784389,0.009812807,0.06580265,0.032421082,-0.060906265,0.036398973,0.0016067727,-0.02182369,0.022360433,-0.060674187,-0.021801636,0.015699072,-0.03138142,-0.00678359,-0.03049611,-0.081307195,-0.03326037,0.0353196,-0.013846362,0.07433838,0.05546041,0.047674626,0.045538913,0.06483515,0.045654636,-0.015784489,-0.040469266,0.061318398,-0.059891798,0.042400338,0.04046369,-0.06253226,0.05597019,-0.054162513,0.021763392,0.020032728,0.002578586,0.040093202,-0.040281795,-0.05293104,-0.01474301,-0.055315454,0.012449664,-7.003919e-05,-0.027504843,-0.06372164,-0.025673063,-0.00545919,-0.07147411,0.044682458,0.08044961,0.03148014,-0.061563555,0.024812486,-0.019027289,-0.04197994,-0.010040986,0.045244616,0.030832121,0.0685368,-0.06375612,0.032771017,-0.020788843,-0.0693213,-0.04572057,0.052390404,-0.053959064,-0.06894743,-0.0595145,-0.024468996,0.003046283,0.064792916,0.039275743,-0.07405489,-0.06950613,0.056812864,-0.015452188,0.021719063,0.06646349,0.057614606,0.05365229,-0.0022078832,-0.04013142,-0.022588832,-0.024586277,0.0038154756,-0.0597363,-0.045368098,0.010791973,0.05252283,-0.036725886,0.018004995,0.033828076,0.042555645,-0.038655054,0.038336735,0.076466076,0.034105692,0.024833167,0.02251206,-0.0034657072,0.044671275,-0.014523372,-0.0471962,0.05757979,0.035466067,0.045011725,0.07463858,0.041811686,0.047490604,0.0129821645,0.024253882,0.03231879,0.0673588,-0.06654569,0.015022434,0.058634102,-0.033492953,-0.066425726,-0.0543243,-0.055129778,-0.000114314484,0.005138425,-0.035737265,0.03180706,-0.061806977,0.038793795,0.023495924,0.0014683268,-0.07387424,0.05839084,-0.024416918,-0.03476639,-0.045778275,-0.054510802,0.06212512,0.048113953,-0.052843865,0.0012741857,-0.0364806,-0.015421017,-0.06439637,0.03964119,0.063908465,0.024383264,0.06445726,-0.08098245,-0.019357247,0.039575536,-0.041513044,-0.06429994,-0.07550615,0.07147892,-0.01723411,0.029667689,-0.09123586,0.038077943,0.07698315,-0.025460916,-0.065627545,-0.027345583,0.06256684,0.036199424,-0.02791779,-0.009716115,0.01983065,0.074461006,-0.05904725,-0.025767785,-0.00011069635,0.027895033,-0.06427967,-0.0546134,0.03704346,0.01489265,-0.01793133,-0.06536094,-0.05873312,-0.08653047,0.055621173,0.014547386,-0.07078744,-0.007219556,-0.028535364,0.079242535,-0.0048655723,0.02038727,0.037128653,0.04589644,-0.04490656,-0.080805026,-0.032088183,0.04239127,-0.0803226,-0.003966088,-0.07364019,0.052126154,0.07635776,0.06292598,-0.021489944,0.06970812,-0.015111333,0.06578769,-0.019001156,0.009424162,-0.06470443,-0.0049353614,-0.06744567,0.011335614,0.064367376,0.031337645,0.024511175,0.039863992,-0.058799483,-0.06612717,-0.031013904,-0.012826951
-0.02238006,-0.0040775365,0.006364588,-0.044998486,-0.009178411,0.00088659144,-0.012400114,-0.044820514,-0.05182707,0.037733685,-0.043659035,-0.028883819,0.013472223,0.005783467,0.017955134,0.056487802,-0.0077388505,-0.032146707,-0.017897535,-0.059986256,0.004236036,0.0018214445,-0.061932642,0.040253967,-0.0025682827,0.075387724,-0.05053831,-0.032198373,0.061639242,-0.04506644,-0.03695009,0.06601135,0.014955357,0.023019327,-0.064507194,0.013545396,0.012057297,-0.0018484081,-0.026461178,-0.02364468,-0.06109866,-0.043777,0.054488454,0.051570814,-0.04126493,-0.042865224,0.018492218,0.032265317,-0.031006945,-0.010565831,-0.028419644,-0.061622355,0.020893615,-0.046212386,0.024348814,0.059578348,-0.02468188,-0.0008742716,-0.036820345,-0.027086899,0.055059265,0.03165957,-0.05773327,-0.06032095,-0.0037687458,0.0061322576,-0.068896934,0.023220904,-0.024670387,-0.08781612,-0.048518986,-0.063083984,-0.03304071,0.03360472,0.08263378,0.00047541622,0.06637802,0.006991871,0.031983577,0.02967328,0.07165648,-0.06956998,0.055877894,-0.035943564,0.016294565,0.0140359085,-0.016626917,-0.021842744,0.049532395,-0.07234398,0.019640168,0.052390113,0.028273301,0.046829164,0.065549456,0.040292345,0.031358458,-0.009513617,-0.027048081,0.03064242,-0.08226817,0.072906755,-0.0062569715,0.014038646,0.077144265,-0.08266052,-0.062483262,-0.010113238,-0.064127006,-0.028308436,-0.043594126,0.040430855,0.01598521,-0.08254301,-0.04705985,-0.04624047,-0.059489146,0.070753045,0.01051109,-0.057218872,-0.023105783,-0.071208,0.0021068368,0.029344682,-0.058853142,0.061715867,0.032941375,0.057543147,0.019204723,0.043036453,0.083442084,0.052771885,0.032967858,0.051193487,-0.062491275,0.05897753,0.009681932,-0.08444513,0.022288032,0.014416882,-0.017449832,-0.050994664,0.040964033,-0.023514217,0.064993754,0.017997527,-0.051572938,0.02316548,-0.051410947,0.00016222215,0.04654519,-0.034381837,-0.026628302,-0.030764276,0.013068525,0.031334355,0.012211387,-0.012735093,0.0068713343,0.039604556,0.0066411826,-0.014973329,0.018980116,-0.034195907,-0.056010917,0.06509621,0.030038992,0.054646265,-0.051950034,-0.052019488,0.06829591,-0.08227129,-0.049775917,0.015621292,0.077984124,0.06530007,0.04811171,0.06173336,-0.026186306,-0.048871554,-0.06886168,-0.057598807,-0.06939886,-0.028936991,-0.053823717,-0.00035510832,0.038233157,0.025230417,-0.004055504,0.074141465,0.01629515,-0.08027781,0.05845724,0.049995612,-0.072993845,0.037235968,-0.047569253,0.05043289,-0.040625233,-0.056302436,-0.08177131,0.036595054,-0.014447707,-0.016616754,0.02801496,-0.04248989,0.03393511,0.034735035,-0.07306418,0.040782683,0.05761231,-0.013413898,0.041779883,-0.06263805,0.012177265,-0.03197726,0.07706168,0.037028737,0.034549233,-0.015873225,-0.0094453255,0.0116691515,0.0058920197,-0.006420155,-0.05903656,0.025004737,0.007155039,-0.016590921,-0.034981254,-0.022771494,-0.044494726,-0.015725886,0.036224205,0.04901785,-0.04353654,-0.07630723,-0.050356265,0.05573459,0.025647322,-0.06139508,0.004481367,0.021320995,0.03909989,-0.025510063,0.036154393,0.007594182,0.03362945,0.052215125,-0.008034055,-0.048120424,-0.039814804,0.0027614462,-0.027201217,-0.054570295,-0.02609087,-0.06743779,0.03664109,-0.05926144,0.013915089,-0.03807683,0.040301926,-0.05210317,0.017775703,0.045037232,0.03577005,-0.060294177,-0.001271486,0.054836974,-0.009892493,0.07206782,-0.0007946893,-0.054113176,-0.0008278638,0.038766943,0.042172574,0.015075422,0.022908837,0.041869402,0.045977306,0.065799765,-0.0029604286,0.06576727,-0.00072903436,-0.03713169,-0.08716302,-0.04690336,-0.04643312,-0.053899713,-0.06372832,0.0038882098,0.035274606,-0.043330785,0.008081795,0.059663974,-0.024168078,-0.059418697,-0.03356382,0.07506143,-0.052948225,0.03015416,-0.05298593,0.050248496,-0.06349069,-0.034276918,0.0043652873,-0.0045808456,-0.08217772,-0.056759734,-0.067978024,0.06689826,0.033074673,0.07273975,-0.025222136,0.0710185,0.029515052,-0.059761383,-0.06849802,0.023519779,0.05197009,-0.07616565,0.052980457,0.015307537,0.045332313,0.014984159,0.04243456,0.016561832,0.06873127,-0.048417844,0.04696488,0.008248225,0.06550224,-0.07962803,0.021905666,0.025653876,-0.027163088,0.03174327,0.034305196,0.011017215,-0.033173103,0.03138395,0.08121728,-0.04936103,-0.033471122,-0.03823618,-0.0211846,-0.017242776,-0.005665164,-0.060370408,0.024427839,0.026204832,-0.0008379714,-0.0286687,0.07963047,0.047974836,0.058732808,0.039688136,0.012231878,0.05338364,0.048291788,0.019682026,0.051929887,-0.080556035,-0.08018192,-0.08164939,0.03431017,-0.03407619,0.041545905,0.0055536353,0.008520771,0.054699507,0.063416034,0.036414225,0.026088893,-0.007418295,0.010200418,0.028225372,0.0068615316,0.0017354862,0.023204615,0.04787269,-0.014517751,0.05953877,0.077225246,-0.058268335,-0.04374548,-0.0058281105,-0.0067873723,-0.06015335,-0.047385693,0.011255505,0.036621545,0.038779303,-0.04488808,0.06364519,-0.030772455,-0.017539298,-0.05076379,0.0845426,0.06834383,-0.00034611352,0.017585432,0.03433121,-0.00031894955,0.0018011935,-0.050800752,-0.030403718,-0.054805268,-0.049307857,-0.07156095,0.019940281,-0.0777854,-0.007938506,-0.055216666,-0.001543262,-0.017734684,0.08093251,0.06633137,0.028405305,-0.009221416,0.0005420772,-0.07850253,0.009216915,0.055200554,-0.0076133735,0.008292083,0.0080357725,0.017562624,-0.017808136,0.019498155,-0.0008712336,-0.049124688,-0.0034815555,-0.023208572,0.02394056,-0.018509189,0.025767317,0.05629965,0.033031147,0.072231196,-0.020926017,-0.025512617,-0.06679928,0.030814396,-0.0037443547,-0.055905115,0.049589586,-0.075504825,-0.013651351,-0.0026810858,-0.05205401,-0.016899465,0.040496424,0.076772004,0.012407934,-0.06798932,-0.079170585,0.02001059,-0.06871735,0.054338142,-0.03187544,-0.060159657,0.043566063,0.01704614,-0.04762275,0.07030617,0.07427503,-0.030731205,0.0073099807,0.029856516,0.06319085,0.050504394,0.008189148,0.037429795,-0.056825288,0.044657204,0.003673361,-0.048989434,-0.029768543,-0.006840094,-0.059749916,0.03588259,0.008731358,-0.05163349,-0.052840974,0.018540995,-0.016697753,-0.013220315,-0.057995584,0.012965669,0.0057738493,0.05636106,0.010820633,-0.01968073,0.018575134,-0.0406587,0.061503373,-0.053860497,0.034258954,-0.02369427,-0.04782653,-0.003127406,-0.0034291118,0.051095318,-0.053602714,-0.036105387,0.024595443,0.019628638,-0.015348391,-0.02621132,0.008691559,0.010164457,-0.0047045033
-0.038293354,0.05593643,0.071082294,0.0019042356,-0.012348843,0.058745865,-0.044095833,0.040422883,0.029713145,0.062224824,0.0056562866,-0.027765809,0.07377699,-0.020295428,0.027187992,-0.0039806385,-0.041228432,-0.0026493,0.0069044163,-0.043851327,0.059944395,0.026052024,-0.017910732,0.025463162,0.09269517,0.007189571,-0.04795195,0.065662846,0.053642713,0.085833415,-0.015471927,0.0034519434,0.02231272,-0.08109587,-0.020124352,0.042117167,0.044835076,-0.021378774,0.02742061,0.00646638,-0.0067294757,-0.008498165,0.0090249935,-0.03386983,-0.012562397,-0.018058134,0.06290577,0.07094157,-0.05925339,0.06893978,-0.005584208,-0.024512054,0.03946984,0.045304332,-0.037538685,0.016687071,-0.06496453,-0.04539393,0.036383916,0.052049596,0.032093596,0.06879916,0.03412947,-0.007576855,0.029257324,0.062247563,0.063926086,0.06959624,0.05028992,-0.018535377,-0.017412841,0.0117931925,-0.01693057,-0.048492048,0.09473423,0.01895787,-0.023604386,0.081217535,0.08875828,0.038561545,-0.03302115,0.07760094,0.08102405,0.006921266,-0.024362652,-0.07183487,0.06123626,-0.07448779,0.0021525347,-0.009530246,0.08234647,0.044781514,0.0064929817,0.070286684,0.0033521848,-0.052229896,0.016219499,0.037912663,-0.00971864,0.055622093,0.047684636,0.035208445,0.0009829701,-0.037669443,0.06324527,0.037847638,0.05794554,-0.040304016,-0.009288097,0.046975635,0.07139462,-0.0028438785,0.035086222,-0.024378337,-0.050333932,0.017240668,0.023580698,0.06519214,-0.0015981441,0.05176363,0.014203487,0.08512051,0.055342715,0.085225366,0.013642425,-0.056611717,-0.06762712,0.034923673,-0.050864294,0.058436435,-0.039568108,-0.011600922,0.043079086,0.04075291,-0.082704596,0.036299177,-0.00053503684,0.047286265,0.036893357,0.052348386,-0.06239684,0.053596027,0.015310446,-0.039678738,0.034200426,-0.020209521,0.043836724,0.03162133,0.03097379,0.0035328534,0.09070606,-0.07070143,-0.008123714,-0.04478084,0.086035036,-0.077208325,0.019192448,0.0040051634,0.044054266,0.031205326,-0.04330442,-0.006747178,0.016400736,-0.05955362,-0.04735948,-0.044827595,0.04496944,-0.053767346,-0.039566826,-0.020731233,0.025233982,-0.0524538,-0.043141633,-0.026084593,-0.00041119102,-0.06553493,-0.006814721,-0.08723093,0.062138885,0.028670158,-0.0514214,0.091825426,-0.05923776,0.0015032593,0.03786492,0.063912876,3.865476e-05,0.05619703,-0.013038216,0.059417848,-0.058125407,-0.025306588,0.05862996,-0.0038367314,0.034779135,-0.009576797,-0.018645866,0.053899415,-0.054675788,0.045921855,-0.0738205,-0.028531373,-0.076026164,0.047584496,-0.0785452,-0.034642592,0.07275445,0.053939436,0.01907202,0.021080552,-0.0029548893,0.027685422,0.034564383,-0.048738778,-0.017161755,-0.04189753,0.067776896,0.046279658,-0.07776821,-0.05328869,-0.009510016,0.01933698,0.025087886,-0.044268437,-0.07005457,0.057530303,0.028556366,-0.051610433,-0.032951724,-0.0470455,0.08208286,-0.0031734093,-0.015599116,0.01268588,-0.06045328,-0.013239655,-0.05204202,0.061525248,0.016456788,0.05860073,0.08255412,0.08336501,0.030755937,0.08043422,0.02340702,-0.052240487,-0.08038913,0.012877826,0.048551224,0.031068344,-0.026160752,0.07905368,0.04154247,-0.022556182,0.048790738,0.010950653,0.028389165,0.01834484,0.039215345,0.03477748,0.013478453,0.08173077,0.006120885,0.04536784,-0.054424018,-0.08183081,0.018880667,-0.023802938,0.0011670069,-0.010537752,0.034350086,0.0022498965,-0.064400546,-0.016880115,0.028383743,-0.0012370894,0.036212288,-0.02580377,0.0004687115,0.07754266,-0.07563883,-0.050721876,0.02496604,-0.06905181,0.04519203,0.08438188,-0.0006040782,0.095920235,0.009669023,0.02448603,0.061519913,0.07737807,0.0110071665,0.02300917,0.08512499,0.08661225,0.03731257,0.04796744,0.0018973679,-0.021849263,0.06408851,-0.040463716,-0.03213141,0.029840535,0.019540155,-0.046350554,0.027054474,-0.07395805,-0.007202235,0.06921454,0.036390208,0.03024504,0.013064494,0.055298787,0.08192021,-0.040109854,0.07334473,0.050251156,0.07439662,-0.018472228,-0.039948143,-0.046354704,-0.0034155992,0.06673797,-0.073620215,0.06214636,0.06725395,0.024573773,0.00722064,0.00737631,0.0907448,-0.072955,0.021824302,0.018813374,0.017127337,-0.032896712,-0.079268366,0.078336574,0.0009341907,-0.025866142,0.082377054,0.039601266,0.04584924,0.0452526,0.09306904,0.01654978,0.019463144,0.04529895,0.04269002,0.009020274,0.058973424,0.034739047,0.060417034,0.024973366,-0.02431437,0.0023338236,0.0505874,0.004912731,-0.03800936,-0.025339924,0.056008864,0.054349173,-0.08398118,-0.0061590387,-0.07062586,0.0037280146,0.079593726,0.04763079,0.019603293,-0.053147927,0.060041476,-0.05075766,0.063239925,0.09623053,0.08912072,-0.010322434,-0.045053355,-0.0044805957,0.00993513,-0.017921025,0.079080924,-0.013346099,0.0844261,-0.009533126,-0.03841071,0.05378651,0.013099078,0.03202643,0.06648358,-0.012647038,-0.07200229,-0.024201367,-0.024130262,0.061818738,0.0069257915,0.08095654,-0.046204478,0.041305684,0.05963462,-0.019286925,0.021646068,-0.03828876,0.020199258,0.028505398,0.0002890138,0.018549409,-0.024415718,0.049601372,-0.0255212,-0.051809482,0.002486916,0.031100247,0.053326257,0.03232871,-0.02184315,-0.017782023,0.04395361,-0.044967785,0.020857625,-0.04680567,0.03383608,0.057852827,-0.049163822,-0.07413604,0.048811324,0.05510866,0.045965154,-0.045189604,-0.05008033,0.08310618,-0.029888079,-0.08523257,0.015027167,0.012855831,0.07315587,-0.025931044,0.013656922,-0.006636392,0.09778052,0.014673245,0.0042839507,-0.036388762,0.026522394,-0.05120028,0.03348431,-0.05987376,-0.03824847,0.086597085,0.06408296,0.0107031865,-0.021351632,0.0060953903,0.067725405,0.075887755,0.017291732,-0.064686224,0.034774613,0.051813297,-0.01453907,0.009435143,-0.055932395,0.0065694894,-0.045584183,-0.043404683,-0.04363519,0.046040293,0.041425087,0.074893884,0.02952486,-0.04258694,-0.050047312,-0.059035487,0.074046694,-0.079165466,0.101387106,-0.027409956,-0.015339346,0.029305805,0.07965072,-0.02115283,-0.080579355,-0.026859973,0.042121902,0.053032104,0.028428607,-0.06743517,0.037484493,-0.015786778,-0.08163869,-0.07361899,0.0076239137,0.018571245,-0.012391124,0.06404115,0.052411865,0.044189844,-0.046764854,0.07487365,-0.015074153,-0.054717716,0.01861594,-0.019433664,0.013368371,-0.029158553,0.023649659,-0.015673643,-0.052305758,-0.028344225,-0.07939794,0.07127764,0.05769315,-0.044519715
-0.024304098,-0.038020674,-0.0016193796,0.07701181,-0.036483254,-0.02646931,-0.018096775,-0.009024174,-0.020958744,-0.08140816,0.007838568,0.00087111775,0.05994828,0.018093077,0.08268847,0.05901418,-0.007747609,0.018230194,-0.022120865,-0.027919158,0.006009642,-0.010049699,-0.073064,0.039662853,0.04982999,-0.033088837,-0.037286043,-0.018450435,0.092113025,-0.010283078,-0.051781263,0.0482341,0.08165674,0.004369717,0.093220614,-0.0069129067,0.03388641,-0.037868015,0.05682773,0.076043546,-0.058942337,0.0036071816,0.0008732131,0.06365694,0.044470455,0.036670912,-0.048825234,0.021062348,-0.03931216,0.06812146,-0.06865287,-0.04836951,0.043702196,0.015529445,-0.075325236,0.035196885,0.004610508,-0.04199501,-0.04861725,0.051901568,0.0052781897,0.06361814,-0.00024418163,0.017107898,0.014831895,0.06822778,0.023669554,-0.03982876,-0.03117094,-0.0307493,-0.012348362,-0.072501674,-0.018845879,-0.02796324,0.013165418,0.0019859686,0.058430012,0.024955878,0.014904775,-0.015882602,-0.035887577,0.05830697,-0.051834,0.00031004194,-0.0060538375,-0.0766651,-0.07991449,-0.078905694,0.019248955,0.039868042,0.008639882,0.0043547116,-0.060697235,-0.030311951,-0.07371642,0.031037992,0.0011080591,0.013526395,-0.04463917,0.026920712,0.025143825,0.0016285597,-0.05682953,-0.075944945,0.037092693,0.035887636,0.024266927,-0.031020308,-0.026629759,-0.03686265,-0.05594081,0.09636761,-0.079723015,-0.0052442173,0.0017341108,0.00720316,0.0674864,0.052525736,0.072332986,-0.04324109,0.035334475,-0.029970432,-0.07700162,0.019372907,-0.011141004,-0.018625392,0.00918913,0.062905215,-0.006217422,0.034137763,-0.0062329983,0.00842961,0.010106237,0.028926333,-0.0053747455,0.041079715,0.05294206,0.040797614,-0.0037756367,0.09629046,-0.046732634,0.02606251,-0.008535386,-0.029362708,0.0555909,0.013383338,-0.039250907,0.07753427,0.029084384,0.042747915,0.07751008,0.027735336,-0.06107335,-0.01826084,-0.009309599,0.03972923,-3.8101844e-05,0.04951801,-0.0037162977,0.055905137,0.05083597,-0.02961575,-0.026573539,-0.014494125,-0.0013921334,0.022338018,-0.0030450635,0.03827846,-0.033347577,0.0175742,0.0044957604,-0.00022458576,-0.0050408444,-0.00945416,0.08026478,-0.06570703,-0.034234446,0.013355507,0.045888074,-0.040789958,-0.075672425,0.024999311,0.04485788,-0.068805784,-0.008997042,-0.033904683,0.023121374,-0.02917755,0.02031326,-0.024542201,0.0024823532,-0.078822106,-0.008179578,-0.031080501,-0.042546302,-0.06925645,-0.056381483,0.083662786,0.008875642,-0.06843021,-0.07974573,0.014955801,0.041305453,-0.027518505,-0.076680794,0.040764913,0.009066188,-0.04864125,-0.021405276,-0.057889502,-0.07515847,0.030668125,-0.06667738,-0.032265514,-0.06436647,0.05819699,0.032031227,0.03907355,-0.049967695,0.020038018,-0.03798049,0.027264345,0.022054516,0.028594077,-0.06757621,0.047769643,-0.0042664227,-0.06413546,-0.030159768,-0.07901124,-0.04550379,0.0800421,-0.028762313,0.020019816,-0.027818535,-0.043086164,-0.07492053,-0.06707343,0.032166056,0.095393695,0.035407964,0.0021707874,0.009816176,0.018406523,-0.0012930718,-0.0055290605,0.022565253,0.028820876,0.06992617,0.064449266,0.0006314103,0.09225739,-0.034313947,0.00788663,0.031535454,-0.024391139,-0.0151898535,-0.05735841,0.016864836,0.057847153,-0.04790061,0.01932649,0.057443496,4.97839e-05,-0.014858077,0.053347647,-0.080577604,0.06436611,-0.010029673,-0.046743076,0.008103061,0.031938,-0.057082273,0.07846435,-0.03748498,-0.055924047,-0.02643751,0.06281447,0.041390985,0.08384377,0.004048026,0.03663983,0.05679485,0.020026239,-0.08796595,-0.0038752959,0.035046842,0.05323144,-0.05256023,0.014979053,-0.024744898,0.0007201493,0.050024323,-0.051587988,0.005517858,0.05658633,0.032576375,0.025079593,-0.0612017,-0.08616212,-0.023659354,0.043166067,0.013450376,0.08010894,-0.036444474,0.0043302267,0.05759407,-0.07951881,0.019276572,0.035896935,-0.08067271,-0.008982987,0.036877923,0.06305221,-0.010200046,0.0759935,-0.024905413,-0.0023767704,0.04718777,-0.034206267,0.021354666,0.03404559,-0.070625424,0.025438553,-0.08126201,-0.027416779,-0.028082345,-0.0065747686,-0.045561958,-0.053728994,-0.040901586,-0.07726684,0.05631209,-0.07523025,-0.048334118,0.08123699,-0.063890405,0.046902407,-0.044637915,0.04140035,0.009275346,-0.018958895,0.029159684,-0.081454806,0.062218033,-0.024618583,0.02538235,0.07705724,-0.02702731,0.03591188,-0.03593435,0.060704138,0.05800131,-0.033789292,0.0777846,0.013102298,0.03266547,0.0684839,-0.038734,0.00062913424,0.039540295,0.027014945,-0.06291568,0.06664634,0.005411712,-0.059284978,-0.031041168,0.07841798,0.031587653,0.0059110667,0.057256635,0.042868275,0.03656618,0.027011203,0.05904714,0.08378104,0.012053392,-0.012592069,-0.07935565,-0.0034029698,0.083100095,-0.048270192,0.015549246,0.08367847,-0.050332993,0.05312352,0.014737494,0.047436696,0.055425465,0.044324875,-0.082572505,-0.057890046,-0.013731362,-0.007544217,-0.020589598,0.043524366,-0.05046468,-0.009473751,-0.046013612,0.0048893956,-0.0648313,0.04315103,-0.04872505,0.03282092,0.05753137,0.04847051,-0.062944464,-0.027573638,-0.022230698,0.016933726,-0.037041314,0.020005785,-0.07351607,0.030160258,0.019925296,0.07317108,-0.04179381,0.016048951,0.08660639,0.028348986,-0.06467662,-0.05863358,0.06370676,-0.05018557,-0.000999509,0.013848951,-0.027839404,-0.004704774,-0.044810444,0.0144922715,0.09007022,-0.037184294,0.036609758,0.015642779,0.08486283,0.07277498,-0.049768683,0.035357863,0.049535222,0.0532073,0.001591746,0.01608252,-0.046355586,-0.06937604,0.0635277,-0.018328141,-0.01468418,0.045048993,0.016058013,0.0009198585,-0.07390209,0.09112007,-0.04157738,-0.039712157,-0.041052565,-0.082831524,-0.035855185,-0.0064814016,0.06561821,-0.05291527,0.056315493,0.0049260464,0.005216117,0.077489324,0.08468174,0.045104865,-0.0061829477,-0.042181227,-0.08449878,-0.059209265,-0.0346806,0.055079218,0.08329027,0.039780717,0.09391758,0.0701891,-0.0485247,-0.057668757,0.0704037,-0.014039283,0.03534231,-0.08131064,-0.02906062,0.013459851,-0.015163085,0.027062068,-0.03379362,0.004653477,-0.028197447,0.0058259415,0.027687639,-0.016387844,-0.009016328,0.014069839,-0.0365592,0.054504074,0.07123416,0.015176887,-0.030338887,0.05665291,-0.0051761717,-0.016711367,0.0043724803,-0.010751289,-0.05733366,0.036292806,-0.08077309,-0.011968732,-0.06781232,-0.028993951,0.037108257,0.058151327
