0,1,2,3,4,5,6,7,8,9,10,11,12,13,14,15,16,17,18,19,20,21,22,23,24,25,26,27,28,29,30,31,32,33,34,35,36,37,38,39,40,41,42,43,44,45,46,47,48,49,50,51,52,53,54,55,56,57,58,59,60,61,62,63,64,65,66,67,68,69,70,71,72,73,74,75,76,77,78,79,80,81,82,83,84,85,86,87,88,89,90,91,92,93,94,95,96,97,98,99,100,101,102,103,104,105,106,107,108,109,110,111,112,113,114,115,116,117,118,119,120,121,122,123,124,125,126,127,128,129,130,131,132,133,134,135,136,137,138,139,140,141,142,143,144,145,146,147,148,149,150,151,152,153,154,155,156,157,158,159,160,161,162,163,164,165,166,167,168,169,170,171,172,173,174,175,176,177,178,179,180,181,182,183,184,185,186,187,188,189,190,191,192,193,194,195,196,197,198,199,200,201,202,203,204,205,206,207,208,209,210,211,212,213,214,215,216,217,218,219,220,221,222,223,224,225,226,227,228,229,230,231,232,233,234,235,236,237,238,239,240,241,242,243,244,245,246,247,248,249,250,251,252,253,254,255,256,257,258,259,260,261,262,263,264,265,266,267,268,269,270,271,272,273,274,275,276,277,278,279,280,281,282,283,284,285,286,287,288,289,290,291,292,293,294,295,296,297,298,299,300,301,302,303,304,305,306,307,308,309,310,311,312,313,314,315,316,317,318,319,320,321,322,323,324,325,326,327,328,329,330,331,332,333,334,335,336,337,338,339,340,341,342,343,344,345,346,347,348,349,350,351,352,353,354,355,356,357,358,359,360,361,362,363,364,365,366,367,368,369,370,371,372,373,374,375,376,377,378,379,380,381,382,383,384,385,386,387,388,389,390,391,392,393,394,395,396,397,398,399,400,401,402,403,404,405,406,407,408,409,410,411,412,413,414,415,416,417,418,419,420,421,422,423,424,425,426,427,428,429,430,431,432,433,434,435,436,437,438,439,440,441,442,443,444,445,446,447,448,449,450,451,452,453,454,455,456,457,458,459,460,461,462,463,464,465,466,467,468,469,470,471,472,473,474,475,476,477,478,479,480,481,482,483,484,485,486,487,488,489,490,491,492,493,494,495,496,497,498,499,500,501,502,503,504,505,506,507,508,509,510,511
0.03533077,-0.01911664,-0.043354124,-0.11291018,-0.057532754,0.0146580385,0.038089197,-0.042884678,-0.010767257,-0.02192021,0.013610204,-0.018265245,0.032742407,0.048316844,0.058752928,-0.017189937,-0.046574973,-0.0008324673,0.038516756,-0.016884835,-0.069174714,-0.0047925618,0.043599233,-0.02838429,0.04860772,0.001354115,0.026238346,-0.07928491,-0.012664724,0.057259496,0.0164733,-0.044748552,-0.0727434,-0.05102237,0.033898663,-0.046651807,-0.22659767,0.12891604,0.08597453,0.017266694,-0.032973673,0.016783997,-0.03769209,-0.052329835,-0.031284183,0.09327077,0.0032222413,0.038421795,-0.035980336,0.01250726,0.020788534,-0.021293903,0.0019646117,-0.039515536,-0.08271382,0.040372767,0.08956178,0.0013668467,-0.03627565,0.008831753,0.05000758,-0.021483298,0.042344894,-0.025177544,-0.028633948,-0.0551463,0.05127993,-0.03962494,-0.0017962563,0.04992343,-0.013954016,0.07812555,0.058870558,0.054443423,0.031440817,0.035180997,-0.0358263,-0.061710536,-0.0029524874,0.016875776,-0.01874726,0.063545376,-0.0012363663,0.024210047,0.0033930088,-0.044476476,-0.009956444,0.012398285,-0.03930201,0.028317092,0.026767861,-0.054310646,0.016405804,0.0476047,0.038520735,0.06252063,-0.021407723,-0.029694216,-0.015430499,-0.05178669,0.011359774,0.026037626,-0.06918769,0.0024564476,0.06269885,-0.03665031,-0.056455128,0.052636333,-0.16940963,0.019680426,-0.012516056,-7.2936e-05,0.009268137,0.07575477,-0.04208251,0.04782208,0.011035967,0.006883619,-0.052059274,-0.0062210322,-0.0060874196,0.039906442,-0.0032288795,0.024431959,-0.020599352,-0.06743937,0.026066523,0.051616732,0.089597814,0.0019594526,0.0023415221,-0.042540517,0.04510396,-0.030144975,-0.1142362,0.076719694,-0.026496464,-0.016366107,-0.0046278606,0.052910298,-0.0032248178,-0.04540531,0.0036348107,0.060402654,-0.054401003,-0.053940054,0.03185194,0.010599364,0.015954113,0.029151015,0.018386481,0.010700788,0.08207068,0.05568102,0.013545768,0.035030887,0.097992495,-0.053117268,-0.044641584,0.02439654,-0.008510336,-0.09361636,0.035240076,0.03885861,-0.09334762,-0.076789714,-0.008945371,-0.033221234,0.023496589,0.046924077,0.03438351,-0.035929482,0.036443386,0.06506585,0.055440355,-0.0060291486,0.0055711307,-0.032835137,-0.03168785,-0.02480836,-0.045620862,0.016887873,0.058381714,0.020305455,0.0556827,0.06474089,0.00019352522,-0.014269957,-0.060404837,-0.051812902,0.07337477,0.019895358,0.12281081,-0.01907659,-0.023914246,-0.010726531,-0.04412291,0.06455717,-0.04770014,-0.047961105,0.03269341,0.04881113,-0.0034205674,-0.0012453317,0.04415771,0.12349933,0.014124273,-0.022987353,0.008913023,0.0093596205,-0.07010252,-0.06826346,-0.000115862786,0.010299452,0.003945587,0.039626565,-0.012791518,0.06119345,-0.0031237316,-0.0006501521,-0.010991824,0.0139471125,0.040176086,0.010174732,-0.004717806,0.015917258,0.009923942,0.045101646,-0.0041673887,0.033186648,-0.044226605,-0.023362681,-0.0025499791,0.05503783,0.0019175077,0.028906872,-0.0064239027,0.029558556,0.0089933155,0.059006527,0.03938018,-0.01749297,-0.088338785,-0.053201273,-0.034913957,-0.037699986,-0.008159977,-0.01020447,0.011665589,0.015822437,-0.041654736,0.025608655,0.030042274,0.099688366,-0.0941368,0.02438482,0.036593266,0.069407865,-0.026738217,0.040476486,-0.06475801,0.030397408,0.054145027,0.059925903,-0.02783311,0.022182133,-0.06939819,-0.057843734,-0.016347507,0.027272807,-0.020857614,-0.081762634,-0.04723,0.029700171,0.058319785,-0.033644777,-0.023277434,-0.08691595,0.02465679,-0.022146964,0.04354084,-0.04042742,0.074200146,-0.047339335,-0.014524776,0.03174073,0.009096358,-0.0029271394,0.0036101388,0.03619479,0.018097239,0.03211331,-0.05822071,0.09086121,-0.043640308,-0.017713582,0.08161802,-0.088929355,-0.06754381,-0.03435447,0.06943898,0.012523721,-0.011909745,-0.014719566,-0.012742999,0.047651716,0.035999473,-0.042708963,0.015634129,0.022858642,0.0809886,0.033055566,0.05051573,-0.036808837,0.014664145,-0.022015285,0.03864434,-0.057656635,-0.01496107,0.024680093,0.04796349,-0.14199616,0.067401454,0.046202723,-0.008593711,0.034977656,0.039605677,-0.017129913,-0.014786611,-0.01784505,0.06787609,0.07235937,-0.09327456,-0.015938852,0.053182155,-0.011890659,-0.022604713,-0.06262619,-0.04690585,0.040271036,0.03717197,0.01772834,0.045532547,0.01218975,0.0068829576,0.0024234178,0.02233842,-0.007567099,0.013567607,0.07694028,0.0015575703,-0.028331539,-0.06510735,0.0741022,-0.070958875,0.0013254927,-0.012533059,-0.06839759,0.020107314,0.0023113503,-0.007204561,-0.00809566,0.019753369,0.06287165,0.0018272436,-0.008083666,0.0002471849,-5.0575945e-05,0.009155029,-0.06563707,0.1363277,0.07724478,-0.055417378,-0.02144537,-0.020817949,-0.045759737,0.014758477,-0.0078156805,-0.020808505,-0.09829079,0.03444061,0.02486094,0.0048310994,-0.008008576,-0.007933687,0.047494613,0.044381827,0.008446171,-0.059080057,0.042800166,-0.0026318077,-0.011325688,-0.022732196,0.0023411198,0.046514336,-0.05370285,0.0023985987,0.00085540017,0.05810784,0.07796797,-0.03364973,-0.0062142373,0.06899601,0.058307763,0.0053891274,0.025747117,-0.022024347,-0.0040767747,0.008801607,-0.022859996,-0.060607135,0.11802096,0.035221044,-0.0010118815,0.04787278,-0.04242847,0.013252203,0.0056832754,-0.035811387,0.0323444,-0.030095058,0.045076463,0.046430465,-0.0031269412,0.032766003,0.011631243,0.041884687,0.010226914,-0.028940953,0.030742511,-0.055125628,0.0036880064,-0.114379816,-0.05590073,0.0400567,0.024598474,0.05504924,-0.010950905,-0.022667158,0.069745,0.019414304,-0.036491513,-0.05598175,0.0046024336,0.016579624,0.003149919,0.006830444,-0.049520254,-0.20219569,0.021894753,0.048203878,-0.03739787,0.023214694,0.06740708,0.038683232,0.07803745,-0.015170806,-0.045029327,-0.013332627,-0.028897703,-0.08508076,0.0135106165,-0.002720666,-0.041166164,0.021926694,0.028440068,-0.07230983,-0.0035370446,0.072532125,0.024558838,0.07923361,0.041007563,0.022960396,0.03773318,0.005446731,-0.010291342,-0.055770654,0.033045754,0.02481968,0.08503504,0.01933461,-0.040330738,0.058372717,0.0069146203,-0.08702543,0.0647352,0.03618318,0.023117652,0.015932541,0.013330585,-0.015590689,-0.037888248,-0.026156366,0.032323174,0.007268942,0.04309253,0.065546304,0.0038523495,-0.041973807,-0.0035126065,-0.031468336,0.11324026,-0.15737842,0.019726342,-0.0076883747,-0.050555144,-0.052197143,-0.044133317,-0.040244862,-0.037749007,-0.004134694,0.04814113
-0.018368308,0.01163999,0.014979325,0.07702645,0.00039134515,0.050825063,0.019878928,-0.08114355,0.0027465294,-0.08155434,-0.015591611,-0.019313507,0.041798767,-0.10209498,-0.024576517,0.031206608,0.02338521,0.027175047,-0.03334947,0.011536403,0.014271787,0.031630885,0.0048917765,0.039618984,0.010996608,0.029648898,0.026067168,0.036959834,-0.07022274,-0.05779599,-0.054843616,-0.0038612126,-0.05633902,0.011027944,-0.018912246,-0.0081395665,0.032595914,-0.10722999,-0.096877076,0.0026081344,0.041041717,0.021578727,0.041155465,-0.019625047,0.076726876,0.033657845,0.015635246,0.0015742399,0.00033531745,0.03207268,-0.0028645273,0.11194301,-0.020441862,0.0723698,-0.23472303,-0.02618845,-0.017059684,-0.013093223,0.04097888,0.0163261,-0.029449327,0.03847496,0.06975947,0.061572958,0.02657567,0.020549374,-0.05141413,-0.037489947,0.039203767,-0.030948874,0.008230846,0.014381298,0.064113595,0.016717285,0.024144877,0.10262942,0.057656694,0.006754875,0.011085792,0.014807323,0.1060022,-0.00034663995,0.011233594,-0.010059857,-0.042221356,0.0027171015,-0.049529277,-0.033279642,-0.04472381,-0.023122137,0.020265263,0.03654396,-0.032428607,0.036075752,0.013955572,-0.015653847,0.048325,-0.029513394,0.026195092,0.030576047,0.021605259,-0.024550494,0.013483304,-0.018042019,0.009558433,0.0025675762,-0.00016395474,0.043592922,0.119153164,0.033592083,0.02427322,0.045540057,0.05868229,-0.04328501,-0.0014688756,0.034281418,0.0020200545,-0.035906244,-0.02733334,-0.050446797,-0.02270708,-0.073415115,0.021822661,-0.009661839,-0.005031358,-0.009411089,-0.04295229,0.013756881,-0.0051173083,-0.02790443,-0.0571405,-0.016843596,-0.023040399,-0.0019011918,-0.026567977,-0.044227723,-0.0014976611,0.041233964,0.12149934,0.009226401,0.0076441937,0.064915895,0.036323767,-0.059537895,0.016733658,0.0903903,-0.022750286,-0.018586745,-0.050355963,0.057447527,-0.0007945482,-0.0007810033,-0.04418103,-0.02869929,-0.048044994,0.029984029,0.018234067,0.025610534,-0.018599473,-0.031526938,-0.011742366,0.026860302,-0.008888861,-0.05145566,0.03862905,0.008236553,0.0041962974,0.0032382424,0.005085916,-0.01484682,0.02421607,0.037431646,0.019752046,0.0015654326,-0.061677106,-0.05494597,0.06572222,0.026900874,0.037938662,-0.011620502,-0.0018747513,0.040624224,0.029472867,0.051395707,-0.096849814,-0.006145665,0.0059454436,0.026387041,0.04444834,0.056996252,-0.0467662,-0.06126248,0.015933054,0.027070852,-0.041478787,0.024677657,-0.0047844094,-0.0144114345,0.006914212,-0.010616116,-0.052733477,-0.071776465,0.0320352,0.013562997,-0.052990753,0.17125317,0.007219346,-0.06563513,-0.05371457,0.03113853,0.0007458003,0.05488861,0.033276007,-0.006979393,-0.06578738,-0.0020551956,0.014080684,-0.040029664,-0.047239497,0.018721452,-0.05173163,0.018816914,0.03326009,-0.025166098,0.06494472,-0.012117294,-0.00059703644,-0.017023368,0.06226354,-0.00649547,0.049130697,-0.078400575,0.02788728,-0.020463997,-0.007943938,0.009602316,-0.07468844,0.043180186,0.07462552,0.007071256,0.0047018505,-0.06941938,0.044736177,-0.027549548,-0.010269463,-0.003138004,-0.03627716,-0.07180711,-0.002998921,-0.060184766,0.013202991,0.055815805,-0.04956939,0.031065986,0.04396858,-0.015609972,-0.017559895,-0.007994348,0.009783307,-0.030090513,-0.00863055,-0.01375549,0.03398643,0.026215121,0.032130387,-0.024062207,-0.027245292,-0.0035441513,0.03326936,0.04547863,-0.0033512614,0.01720612,0.0020127578,-0.047516856,-0.038907267,0.023166342,0.018661322,0.0009577177,0.031171206,0.0045682625,-0.06383476,-0.03947556,0.0013667503,-0.007712684,0.0032658465,0.09147726,0.039599616,-0.037736673,-0.07133575,-0.0373815,-0.05947216,0.0038367023,0.0062149055,0.049890134,0.006572498,-0.027405592,-0.015719958,-0.018315885,-0.036552332,-0.005629703,0.035126135,-0.010383189,-0.04311781,-0.05126442,-0.018830808,-0.011725837,0.0064372243,0.07919781,-0.04670323,-0.015661284,-0.03778635,-0.004414338,0.04121995,0.043256998,0.020923506,0.06490032,0.024932895,-0.041154347,-0.05379292,0.05779554,-0.02931349,0.11237042,0.04543796,-0.051785734,0.050554167,-0.022387827,0.022302965,0.020840988,-9.353884e-05,-0.026182467,-0.047671378,0.09800697,-0.070733,0.0038392916,0.06920494,0.14674221,-0.028673869,-0.00974239,0.006174822,0.03505717,0.043117337,0.055957317,-0.008565675,-0.019500546,-0.007989277,-0.00050830684,0.027335262,-0.07816939,0.066833906,-0.04466899,-0.0040044757,0.0033820735,0.03980923,-0.0112541085,0.043150607,0.031680904,0.01154267,0.026779313,0.0045587798,0.049129862,0.061301857,-0.023051478,0.022254348,0.034935914,-0.035385415,0.03554891,-0.014797103,-0.004858331,0.0034970029,-0.028202793,-0.055215336,-0.009136827,0.029670725,-0.0024104356,0.04961712,0.002536782,-0.06228062,0.003285651,0.04709728,-0.037817053,0.058002733,-0.020262873,-0.04000615,0.060718797,0.006863807,-0.00577732,0.0186617,0.0040988377,-0.04326277,-0.013474026,0.01260484,-0.037206065,-0.043637436,0.005746993,-0.040932983,-0.09998991,0.010754469,0.056523953,-0.045472924,-0.0030369752,-0.017191825,-0.021687416,-0.04906899,0.068839274,-0.08361799,0.009731966,-0.014787262,-0.03353682,-0.009488839,0.04932138,0.0017420871,0.051585622,0.0016234587,0.03443477,-0.05564954,0.012305474,0.0012502277,-0.020925961,-0.030934654,0.044592507,0.028951198,-0.0017285519,-0.011475582,-0.05012347,0.07238669,0.077230826,0.003789162,-0.022571955,0.013275302,-0.08197418,0.04347132,0.04631685,-0.2635513,0.02866125,-0.010881627,-0.044281848,0.03738553,0.037077766,-0.04311634,-0.053640738,-0.034990873,0.055948958,0.031471014,-0.062273037,-0.0013131247,-0.09759255,-0.04025917,-0.02558347,0.031876624,0.04605174,0.025644727,0.029437765,0.021117829,0.01874106,-0.007527852,-0.0073581785,-0.008894516,0.069140494,0.030661913,0.0047728186,0.07560915,-0.0064415704,0.037496492,0.0058588684,0.083018266,-0.0043859025,-0.008477578,0.03354115,-0.04819458,0.013435768,-0.009013509,-0.046787214,-0.030315524,0.04221451,-0.019250985,0.03522475,-0.054493666,0.027912622,-0.03027728,-0.030251388,-0.015411235,0.031988446,0.12659742,0.04264978,0.049583692,-0.0029307348,0.0012865493,0.05855999,0.039287835,0.0052700243,-0.018896641,0.028035197,-0.01181982,-0.00066029286,0.045631744,-0.024596335,-0.05339088,-0.010135312,0.05583573,0.03124069,0.017164756,-0.08679084,-0.012419204,-0.035503943,0.07312953,0.0063189436,-0.035167787,0.0075429296,0.0756029,0.055059772,0.09926098,0.045093812
0.017700693,-0.004495126,-0.05678843,0.017698038,-0.07195944,-0.007110412,-0.043779586,0.027653607,-0.0010422627,-0.062356897,-0.011569323,0.010036323,0.059665553,-0.05039579,0.025196014,0.076669686,0.015928514,0.05700003,0.007782903,-0.023080748,-0.0009800333,-0.0073960344,-0.024591519,0.019292826,-0.027516104,-0.008831268,-0.0063231653,-0.015214471,0.026862744,0.06882795,-0.034920134,0.030537948,-0.17000252,0.045576952,0.011213627,0.016165277,-0.16380034,0.13222258,0.10990365,-0.027740918,-0.0010534225,-0.018927777,-0.044165622,0.016328093,-0.06945417,-0.029197454,-0.0016246644,-0.010850285,0.040030498,-0.013821318,-0.0028022358,0.055811346,-0.0067980355,-0.024510331,-0.020407325,0.013736752,0.047229778,0.033936903,-0.040405303,0.06310274,0.029600302,-0.007811213,-0.03617084,-0.04120863,0.09158908,0.001888937,-0.01180864,0.020704279,-0.013003383,0.02994204,-0.0013685644,0.03523419,-0.035337113,0.035700206,0.06794567,-0.17230982,0.020872101,-0.062167708,-0.019510675,0.024270035,0.048766445,0.060316604,-0.01801597,0.003406782,0.0008866455,0.040146966,0.028708158,0.06860713,0.023092115,-0.031436227,0.04630326,0.011818163,-0.024751691,-0.027710963,0.013018676,0.012223822,-0.047959987,0.015717449,0.007023458,0.012449242,-0.039894067,-0.0039366097,-0.0029595196,0.00034027363,-0.051117156,0.0718155,-0.012599127,-0.034368113,-0.16378808,-0.026833963,0.01324959,-0.035517063,0.055404644,0.030373028,0.010695985,0.009232791,-0.026174838,0.003587984,-0.005311339,-0.0038253337,-0.041543342,0.013252438,0.019487452,-0.044478696,-0.030094497,-0.05279711,-0.011580033,-0.029888365,-0.052470468,0.00083930796,-0.0298747,0.001668457,0.05410555,-0.030094286,0.008612721,0.053026382,-0.06711789,0.038114425,0.010978949,0.012526821,-0.06724285,-0.0247726,-0.009283026,-0.0112712635,-0.021649204,0.028440462,0.05736586,-0.012499564,-0.052105386,0.05861488,0.0014316228,-0.022256756,-0.019751782,0.020654367,-0.015747668,0.046984494,0.06755768,0.0052931192,0.049059443,-0.022764966,-0.007864246,0.030113183,-0.03870004,0.015611628,-0.00090540125,-0.04655928,-0.010394102,0.00637638,0.030954693,0.041494645,0.07563308,0.007129858,-0.021225499,0.039228514,0.02491848,0.007077925,0.050798632,0.013939168,-0.0350713,-0.027022915,-0.023391183,-0.061831847,-0.022248527,-0.022430437,-0.02189106,-0.050389636,0.1039384,-0.029280819,0.0050649648,0.01740181,0.049471594,-0.0020469113,-0.06128221,0.054165423,-0.054485593,-0.0077604237,-0.01732567,0.0479387,-0.058743052,0.019573648,0.037015364,0.049146112,-0.006942035,-0.086290225,-0.02163911,0.1886247,-0.0065777586,-0.06927753,-0.044949576,0.00039911564,-0.05144685,0.03114794,-0.14020863,0.020812003,-0.0055525266,-0.025244098,0.051260304,0.07654481,0.01469662,-0.049157556,0.020940289,-0.01532936,0.008990476,0.021862047,-0.051665496,0.07697978,0.016228331,-0.01947237,-0.060470775,-0.037062347,-0.044063345,0.01716479,-0.018895049,-0.0045955796,0.048867308,0.015297828,-0.008204999,-0.03498476,0.028328652,0.03800918,0.07142178,-0.11549779,0.026202181,-0.0034504172,0.06315521,-0.027890638,-0.005836052,0.012311847,-0.00074505986,0.037760507,-0.017489236,0.0059860526,-0.025966432,-0.08603702,0.01385657,-0.024622766,-0.0107607525,-0.02020073,-0.05287776,0.09871638,0.023409713,0.02198315,0.05579399,-0.06252534,0.02085215,-0.030238068,0.0247806,0.011178131,0.030096134,-0.0357978,-0.022159444,0.0181146,-0.053131577,0.015047826,-0.018890468,0.0045591574,-0.0006801611,0.032979686,-0.027472306,-0.06755251,-0.025452867,-0.0013597151,0.05292433,-0.050624453,-0.0063369116,0.07057645,-0.023660216,-0.0037477603,-0.0018268285,0.06887268,-0.036999166,-0.040595975,-0.027623752,0.045140896,0.035676084,-0.028119806,-0.034208965,0.04956234,-0.08351232,0.029333578,-0.04839106,-0.08673872,0.014243001,-0.0025162185,-0.042389777,-0.033855155,0.025953941,0.043496806,0.08268982,-0.059643738,-0.059930976,-0.020592889,-0.06882142,0.008465215,0.028331893,0.04556897,0.014157956,0.025553152,0.02275126,0.016235761,0.076896675,0.05312943,0.009594299,0.03236823,-0.00046361727,-0.010600712,-0.022558894,0.014549379,0.01576828,0.02086233,0.025350109,0.03902695,-0.060735684,-0.002084367,-0.038402893,-0.1206639,-0.04671184,-0.057873067,0.014150753,-0.025207076,-0.015017132,-0.023093024,-0.0353891,-0.0024595077,-0.02555425,0.035554077,-0.07480174,0.061269846,-0.015534135,0.09019274,0.0825123,-0.084374264,-0.038916696,-0.022593936,-0.011434373,0.050679468,0.014735452,-0.032636553,0.013100118,-0.00025273545,0.010694319,0.070409805,0.050355416,-0.01618457,0.035866447,0.0023002317,-0.011424697,-0.0510781,0.014531496,-0.047881965,-0.044782445,-0.06406549,-0.053052507,-0.03498304,0.048144136,-0.047809124,-0.029184131,-0.050135676,-0.039224826,-0.07140006,-0.029510982,0.061088655,-0.061562408,0.06856107,-0.028409347,-0.025571391,-0.012371522,0.019685496,0.05749066,0.025992053,-0.059073944,-0.0013202431,-0.018335246,0.037151743,0.033135336,0.021301141,0.010189892,-0.018304493,-0.019064987,0.06102799,0.06454065,0.046177555,-0.0057556164,-0.019180477,-0.007327574,-0.039043814,-0.03214087,-0.014934098,0.012594958,-0.06551475,0.015500075,-0.024516774,0.031272534,0.06457273,-0.046714403,0.06347234,-0.023137165,-0.009535373,-0.039133,-0.027307766,0.0028237738,-0.044983365,0.08629969,0.06311971,-0.020194545,-0.02115978,-0.04844772,0.035946064,0.020685636,0.054004017,-0.033148274,0.016209023,-0.11392369,-0.00990376,-0.048050508,-0.018865136,-0.075012185,-0.013278497,0.021134997,0.036465544,0.03354025,-0.0062711057,0.022244146,-0.00612493,-0.055207863,0.034950957,-0.010690242,0.030078273,-0.17706756,-0.035147116,-0.032014843,-0.030161394,0.09807296,-0.021188788,-0.035263833,-0.05697378,-0.034914855,0.041316435,-0.025135716,0.02668313,-0.07782513,0.044348508,-0.0048597474,0.08353782,-0.013395978,0.028491251,0.010714405,-0.00012399245,-0.0011222066,-0.015131735,0.07633231,-0.033218436,0.049350623,0.026705122,0.0324992,0.0020314755,-0.0099593615,0.050150968,-0.017212922,0.049369596,0.0067595867,0.011821867,-0.015739871,0.030886838,0.021254528,0.047863185,-0.025564998,-0.011348895,-0.004463874,0.00424893,0.058703646,0.008238908,0.024046523,0.044203755,0.02852018,0.008518661,-0.0177664,-0.072210155,-0.042187512,0.016408578,0.0005841318,-0.051683884,0.20846859,-0.029953884,-0.0047896854,-0.03937054,0.030431058,0.049881745,0.07920225,0.02776834,-0.08543211,-0.036659464
0.0020750943,0.08554771,-0.07237859,-0.14320786,-0.14520504,0.11007786,0.11671423,0.1260305,0.0710147,-0.059921406,-0.015120893,0.021046225,-0.0060425783,-0.07805854,0.08366411,0.05893799,0.026269441,-0.0051299026,0.017253041,-0.08991434,-0.018310705,-0.06655348,-0.03502727,-0.031193925,0.040403035,0.0100679975,-0.04142425,0.044636317,0.04423125,-0.06218111,0.012791066,-0.004727667,-0.039629042,-0.014385159,-0.08751794,0.09125281,-0.06580126,-0.046179105,-0.020280747,-0.009360376,-0.100175194,0.111227475,0.06591661,0.093256645,0.1283385,-0.04895507,0.043139175,-0.03180061,-0.10058129,0.01687625,-0.0038470211,-0.08464318,-0.09455275,0.053613022,0.008438686,-0.045398075,-0.0014253007,-0.0073819165,-0.072217755,-0.11250257,0.05626252,-0.105930954,-0.05164066,-0.099614136,-0.099128366,-0.07634424,-0.05496929,-0.088986084,-0.055832732,-0.061771218,0.10899728,-0.03142121,-0.016438799,0.06748844,-0.029904662,0.024904367,-0.036341462,-0.007460244,0.006400401,-0.009561145,0.047931902,0.019947806,-0.09276831,-0.048549905,0.080115825,-0.0406814,-0.07767094,-0.09981589,0.093583584,0.041995037,0.04137557,0.050278563,-0.07183812,-0.044209708,-0.08813469,-0.033519674,-0.06510306,0.078566946,-0.065511994,-0.042275146,0.0024655836,-0.022927595,-0.08059338,-0.035755046,0.0011022675,0.014262601,-0.0645387,0.07023686,-0.022687357,-0.0022821955,0.061512474,-0.032895453,-0.11142645,-0.08480813,-0.01312198,-0.11397628,0.09012364,0.06664502,0.012073796,0.13810329,0.010679071,0.0788908,-0.0827541,-0.004237777,-0.14309017,0.037685167,0.01439377,-0.01683692,0.09458383,-0.045774255,0.09352891,0.01848035,0.025878135,-0.022053484,-0.01189616,-0.10821477,-0.13565035,0.035715662,-0.1113782,-0.07008904,-0.07743243,-0.08470281,-0.13196088,-0.12170414,-0.090949304,0.09872294,0.03838511,-0.055053566,0.041841548,0.021416826,-0.019950932,-0.09907652,0.033339515,-0.049630996,-0.14537515,-0.0905499,0.11020359,-0.079325296,0.0028487674,-0.03337684,0.061738383,-0.10499064,0.035509408,0.07392061,-0.14274313,0.11015939,0.083548225,-0.035167262,-0.06944366,0.003892512,-0.0049226573,-0.00014390852,-0.018557318,0.047790997,0.053786993,0.08223125,-0.12912044,0.049126673,-0.0739229,0.08122739,0.1050501,-0.025274368,-0.021546355,0.03878939,0.07105224,-0.032464813,-0.0335304,-0.05703429,0.07150765,0.07208572,-0.08940121,0.12397942,0.02897969,-0.10477721,0.08193356,0.049336545,0.031147731,0.0483256,-0.033939555,-0.00026060588,-0.05582525,0.05615079,0.0158727,-0.06875469,-0.051146917,0.00891462,-0.06284574,0.07780553,-0.08214259,-0.05451639,-0.024406344,-0.063608445,0.08608397,-0.0069710943,0.023906196,-0.00048387866,0.0868318,0.09068248,0.12450016,0.06792516,0.08612785,0.06098213,0.036252726,0.09984114,0.101520084,-0.056745995,-0.10387849,-0.015386613,0.02929718,0.09190241,-0.08569335,-0.08157362,-0.00851497,0.016147299,-0.12118507,0.051087335,0.0029136601,0.07936053,-0.07713583,-0.025167681,-0.05460515,0.023037337,-0.123621516,0.026351077,-0.10317327,0.080462225,-0.053198174,-0.07671042,0.07044156,-0.066328324,0.033401996,-0.07309394,-0.05963057,0.031091591,-0.014120788,-0.097817935,0.07699491,-0.019422466,-0.06818467,0.08485872,0.07535795,-0.08057706,0.091499954,0.14000309,0.03087944,-0.07292876,0.10026145,-0.099744104,-0.048573658,0.061356712,-0.057390776,0.01773395,0.07730602,-0.022522213,0.077713035,0.049413547,0.099022664,-0.073365964,-0.029501136,0.10354385,0.088282265,0.028251834,0.011270264,0.065482564,0.06123631,-0.010090186,-0.11738148,0.07167929,0.0032761986,-0.053977616,-0.066099025,0.10901821,-0.024369033,-0.0470244,0.03416469,-0.016015947,0.04425753,-0.12997971,0.0048547983,0.005353825,0.031292807,-0.03704581,-0.10606983,0.01845327,-0.052744,-0.029335229,0.09896311,0.10116442,0.12721933,0.11621862,0.091726944,0.008061601,0.0775081,0.08046036,-0.04479408,0.09254229,0.103006385,0.09913662,-8.349899e-05,-0.08832666,-0.030665353,-0.0063289716,-0.07270955,-0.112286404,-0.015258623,-0.096509434,-0.02797304,0.029055964,-0.099031374,0.03036273,-0.10498703,0.050277963,-0.13267837,0.12012317,-0.08134506,-0.041734643,-0.03648294,0.074254625,0.083898574,-0.041250873,-0.041728716,-0.12915035,0.052892815,-0.058689937,-0.07508845,0.12454799,0.045322135,-0.0954612,-0.042742137,0.06996889,-0.12295579,-0.06738893,0.044631295,-0.10372328,-0.0216343,0.033910878,-0.015677918,-0.063657425,0.0010717994,-0.044345923,-0.066647395,-0.07062029,0.039540853,0.08233382,-0.002070039,0.039425936,0.074786395,-0.021570986,0.073600404,0.09186692,-0.027254606,-0.04304605,0.0054863184,0.08886512,-0.017075108,0.08795988,-0.12943201,0.062810965,0.14950173,0.08328459,0.025873706,0.08373238,0.003054956,-0.033906236,-0.097103804,0.084121495,-0.017505689,-0.049518026,-0.026809245,-0.107141,0.03762804,0.09216362,-0.10224329,-0.10278378,-0.019337786,0.06667055,-0.020587657,0.07945954,0.016963275,-0.07686853,-0.12144167,-0.100785196,0.05725071,-0.10789244,0.010894287,0.084671736,-0.13221973,-0.10142861,-0.06790115,0.08587398,-0.07509368,0.03141875,0.05043025,0.07815331,0.0692753,-0.019728597,-0.0007436082,-0.003149758,-0.08752814,0.07690801,-0.075478874,0.0057425424,-0.05169687,-0.09697597,-0.15027577,0.123734675,0.0551258,0.07972898,0.02817448,0.04752957,-0.050198574,0.04017951,-0.032000724,0.0056316676,0.016687635,-0.0798983,0.08259485,0.032211605,-0.02916182,0.06052323,0.050270498,0.0653602,0.03291075,0.023889316,-0.09957927,0.06231497,0.03170357,0.11831898,0.03960951,-0.09658009,-0.03852947,0.067462854,0.059194688,0.090042785,-0.023082748,-0.015100937,0.043005865,0.028876955,0.025820376,0.008062035,0.060133547,-0.017964417,0.055281077,0.014467774,-0.07826662,0.09790656,0.04408088,-0.039146554,-0.066910565,0.024351496,-0.08604944,0.12688397,0.04592393,-0.06274331,-0.082024135,-0.0382503,0.07559336,0.09908375,0.095024414,0.038956996,-0.035442017,0.1378005,-0.054083724,0.07681056,0.031882297,0.030835746,-0.021174375,-0.1011919,0.07894999,0.039670773,-0.09540583,-0.029933095,-0.0563596,0.0060136993,-0.013535471,-0.11092039,-0.060217317,-0.13107744,0.11932134,0.0065638595,-0.01917629,-0.0017748339,-0.04427197,0.09860039,-0.07894638,0.027189782,0.054686066,0.017452212,0.05485374,-0.094266556,-0.036394473,0.04440674
0.09640881,-0.0807581,0.09557398,-0.053238526,0.060108315,-0.11163573,-0.07772323,-0.11176897,-0.052068293,-0.034979768,-0.09195703,-0.02006023,-0.03677276,0.109181955,-0.121283926,-0.039463975,-0.034746915,0.041378897,0.028019387,0.116891846,-0.08496087,0.09248737,-0.06625953,0.031419307,-0.053681154,0.042092532,0.07670779,-0.041060463,-0.034421064,0.08927088,0.015344325,0.040318724,-0.019185219,0.0743475,0.079342715,0.08214147,-0.060131293,0.012289713,0.032475796,-0.03855552,0.086325355,-0.07288771,-0.049697198,-0.105012394,-0.08441535,0.027974308,-0.021713462,-0.030638564,-0.08424218,-0.00043113623,-0.019389702,-0.044766523,-0.10162487,-0.044671908,0.082939446,0.05284312,-0.040086064,0.021078192,0.102951266,0.066523366,-0.07838286,-0.091505036,0.04646364,0.06806702,0.036323953,-0.06544773,0.12188477,0.05861229,-0.054797594,-0.095765695,-0.12446201,0.08358669,0.10252057,-0.055405226,0.05153285,-0.012183232,-0.10483715,0.005111237,-0.06787894,0.0009124251,-0.11390903,0.11661842,-0.0869811,-0.04122469,-0.03378069,0.06913096,0.10188674,-0.024366874,-0.007662825,0.07167556,0.052219532,-0.07600499,-0.05792857,-0.058080893,0.072453424,-0.087403566,0.13602109,-0.05958345,0.028419388,-0.01008779,-0.037820354,-0.03067253,-0.100568175,0.015425686,0.08025049,0.117506586,-0.054505322,0.01111982,0.07642976,-0.094677396,-0.06834032,-0.011544331,-0.07999051,0.041550126,0.067984916,0.031663507,0.0049268347,0.13074231,-0.050230734,-0.092969954,0.07158126,-0.11636442,-0.08248051,0.025517713,-0.025841078,0.006646556,0.028613353,-0.0017789842,0.08424113,0.053905282,-0.046241958,-0.06694772,-0.001654449,0.07181864,-0.09289437,0.10914757,0.13049376,-0.017080275,0.003460672,-0.07302809,-0.05381808,0.077631064,0.1289979,0.080794595,0.11528259,0.051540766,0.07770982,-0.050263952,-0.0753147,-0.062865034,0.094392836,0.065317996,-0.09749015,-0.09544475,0.04609871,0.13401803,0.043288376,-0.04818112,-0.09716893,-0.032239173,-0.077461466,-0.025010416,-0.06717953,-0.003103363,0.10586404,-0.0743038,-0.055439774,-0.04395599,0.038793374,-0.016194882,-0.09942493,0.026827231,-0.042112492,-0.12007864,0.045800537,0.08811575,0.08985211,0.00460737,-0.053002387,0.07918173,-0.07014097,-0.056844603,0.050028846,0.03868319,-0.09476383,-0.052994285,-0.03379701,0.05498857,-0.09810154,-0.027949119,0.08621507,-0.0689991,0.02705294,0.11170747,0.034356136,0.05820527,0.009439427,0.06254792,-0.028712444,-0.08324122,-0.07727633,0.027770901,-0.08575899,-0.008899216,0.0031650157,0.08225807,-0.024936661,-0.02850472,0.06499724,-0.07646776,-0.03434185,-0.091911726,-0.094667844,-0.06741642,0.028970141,-0.008267798,0.0720206,-0.0048317597,-0.09153191,-0.019101437,0.02801777,0.05636525,-0.09157122,-0.05550424,-0.1156226,-0.05931778,-0.10899564,-0.108347535,0.047077984,-0.011057152,-0.000379514,0.12115757,-0.0242317,0.051201425,0.007463071,-0.04659149,0.1028264,0.032980494,0.06777212,-0.00376237,0.010979269,-0.034523793,0.024798546,0.010726438,0.0046278466,-0.017075852,-0.074315205,0.015916731,0.08736579,-0.0830596,0.027093174,-0.05179965,0.020624261,-0.0016673013,-0.028106214,-0.089572795,-0.040645707,-0.008191774,-0.062485907,0.035027556,0.016846897,0.02943663,-0.1061952,-0.0023201443,-0.06917086,-0.10235798,-0.13647102,0.095291935,-0.07331486,-0.0025205323,0.01968919,-0.11008401,0.07868475,-0.006650296,-0.006471367,-0.083026625,-0.09275826,-0.075993545,-0.021340076,-0.062467016,-0.08336837,0.013148381,-0.02324798,0.057369027,0.061577454,-0.09568629,0.0753237,0.027649613,0.05531646,0.011280536,0.03390432,-0.03920797,-0.019038258,0.06057349,0.08428391,0.0059610344,0.039313227,0.05363806,-0.022896014,0.022707596,-0.0360676,0.01791489,-0.0779039,0.060216956,-0.081911966,-0.022577373,0.011615321,-0.080267735,-0.08066026,0.01241686,0.08607477,0.06333492,-0.019996468,-0.06934024,0.060303297,-0.08529791,-0.07917944,-0.09137206,-0.060553525,0.0070606805,0.055261325,-0.096152894,-0.07760052,0.08864924,-0.10420061,-0.093019105,0.09058927,0.0189748,-0.09465787,-0.05000013,0.04771997,0.030947177,0.08400473,-0.070112355,0.049730506,-0.008278139,-0.07767753,0.12534831,-0.08760515,-0.09075379,0.03199117,0.026504083,-0.051706437,0.016687052,0.014996506,0.00064192066,-0.052845784,-0.053228736,-0.034027074,0.020388667,0.10069897,-0.0038255795,-0.08786137,0.044155344,-0.020855062,0.046320826,-0.09939744,-0.081348635,-0.068067834,0.06959976,-0.042532135,0.025598625,-0.06601273,-0.11104523,0.022472244,-0.06902185,-0.0017923177,0.029471483,-0.022127561,0.09251223,-0.0065253563,0.08654209,-0.025372649,0.03464409,-0.088450536,-0.0055894502,0.117975295,-0.011244947,-0.016867146,-0.046369553,-0.007712936,-0.06783728,-0.0016261481,-0.003043717,0.055428807,-0.0115461,0.022783438,0.04399523,0.05509079,0.050735895,0.118796445,-0.03841983,-0.009949176,0.08475941,0.10906613,0.04119726,-0.056053437,0.08601299,0.012513867,0.053689286,0.109370165,0.093519166,-0.0104076,0.09851602,0.037659653,-0.040052302,0.04920596,-0.045607466,-0.015478535,-0.034311384,0.09787253,0.09100414,0.04019885,-0.023598477,-0.08658432,0.1117887,-0.040299937,0.041446127,-0.059295718,0.06669025,-0.023259647,0.02368793,0.13892968,0.08083069,0.05027874,-0.0017161076,0.051041584,-0.02219628,-0.057569604,-0.12388062,-0.0692648,0.037471276,-0.00166823,-0.02935871,-0.0017363867,-0.052582484,0.06407551,0.018522408,0.0018358588,0.07256143,-0.08184474,-0.12439346,-0.06339948,-0.0771853,-0.06215881,0.055229053,-0.057145756,-0.020141039,-0.032897197,0.08201073,0.01140785,-0.029781999,-0.09966783,-0.062248807,0.008015781,-0.030215899,0.009450608,0.04713043,-0.048971105,-0.094849974,0.03140697,-0.101159476,-0.07384938,-0.101518184,0.021319052,0.10987498,-0.093373924,-0.06580455,-0.058199905,8.7350716e-05,-0.082227975,0.025418717,-0.09962322,-0.082147285,0.08184413,0.102705285,-0.0032525414,0.021914566,-0.07996818,0.0014967932,0.058621548,-0.002179111,-0.019112408,-0.05652705,0.12292988,0.02588618,0.03635871,0.10376326,0.048270382,0.10849919,0.09692748,0.09203743,0.014259837,0.011848647,0.13059796,-0.07110325,-0.03604485,-0.032755543,-0.036753926,0.0022282682,-0.07485718,-0.06477191,-0.034790732,-0.08783284,0.033425502,0.009062093,-0.059783813,-0.018709285,0.08639092,0.098546974,-0.096371405,-0.03257987
-0.09060768,0.04187789,-0.08340635,-0.10933678,-0.08260972,-0.10330488,-0.046055987,0.019637793,0.14205125,-0.06103318,0.054855786,-0.08269663,-0.08292419,0.12927742,0.0032911694,-0.07013704,0.07456494,0.00750809,-0.059362166,-0.078181624,-0.054499064,-0.06332225,0.032176472,0.010533453,0.037555885,0.035837814,-0.08194889,0.03293223,0.027668944,-0.015388596,-0.04934319,-0.09221299,-0.03487457,0.066197515,0.04718188,0.03159095,-0.037869986,0.07828935,-0.0995066,0.024859548,-0.067875765,-0.10442053,0.09290443,0.021383,0.11414137,-0.051474866,-0.0178984,0.1127396,-0.05011028,0.023917846,0.028245775,-0.09123726,0.02245276,0.078727186,-0.01093505,0.061477534,0.054704767,0.012453452,0.08130688,0.009016443,-0.07232797,0.097812824,-0.010178179,-0.12502782,0.06962602,0.09314636,0.15118182,0.103827216,-0.08997947,-0.070224226,0.12444112,0.08871155,0.10351629,-0.07071041,0.12190368,0.07304006,0.08369154,0.033380494,0.008465693,-0.021316174,-0.03641936,0.023762925,-0.025694543,-0.07137209,-0.045205418,0.0014527158,0.11123366,0.10568446,0.04459248,-0.057790887,-0.0014976201,-0.07447679,0.038549695,0.03655534,0.07271225,0.12640463,-0.07432706,0.0047819423,-0.09327894,-0.07430256,0.049483407,0.11152981,-0.027304165,0.02676672,-0.077621125,0.029650204,-0.08132161,0.02461658,-0.12013897,-0.04105082,-0.043716695,0.04902903,-0.026834516,-0.11865979,0.056575403,-0.035905372,0.041402698,-0.09979947,-0.02290092,-0.07607704,-0.054728717,0.12408213,0.04287539,0.04512612,-0.05772074,-0.050197378,0.025190946,-0.010824054,-0.007738834,-0.08499037,-0.086226046,-0.061691493,0.0046795905,-0.07060653,-0.058144428,0.06086864,0.042129394,0.114880435,-0.07630913,-0.040014345,0.0045108465,-0.10412277,-0.09062121,0.0954726,-0.07068299,-0.08974562,0.00021802518,0.06916046,-0.020755325,-0.12712856,0.09762667,0.057375107,0.09136194,-0.019102653,0.07277856,-0.06715111,0.082914025,0.028643185,0.039238315,-0.039465807,0.0929701,-0.10630384,-0.10698687,0.12680903,0.0849706,-0.010876072,0.10239057,0.061456013,0.01486894,0.08364629,-0.0018725486,-0.011331426,0.031313844,-0.06346313,0.002703935,-0.06724448,-0.012592857,0.04700862,0.023660932,-0.008023291,-0.060650382,-0.07425939,-0.10221232,-0.03232504,0.020864481,0.12885198,-0.018482247,-0.1090464,-0.08264119,-0.13399732,0.110334665,0.03605193,0.13594618,0.032848954,-0.10893957,-0.0042893053,-0.015969623,-0.03828035,-0.041320164,-0.10261882,-0.08363231,-0.09432628,-0.045213837,0.04839052,-0.06595028,-0.04389065,0.084387995,0.10618843,-0.09400383,-0.02740924,-0.08834874,-0.017891016,-0.036636293,0.06615615,0.056921493,-0.07378669,0.094308205,0.03094094,0.005731394,-0.045034166,0.061853033,0.017721789,0.079902366,-0.12312904,0.09594458,0.042829268,-0.107242,0.087169,-0.044699356,0.032073747,-0.026642976,-0.030827342,0.11140469,-0.030712709,0.04963769,-0.0426129,-0.06484841,0.028253647,-0.04427042,-0.06047442,0.09376164,-0.040381376,-0.098200135,0.062371645,-0.0930016,-0.10460898,0.098272,-0.059795298,0.11284076,0.024354957,0.061293107,0.028309923,0.10319656,-0.06354115,-0.11915813,-0.04263895,0.007668631,0.039923586,-0.1067757,0.1534999,-0.056820143,0.043700274,0.076071166,-0.08311809,0.0559314,0.050721545,-0.091976315,0.062491428,0.01692503,0.09084791,0.028556556,0.037119318,0.041620556,0.040839877,0.032141075,-0.054987185,0.10001514,-0.0001904229,-0.060223836,-0.10282415,-0.018597068,-0.013366832,-0.04198396,-0.11721866,-0.04268996,-0.07912322,0.055398483,-0.028885363,-0.07358266,0.06099186,0.0067442292,-0.025267977,0.03724642,-0.03927062,-0.05906999,-0.039741505,-0.025688067,-0.059581034,-0.002252561,0.048798464,0.11665655,-0.04581125,-0.090320446,-0.010266737,-0.100010306,0.07725096,-0.0015192959,0.05529657,0.08329436,-0.10016611,0.11585205,-0.073802724,0.023512589,-0.0975917,-0.08018037,-0.038645282,0.08594597,-0.08088114,0.067050315,-0.07993118,-0.068323046,0.07191429,0.041611288,0.014926133,-0.101761214,0.117059596,0.053397287,0.027344313,0.07430149,0.10547941,0.02696562,-0.036387186,0.03446407,-0.11788109,0.101970196,0.005391475,-0.0466792,0.0135991685,-0.08276931,-0.05995758,-0.102402866,0.0609329,0.07105841,0.0069800396,0.026290188,-0.054444015,-0.039972503,0.06641979,0.10274582,-0.07564377,0.0056421617,0.054649096,0.020781182,0.14000393,-0.10739644,-0.024265345,0.045592356,-0.11884566,0.04335189,-0.080861606,-0.037580874,-0.0848262,-0.021247776,0.05731371,-0.05136669,-0.11067853,0.085682526,-0.026758425,0.11166174,-0.11760851,0.10008442,-0.069773726,-0.09916117,0.07794985,0.05625209,-0.07043693,0.1315434,-0.056274705,-0.0156891,-0.05549885,0.10672443,-0.08742427,0.03095313,0.054871745,-0.08049579,-0.088094614,-0.042867076,-0.10624516,-0.040705997,-0.01207907,0.09821536,0.062473502,0.095705286,0.05919659,-0.0080975285,-0.13034247,-0.07023511,0.067130215,-0.008269843,0.056336317,0.031689405,0.025653476,-0.026086507,-0.011664297,-0.08097882,0.057503447,-0.0962578,0.08389944,0.05186132,-0.118111216,0.05547047,0.14518252,-0.004370696,0.094536774,-0.06645479,0.02441204,0.06674685,-0.06014505,-0.08866861,-0.047516566,-0.07044349,-0.030873684,0.02742568,0.109446615,-0.085884124,-0.09453911,-0.040658265,0.06490073,-0.010741603,-0.09584794,-0.06923946,0.10708398,0.0066813543,0.09682007,0.034326784,-0.007894357,-0.07111104,-0.0061838636,0.028139073,0.1478651,-0.1218738,0.019843038,-0.021681687,-0.059963956,-0.06763414,0.051939916,-0.056821253,0.09980222,-0.034219734,0.096049696,-0.023244943,0.067766346,0.09948133,0.0060178684,-0.04264172,0.03693977,0.11900989,0.044081397,0.122465245,-0.02637849,-0.014335672,0.12682062,-0.06199996,0.039103176,-0.05021945,-0.028086381,-0.036080536,0.0054254294,0.120423295,0.06449467,0.035278436,0.1102654,0.102372184,0.06163046,0.09144779,-0.041658778,0.055416822,-0.084952414,0.021323383,-0.090213194,-0.03516488,-0.09821946,0.02558176,-0.046823505,-0.091166034,-0.085193746,0.037162464,-0.013040118,0.0009893695,0.13023244,0.12948632,0.09211409,-0.030925877,-0.04113091,-0.09448001,-0.08267301,-0.03980426,-0.057523087,-0.0070718257,-0.025164891,0.008524364,0.073398024,0.02126337,-0.059095986,0.056424703,0.057778645,-0.07702977,-0.10057688,-0.06893634,0.020683266,-0.041670855,0.10863859
0.023906149,-0.0013247188,-0.052967977,0.033981916,0.12726036,-0.085230514,-0.027022628,-0.018442042,-0.13141768,-0.0632966,0.08929917,0.009507102,-0.028467428,-0.01926025,-0.09877559,0.01847575,-0.11166737,-0.05651943,-0.03896352,0.007035053,-0.04731683,-0.018633004,0.03939006,-0.08276772,-0.04578283,0.042569347,-0.022452148,-0.11658571,-0.1250363,-0.043846294,-0.038379088,-0.007889826,-0.11079092,-0.13165519,-0.05314372,0.03599386,0.019530619,-0.041033227,-0.046912134,0.04293259,0.09169019,-0.09627481,0.014340661,-0.0926666,0.014431297,-0.014001834,-0.07331997,-0.00069360854,0.023231212,0.02638796,0.07131353,-0.08154076,-0.063853,0.035398934,0.020159665,-0.02913373,-0.11685525,-0.012537088,0.1181427,-0.041666836,-0.10093224,-0.08606861,0.015177987,0.09503415,-0.09476998,0.014567185,-0.066385046,-0.009953507,-0.028281508,-0.02969007,-0.09174661,0.053327363,-0.1430358,-0.12186072,-0.1398122,0.029347075,-0.031887315,-0.07598636,0.021367032,-0.015548559,-0.028329054,-0.11904699,-0.031610962,0.09667666,0.07107558,0.008459449,-0.038118996,-0.079858094,-0.1075475,-0.06397518,0.047802307,0.03758057,0.047140602,-0.11146805,0.060905933,-0.052832812,0.12699877,0.05124409,-0.0023209986,0.01611722,0.035944562,-0.09846155,-0.019691393,-0.013145265,0.083643116,0.08055617,0.1083395,0.02334397,0.0012693316,0.034094155,0.02996446,-0.0078739505,0.00939527,0.0312837,0.08756784,0.060045946,-0.028941736,-0.086060256,0.07442182,0.015241265,0.04077149,-0.11952323,0.060253106,0.0007503448,0.11048206,-0.031292737,-0.050252996,-0.016301762,-0.081189804,0.001736472,0.0018869328,0.09010846,-0.055524644,-0.02387651,-0.013565415,0.02137668,0.078193516,0.06826144,0.014234834,-0.031388752,-0.12546521,0.08066702,-0.09694188,-0.09983254,-0.05839533,0.10641641,-0.13973904,0.009324608,-0.09642994,0.038791776,0.01421902,0.070072636,-0.053117838,-0.0976581,0.075039424,0.016106606,-0.07911973,0.0503317,-0.0976231,-0.10395122,-0.068530604,0.06165681,-0.020619504,0.00080173614,0.11288815,0.008781532,-0.08918978,0.011340009,0.06418271,-0.007749028,0.009093038,0.09861661,-0.120904244,-0.012825983,0.024455374,-0.07100699,-0.049077984,0.093146704,0.03741834,0.039572828,0.116706744,0.09060315,0.121652,-0.026208598,0.02611993,-0.053164843,-0.06404614,0.04584886,-0.08074229,0.086973205,-0.10319805,-0.12271591,-0.14605737,0.042439535,0.08862749,0.0636119,0.019450316,-0.040000517,-0.12729089,0.10657584,-0.017386993,0.029999042,-0.07108878,-0.027431069,0.030076306,0.032956738,-0.06763358,0.010180252,0.039207216,-0.073651455,0.12960817,-0.04346212,0.05208741,0.047048893,-0.057085816,-0.057371754,-0.08230006,-0.083656654,-0.0024537886,0.03485148,-0.049291793,0.08624597,-0.08435121,0.09060027,-0.051657636,-0.12414707,0.08583319,-0.039619833,0.005600157,-0.09411276,-0.023990361,-0.053038444,-0.09072456,-0.023049872,-0.09322458,0.037727546,0.063603744,-0.10062169,0.05157274,-0.012306036,-0.13787846,-0.10803502,-0.035614632,0.07058889,-0.057571765,0.05003402,-0.00012168448,-0.118171,0.044270877,-0.026512954,-0.03636822,-0.00084157597,0.03334872,0.09565468,0.057991467,-0.052174367,-0.1187513,-0.022497227,-0.084544964,-0.09316506,0.04783087,-0.02339522,-0.06734399,-0.008602599,0.08375522,-0.08771871,0.0810812,-0.10320066,0.083853476,-0.08073047,0.070431374,-0.053883206,-0.04672205,0.0364148,-0.0853217,0.059828416,-0.12611426,-0.009748875,-0.06471171,0.081486955,-0.07755191,0.0022964403,0.031451475,0.043997817,0.050625067,0.1480346,0.010714899,0.008259389,-0.021439029,-0.098627016,-0.13731468,0.071918294,-0.08384709,-0.0141341565,0.019381728,0.088791884,0.027560096,0.11291061,-0.098782465,0.051707618,-0.09822477,-0.059509784,0.030567195,0.06789597,-0.0561914,0.083039686,0.014664274,0.08916535,0.08597903,0.014786552,0.044118125,-0.048839882,-0.004140473,0.06782408,0.008356254,-0.038432337,0.035470597,-0.09205707,-0.102731295,0.08696281,-0.13562545,0.01716084,0.036692847,-0.088409655,-0.018747915,-0.059776373,0.07241382,0.015224196,0.08797834,0.012514981,0.09459711,0.031290755,0.084036835,0.1273,-0.04688974,0.007206956,0.035256498,-0.027412131,0.071335025,0.050502464,0.007912289,0.08405143,0.016496282,0.07704506,0.08123766,0.101607665,0.02127477,-0.16571935,-0.07547208,-0.11536538,-0.04480252,-0.018730624,0.053964533,-0.14369865,-0.041359723,0.037528463,-0.10472388,0.11966199,0.0718834,0.10157774,-0.04563394,-0.07130049,0.007212002,-0.056520082,-0.09631137,-0.01909971,-0.085297525,-0.06622007,0.05134233,0.08223566,0.05932794,-0.11608719,-0.09892095,0.10743278,0.020718683,-0.012094283,-0.04605723,-0.030892948,-0.08660712,-0.08498187,-0.07184435,-0.07321965,0.055286296,0.0016495558,-0.072912365,0.10150278,-0.0807676,0.0708641,-0.038838215,0.07710519,-0.12280792,-0.055784956,-0.11444904,-0.04593213,0.11303335,0.042444013,-0.07896101,0.08172408,0.0015948814,0.09233847,-0.13987729,-0.031048,-0.1278428,-0.060664207,-0.0933735,-0.053121783,0.111613266,0.025259541,0.056461018,0.044542927,-0.003906508,-0.009864364,0.02937894,-0.11820582,0.09482414,-0.009204055,0.021964235,-0.015491653,0.007835865,0.0598957,0.09959363,-0.10633055,-0.10615866,-0.0922064,-0.057290692,-0.019162009,-0.028357955,-0.046038922,-0.016988333,-0.0648868,-0.037999257,0.09464098,0.13400581,0.09305383,0.025270605,-0.0016435637,0.040197667,0.031852,-0.009880459,-0.048530243,0.037344724,0.039663777,0.057395864,0.099154554,-0.104251124,-0.058500323,0.005163427,0.037670605,0.022267075,0.02767346,-0.008694909,-0.015013681,-0.08737478,-0.08035057,0.073821,0.06838714,-0.09274859,0.08488758,-0.13748677,-0.015965817,-0.112255365,-0.029110162,0.08167905,-0.07450858,0.025310036,-0.058944177,-0.0047735632,0.045092136,0.015852619,0.08294183,-0.085588485,-0.057401747,-0.08023386,-0.068956144,-0.03771312,0.0135027245,0.044529192,-0.06407148,0.033855464,0.012023432,-0.101141565,0.022437353,0.052675273,-0.04592557,0.11796427,-0.0024127385,0.044860926,0.10531038,0.0907433,-0.02904534,-0.017105138,-0.05720604,-0.017459637,-0.09598516,-0.08315258,-0.024258578,0.03950594,0.052870646,0.061628006,-0.10449032,-0.039913025,0.06576535,-0.02647989,-0.0639054,0.064147934,0.08528598,-0.00065787125,0.104571134,0.12843074,0.017539442,-0.03252706,-0.004516861
-0.08774929,0.1178441,0.037617944,-0.019689297,0.05441821,0.02239443,0.0019368895,0.037886783,-0.00018768918,0.040315498,0.034686048,-0.0867447,-0.024162043,-0.030076334,-0.055332217,-0.12793629,0.06377093,0.016715877,-0.0644018,0.10981998,-0.10021186,0.106022775,-0.057292055,0.010878903,-0.154576,-0.038023334,0.04023939,0.026727188,-0.060064916,-0.08436147,0.12223774,0.08800101,-0.045838874,-0.11441351,0.011030069,-0.044556007,-0.0050689057,0.05045067,0.040647365,-0.012396477,0.03673488,-0.11041897,-0.08455774,0.035735816,0.026886111,0.09560674,0.033895496,-0.10750554,0.019296356,0.051053226,0.075923555,0.1413749,-0.10639119,-0.033640217,0.004026236,-0.050530054,-0.07938027,-0.047836345,0.023375455,-0.092129625,0.028295837,0.046716783,-0.106053,0.092394635,0.08406853,-0.113015644,0.001796043,-0.024713777,-0.009455212,0.041296355,-0.0355136,-0.085432366,0.010573026,-0.0640346,0.0650761,0.024035454,0.07036699,0.05986584,-0.100900374,0.093614854,0.1095988,0.1154637,0.06266428,-0.00285786,0.0003603962,0.0016237875,0.09188278,-0.032674544,0.06006662,-0.044493232,-0.079653114,0.076522246,-0.011077083,0.057043556,0.12667115,-0.12134878,0.08721215,0.0071504214,0.009073174,0.03625449,-0.10264264,0.010361895,-0.13527638,0.0431076,-0.14387305,0.077196255,-0.083437525,0.007192798,0.077123575,0.007590639,0.085215,0.050155804,-0.079011396,0.005727331,-0.07105381,0.050057456,0.10074852,-0.040912237,0.020051971,-0.016008407,-0.08685914,-0.088200994,0.035081267,0.10239132,0.08574769,0.08989086,-0.1257095,0.08769321,0.10224704,0.039666727,0.09790789,0.12149253,0.05275734,0.009768169,0.01627831,-0.017264856,-0.018049939,-0.08421927,-0.001973598,-0.071066335,0.10278967,0.045223348,0.08063844,-0.13872881,-0.06455868,0.11530098,-0.12955154,-0.07252183,0.10431613,-0.099432014,-0.00963216,0.043555416,-0.031198053,0.015589776,0.053778004,0.047745574,0.10689596,0.077449664,-0.1020205,-0.04014893,-0.0023890866,0.009610279,-0.065665446,0.041079786,-0.10869571,0.13494201,0.07185644,-0.03693166,0.023089267,0.06289502,-0.039180387,-0.019883482,-0.10014219,0.034016967,-0.046192035,-0.07299289,-0.075936764,0.043762833,0.06319057,0.05629142,0.054603126,-0.09164023,-0.06732933,0.035238605,0.066244975,0.070800625,-0.039995026,0.04759493,0.06964496,-0.1169146,-0.067471616,-0.022990068,-0.17653245,0.107321076,-0.059599344,-0.079749145,0.034647662,-0.1158513,0.034101143,-0.08149626,0.027105903,0.101748236,0.091553465,0.10616069,0.04556431,0.1179891,-0.015333706,0.07890821,-7.916204e-05,0.0067384895,-0.036772694,0.092419595,0.07003134,-0.06758901,0.061640177,-0.021411855,0.056784704,0.015891632,-0.027549634,0.030007523,-0.065920025,-0.026210858,0.061762977,-0.0037716727,0.068568096,0.06620949,-0.029594135,0.005585865,0.03140628,0.08633903,0.04261431,0.06320735,0.059168316,0.065136954,0.081670836,0.034100097,-0.091812424,-0.11512416,-0.12984025,0.114230886,-0.0038920844,0.010164146,-0.08278894,-0.06080846,0.06222462,0.0023721447,-0.09877461,-0.104122646,-0.013070334,-0.012729457,0.060001455,0.07704459,0.07184814,-0.12210885,0.023928331,0.06765392,0.10425933,-0.06178278,0.073323786,0.0549497,-0.047901273,-0.055601444,-0.0033153712,-0.00944032,0.015604659,-0.12867689,-0.13929653,-0.049826983,0.05486999,0.02655839,0.07545032,-0.11917196,0.03608306,-0.03620412,0.055346217,0.07492761,0.045093976,-0.13191585,0.018973358,0.0454109,0.0024799118,-0.06656381,0.10277252,-0.08318964,-0.0017750203,-0.016919523,0.07825298,-0.01701869,-0.07564954,-0.11856173,-0.026154455,-0.04840816,-0.10487254,-0.16066548,0.033202387,-0.06838554,0.04030072,0.051351037,0.028814232,0.0842804,-0.13221534,0.10041237,0.0075931293,-0.04677217,0.06567147,0.056472022,0.078502424,-0.009547952,-0.10197743,-0.021666873,0.023242218,-0.009734595,-0.077484004,-0.0452483,0.084941305,0.03365273,0.0637253,0.018004986,0.09008634,0.054077443,0.0485635,-0.027222626,0.117183775,-0.08296635,-0.0985542,0.08229334,-0.12849219,-0.0121126855,0.073150665,0.10477385,-0.0143349795,0.069375284,-0.0192908,0.059268393,0.013017097,0.04300767,-0.05551439,0.09609638,0.05338146,-0.022577839,-0.058321882,-0.0036951152,-0.09472489,-0.10373675,0.027999377,-0.0057988595,0.021809055,-0.035123967,-0.10321797,0.0675807,0.01868747,0.09524105,-0.011876072,0.06214628,0.078620575,-0.094826676,0.059263296,-0.06297649,0.09163049,0.122854635,0.078983344,-0.044388417,-0.05102413,0.11090009,0.09168301,-0.074339315,0.042788062,0.028430773,0.018008605,-0.013279465,-0.114113726,-0.043843992,0.09474728,-0.09933163,0.11234855,-0.035432123,0.098128736,-0.015145587,0.033244375,0.053256147,0.1291359,-0.1264632,-0.053715847,0.09252692,0.03175196,-0.0037396394,0.09420605,0.11118037,0.058047544,-0.11596873,0.10842955,-0.017432425,-0.03521003,0.11026738,0.000391017,-0.031977557,0.026194064,-0.09087878,-0.10824392,0.045366667,-0.0072083054,-0.05867706,0.023838334,0.1247079,-0.07929177,-0.03951825,-0.13417831,0.016212763,-0.012629788,-0.07413429,0.050615087,0.041542023,-0.044698887,0.04925685,-0.051856913,0.11102113,0.06793926,-0.0034911253,0.08642439,-0.024277814,0.08862305,0.09583232,0.025804853,0.08253363,0.051555797,-0.11481675,-0.04788996,0.069845006,-0.05510621,0.08550371,-0.0024124784,-0.085026465,-0.07957367,0.08266041,-0.055466615,0.06938318,-0.016238634,0.011152143,0.050831176,-0.0039212564,-0.019285774,0.10809222,0.10103939,0.07932021,0.059707113,0.096261546,0.01710494,0.08851145,-0.03582001,0.059571363,0.06267321,-0.01829441,-0.027730078,0.11639045,-0.051820453,0.05723472,0.020041127,0.0026506525,-0.002429098,0.069011495,0.091144584,-0.121804625,0.113028646,0.08638219,0.09358075,0.07749649,0.03310581,0.041927338,-0.08777318,0.058312986,-0.14930964,-0.09314379,-0.050366756,0.10324152,-0.10481671,0.0061841523,-0.06646746,0.0044288333,0.03496007,0.052594658,0.008296046,-0.016756775,0.06260095,0.11656293,0.042574372,0.07717248,-0.051773533,0.0608983,-0.037461974,-0.015840936,0.009310096,-0.05105229,0.049505603,0.008164668,0.0027526994,0.036257368,0.0066728997,0.08561719,0.08341206,0.08587168,0.0295582,0.034202036,-0.063249834,0.024811728,-0.07292697,-0.11024662,-0.030180676,-0.009304384,-0.10718849,0.05539312,-0.051546246,0.0925286
0.0069221817,-0.118872866,0.04166299,0.11638239,0.05778461,0.0502133,0.091315724,-0.05704237,0.085586116,0.047719978,0.07507817,0.07794181,-0.018687943,0.0577527,-0.0589696,-0.017498799,0.059669532,-0.13431962,-0.03407807,0.024616426,-0.095272176,0.11020277,0.10283341,0.0070018317,-0.075247064,-0.03160146,-0.06805734,0.0730314,-0.072200626,-0.048045535,-0.03858023,0.092266195,0.025542043,0.009212561,0.0027816037,0.08084178,-0.0483741,0.022477446,0.002325999,0.05425732,0.05748278,-0.11070038,0.1278234,0.03762098,0.032039355,0.09958304,-0.0013699087,0.10488218,0.059796166,0.046515647,0.035732847,0.0720103,-0.04337004,-0.04344611,-0.009016225,0.0644529,-0.12683253,-0.040614687,0.050662015,0.09656195,0.11950408,0.09271204,0.060465682,-0.065125406,-0.10990943,0.024533678,0.016783103,0.024414402,-0.0003614776,0.051643956,-0.101464525,-0.0757969,-0.008228688,0.054821026,0.05650176,0.053920593,0.019642157,-0.1014462,0.005031451,0.056633864,-0.082044534,0.11147367,-0.06967702,0.0403058,-0.09837029,-0.07474656,-0.06466721,0.061592303,-0.08806271,0.07482945,-0.10779927,0.037717327,-0.04528796,-0.07781401,0.005654981,-0.07915096,-0.09274021,0.059521686,0.111559145,0.10904295,0.08897836,0.019098062,-0.13699453,0.0047477065,0.07643506,0.10727555,0.11819285,0.11845414,-0.023063892,0.030943807,-0.09224875,-0.08952064,0.016403688,-0.08584196,0.019706145,-0.090782,-0.073973686,0.06270546,0.03491913,-0.06976629,-0.118559845,0.08917617,0.026488697,0.022061773,0.09411727,-0.101705134,0.031007765,-0.10807077,0.019491123,-0.05830226,0.10367289,-0.11491896,0.07186847,0.01767868,-0.10269876,0.002126647,-0.04265506,-0.019085994,0.022976577,0.09997367,0.079740584,-0.104407124,0.02612507,0.0024236173,0.020745335,0.1100677,0.036036056,0.021032652,0.10575739,0.09943656,0.079795405,0.014861925,-0.09980753,-0.1178621,0.020809025,-0.008715832,0.10610408,-0.04929416,0.09160445,0.020591963,0.10115049,-0.10055901,0.0994877,0.08709185,0.06584939,-0.02381305,-0.06841259,0.030406686,-0.051755644,0.04788243,0.0615133,-0.033458896,0.019502554,0.027600877,0.09314083,0.11468206,-0.119419694,0.006463111,-0.08229529,-0.07914402,0.054847345,-0.07018312,0.07858801,0.073794134,0.0808593,0.014445811,-0.05449611,-0.12084148,-0.11241818,0.002975805,-0.041258942,0.10932916,0.0043392517,-0.038900003,0.1112992,0.08410383,0.051320583,0.08723437,-0.13042182,-0.051985584,-0.07971337,-0.06979314,0.023502093,-0.06940028,0.010805072,0.13687728,0.023437578,-0.03935639,0.019985681,-0.054295693,0.1450338,-0.10966453,-0.09847335,0.00640468,0.060719293,0.09310536,0.075283654,0.08361986,-0.013165151,-0.06311129,0.09085586,0.043570038,0.0915872,0.06634749,-0.11923953,-0.13760412,0.1006614,-0.06619729,0.008012165,0.0023860664,-0.12225891,-0.1193888,-0.1327223,-0.08529196,0.08704358,0.04301144,-0.108785935,0.11108244,-0.09378145,-0.11434397,0.051425565,0.04341029,0.039719783,0.10381697,-0.04352597,0.07806276,-0.1009355,0.056700304,-0.081140004,-0.027038176,0.07649888,0.06049274,-0.06718247,0.044091593,0.13295838,0.070687994,-0.13803522,0.045139614,0.041216485,0.073906235,-0.009994273,-0.018799659,-0.03177758,-0.026230637,0.09291703,-0.13455385,-0.093805134,0.07938881,-0.0016689163,-0.080931865,0.07669656,-0.06518576,-0.088425,0.11304756,-0.023244053,-0.08110635,-0.022865709,-0.08145516,-0.044497214,-0.08571121,0.043454982,-0.04967176,-0.1373372,0.11662986,0.009888876,0.110843346,-0.03912605,-0.062652744,0.12184592,0.12516008,-0.0034599877,0.07934268,0.07521715,-0.0611317,0.010548702,-0.073728696,-0.03925858,0.052982908,0.032013513,-0.08136908,0.11100477,-0.116996124,0.08347233,0.052407864,-0.110633105,-0.08112052,-0.03779183,0.11726294,-0.08682679,-0.11701872,0.07176919,0.03315401,-0.09321147,0.013002712,-0.09780491,-0.06637987,-0.09598673,0.016753284,0.04433161,-0.043868385,-0.13478029,0.08402005,-0.1257996,-0.08891498,0.123012654,-0.11569624,-0.021624565,0.07262363,0.052882828,-0.059935227,0.008233173,0.014439862,-0.0762649,0.027227102,-0.006286947,0.020076057,0.08341849,-0.10837072,0.086941436,-0.078313656,0.045772653,0.05014276,0.06368415,-0.102102675,-0.104764864,-0.030151533,0.004880725,0.09896881,-0.058722656,0.08633281,0.11126077,-0.11766545,0.10692283,0.08010904,0.10414065,-0.038681593,0.113225505,-0.08368363,0.043223117,-0.12143922,0.11702625,-0.029016249,-0.11288252,-0.09999103,0.052607432,0.033272337,-0.123259775,-0.05988274,0.010686359,-0.03000632,-0.11225378,-0.006377656,0.119155064,0.019117605,-0.01718203,0.047172617,-0.056230262,-0.014998588,0.010317335,0.033937503,0.13593923,-0.009689496,-0.0724089,-0.09939032,-0.085947,-0.12449349,0.050698005,-0.0819169,0.05444111,-0.004881384,0.073407136,-0.022324422,0.08921639,-0.006529717,-0.07155431,-0.0068102702,0.050888028,-0.027491486,-0.08490118,-0.05239877,0.020506352,0.09726238,-0.075268514,0.1032249,-0.030603532,0.033840872,0.01993459,-0.07034791,0.028325649,0.048052687,0.07911425,0.008667178,0.09403332,-0.007884175,0.11921308,-0.10863466,-0.07450011,0.0022295567,-0.08677004,0.04502239,-0.04782912,-0.08831878,-0.00042037616,-0.107568435,0.122532696,0.10609054,-0.0288388,-0.002208044,0.003284698,-0.016006028,0.11257825,0.008043414,0.015514633,0.04876631,0.11332729,-0.08485093,0.078319795,0.07513464,-0.11405242,0.07096033,-0.036028795,-0.0052102455,-0.008225585,-0.08775328,-0.010388409,0.07430521,0.09641591,-0.07411759,-0.037089035,0.0059126043,0.100756034,0.034157265,0.048095774,-0.0831454,0.0013382703,0.07255425,0.0229849,-0.0252445,0.07725421,0.014971934,0.06157627,-0.043029565,-0.06383747,0.0309978,0.069756314,-0.016826896,-0.11875274,0.03223886,0.06902631,0.05805698,0.043845154,-0.07928117,0.108476214,0.082756564,-0.006731721,0.003745352,0.034059763,-0.01578255,-0.005067055,-0.12507355,-0.0063595213,0.103558436,0.035000145,0.08496933,0.03547181,0.052145775,0.010432942,-0.1009614,-0.046864506,0.09949981,0.051117476,0.038250826,0.049869917,-0.0077952035,0.06276143,-0.04433499,-0.06911055,0.10439158,0.055879615,-0.03436624,-0.0061675147,-0.011982742,0.017636158,0.01824792,-0.092723675,0.036853563,0.05642652,-0.088942006,0.0025939457,-0.033712454,0.0724016,-0.04237627
-0.07820117,0.046219144,0.058892358,0.06462196,-0.11618089,0.009811961,0.07343605,0.10683817,-0.078977734,0.09308187,0.043085076,0.066860534,-0.058097996,0.0528628,-0.020247681,0.058845032,0.023250395,0.045817934,0.11708307,-0.15476787,0.0022491505,-0.01897562,0.10570021,0.081611805,-0.044836804,-0.028319208,-0.0028792317,0.09097746,-0.09242285,0.05073954,0.14574488,0.060571194,-0.03908623,0.058028728,-0.037815683,0.09414715,-0.06079219,-0.0062175356,-0.042300392,0.068351,0.015356912,-0.10061971,0.034886736,0.09367558,0.07639114,-0.14683108,-0.0006713584,-0.13177,0.0569882,-0.04872042,0.09440589,0.09410394,-0.05021465,-0.02564559,0.030792281,0.083415985,0.13617934,0.05611107,-0.048086032,-0.09869728,-0.11240961,0.045069695,0.022198047,0.11631434,-0.119050495,0.053960394,0.017246341,0.09578975,0.012836851,-0.084611654,-0.016258892,0.098219745,-0.06058546,-0.12673354,0.07258117,-0.028194582,-0.0145262815,0.091061406,-0.010640554,-0.06918205,-0.104398124,0.030091671,-0.101021536,0.040675454,-0.116851136,0.07145431,-0.07022107,0.09279566,0.00020250631,0.0970513,-0.11078313,0.027938915,-0.028836692,0.02815444,-0.13223463,0.07302075,0.10504387,0.11444817,-0.090211265,0.0044535114,0.071801394,0.008143346,0.10872733,0.004299868,0.120088086,0.05723915,-0.02830225,0.08835464,0.0044473363,0.05532674,0.023087995,0.07672569,-0.0066981832,-0.08527681,0.009878156,0.11266728,0.001164367,0.068839595,0.03986459,-0.084685795,0.098629355,-0.040320348,-0.03707723,0.006641947,0.089982025,-0.058508765,0.09780644,0.105266035,0.088147126,0.04399875,-0.0007807209,0.054473046,-0.0827717,-0.0038266676,-0.08691607,0.086178325,0.051814705,0.018552799,0.096440434,0.11508073,-0.095324,0.018382924,0.072116084,-0.05928349,-0.053961616,-0.041728813,0.10803652,-0.08716339,0.07284375,-0.024060544,-0.021257006,0.03969368,-0.06580923,0.06881224,0.08041519,0.034968384,-0.07437011,-0.09424884,0.11024881,0.08175752,-0.040864676,-0.01597087,-0.04455263,0.055538956,0.093472816,0.0015207877,-0.06865699,-0.038895205,0.02037221,-0.08482228,-0.03888142,-0.071573965,-0.0122893695,0.07825537,-0.043637026,0.12058756,-0.08318177,-0.07036351,-0.120733745,-0.057430565,-0.07671107,-0.057085592,0.007912618,-0.149951,-0.10654795,0.093902595,-0.017152946,0.13051079,-0.0064532273,-0.10342139,0.0057743224,0.0051892875,0.025279783,-0.058955777,-0.08582456,-0.031415537,0.056491364,-0.092362,-0.14541529,-0.07025527,-0.1149478,0.0825395,-0.10037891,0.14243414,0.1328386,-0.0152515,-0.11457686,-0.07792979,0.029431796,0.04367872,-0.03819725,0.061196227,0.018050984,0.05188557,-0.08485612,0.102620125,0.037814222,-0.11146188,-0.007590661,0.08401308,0.026181005,-0.036252346,-0.09903105,-0.07249969,0.111892916,0.089972325,-0.055912692,0.05298784,0.07943321,-0.0197721,-0.10773836,-0.006430288,0.02436026,0.060092892,-0.023446558,-0.002762367,0.03918478,0.03178532,0.07142483,0.120466955,-0.057882994,-0.06620666,0.049569633,0.094994456,0.12509382,0.048010536,0.03517692,0.09095285,-0.0104384,-0.13723734,-0.046885725,-0.075914346,0.09299614,0.09888609,-0.108194806,0.07269701,0.12517567,0.09312249,0.043532114,0.09575667,0.12884545,-0.018935667,-0.06857333,-0.06067027,0.10035392,0.034670718,0.12489123,-0.100629754,-0.0875693,-0.014699882,0.0102444785,0.08758548,-0.09977446,-0.043732803,0.031960804,0.11794397,-0.08580808,0.046454635,0.05731866,0.05921365,-0.13613266,0.09384701,0.0931937,-0.06868848,0.03129861,-0.032935537,-0.004402762,-0.023244768,0.1415418,0.081503004,0.0057390323,0.12263039,0.045064297,0.039833523,-0.009477768,0.008005662,0.10597827,0.026098104,0.07180755,-0.09671189,0.06563485,0.025968924,0.042928863,-0.11589203,0.07095528,0.04650551,0.06485767,-0.031340674,-0.07264439,0.088073455,-0.0096372,0.09947396,0.0020900303,-0.017126724,0.036029354,-0.01051141,0.13137694,0.05749967,0.03136428,-0.16231649,0.014778545,0.07020128,-0.15209073,0.031992722,-0.11236743,0.06683583,-0.050103914,-0.019182494,0.075455256,0.04537751,0.12625648,0.013585295,0.034435004,-0.03582378,-0.06942657,-0.104532525,-0.097626396,0.048459813,0.050418213,-0.06029952,-0.09045716,-0.050254446,-0.054412365,0.03302358,-0.0542975,-0.07387685,0.009069386,0.114052124,-0.10729755,-0.16506861,-0.053282697,0.072212435,-0.12884893,-0.006389415,-0.026812034,-0.114180245,-0.12902135,0.14467229,0.04196899,-0.1040171,-0.15094806,-0.009374547,0.09685396,0.058874633,-0.0025616295,-0.0968986,0.01710548,-0.0937987,0.08643764,-0.11194384,-0.08404765,0.07295911,-0.08520365,-0.04877981,-0.11078273,0.01485958,-0.09900608,-0.034360822,-0.011058749,-0.09296557,0.09072878,0.12597819,0.121645465,-0.014835092,0.0021087052,-0.035293218,0.086269796,0.040074497,-0.025776822,0.011560613,-0.031984486,0.09139806,-0.08057167,-0.06571839,-0.09175168,-0.05057801,0.031266205,-0.017254453,0.14050971,0.074107975,-0.052714735,-0.01401445,-0.039609652,-0.14936179,0.094430946,0.058482688,0.06151503,-0.107528195,0.03285935,-0.019944208,0.0021057068,0.101708554,-0.044587687,-0.06813172,0.12059334,-0.0972069,-0.024597617,0.007842566,0.04230608,-0.012601855,-0.058101177,-0.10168511,0.041890424,-0.025487809,0.012935544,0.12752898,-0.04384464,0.014595076,-0.029032635,-0.09114539,-0.093296364,0.018846566,0.05827704,-0.08804305,0.09462283,-0.0939481,0.0566847,-0.10072514,0.089737296,0.08237767,-0.08386123,0.0004586049,0.108149655,-0.008530676,-0.024277152,-0.02202604,-0.05108829,0.025505511,-0.049464088,-0.08726553,-0.1506002,-0.049400356,0.10638192,-0.05417142,0.07137734,0.035684995,0.022577757,-0.01959686,0.08381718,-0.113761224,0.06629619,0.05622895,-0.13091353,0.03932857,0.03780318,0.07454713,-0.024747534,-0.02688705,-0.116395265,0.0058062533,0.06286501,-0.08448409,0.09480958,0.094813816,-0.100135975,-0.04326738,0.09858792,-0.12623845,-0.0018530007,-0.13355969,0.00017302603,0.08803822,-0.104999244,0.0026687065,0.08980921,-0.098156855,-0.038753532,0.08009604,-0.08215322,0.04274389,-0.033197913,-0.04780258,0.036294445,0.011205419,-0.054623574,0.137874,0.1181776,0.0011293589,0.10854913,0.0799291,-0.042565867,-0.024348497,-0.0852627,0.01513226,0.05220018,-0.08655907,0.046494227,0.10895725,-0.1547224,0.042246018,0.009217758,0.045942035
0.09301533,0.044806294,-0.0823099,-0.029572316,0.058397964,0.022720322,0.05123072,0.076118544,-0.10500826,0.06791521,-0.0137292445,-0.03240191,0.069833,-0.012683953,0.07574973,0.050023917,-0.04404659,-0.029155945,0.1036967,-0.062465318,-0.08486199,0.07463606,-0.062905885,0.10013488,0.13018604,-0.0031570739,0.11848415,-0.038158413,-0.0014441222,0.058117088,-0.05077454,0.064708024,0.018793354,-0.049194723,-0.0134739475,-0.04574228,0.019327419,0.04159111,-0.012706676,0.048675865,-0.11370109,0.03230066,0.013507311,0.085490674,-0.12834649,0.14659049,-0.06666419,0.025118014,0.072983,-0.066662006,-0.0035007258,-0.096181735,-0.032801893,-0.020412376,-0.05021007,-0.11795933,0.11962303,0.081372164,0.09700399,-0.07380365,0.10358062,-0.12080653,0.13469186,-0.053760562,0.07969218,0.042149913,0.12241029,0.0006806472,0.087901086,-0.087447256,0.11806789,0.026346462,0.07505921,-0.05401163,-0.122330725,-0.054250423,-0.032428022,-0.09090204,0.050086163,-0.07162901,-0.10476157,-0.107992925,0.033930413,0.13114542,0.1153577,-0.046935007,-0.06654402,-0.05724918,-0.050336562,0.026605496,0.113263234,-0.090912215,-0.047521595,0.06934384,0.022305362,0.103341475,-0.10214412,0.054776743,-0.09239593,0.011573758,-0.123603806,-0.11710692,0.053385407,-0.055865403,-0.1162043,0.048102077,-0.016979478,-0.09534875,-0.040045705,0.06991351,-0.004332431,-0.10381677,0.061902452,0.05635801,0.083859995,0.0452203,0.00021146581,0.11190972,0.039148934,-0.084324546,-0.024427699,0.090113,-0.016594071,0.009465728,-0.09218866,0.07872962,-0.10403522,-0.08980158,-0.13060643,0.03839243,0.07689749,-0.0517117,0.05472918,-0.06981225,0.04614387,0.023656873,-0.024961188,0.082138,-0.10779583,-0.11151208,-0.09884757,0.043454245,-0.012640159,0.12752678,0.07540611,-0.009270411,0.0041256244,0.067094944,-0.13429707,-0.031553198,0.0064288783,0.03309704,0.12419514,-0.063864276,0.08497453,0.05376071,-0.05209292,0.08294047,-0.082087636,-0.095996186,0.010928417,-0.13565421,0.13958456,-0.019305393,0.0611828,-0.08283549,-0.08432845,0.084655635,0.016457789,0.03234248,0.032327004,0.069236875,0.059809264,-0.032520156,0.06097953,-0.10019176,0.10845313,-0.0056303455,0.10865452,0.065413766,0.088660575,0.12424391,-0.06359076,-0.1337018,0.036239374,-0.021501893,0.01448213,-0.061525516,0.1590765,0.12824415,0.097876534,-0.02078176,0.12281916,-0.029850446,0.10055863,0.07720563,-0.08673707,0.07883718,0.02525917,0.0023795755,0.10716136,-0.03277547,-0.00045149963,-0.008680501,-0.07175666,0.13906209,-0.06580023,-0.067368925,-0.09452963,-0.09829782,-0.027799634,0.09296488,0.124203496,-0.0030453098,-0.08880379,0.10965121,-0.13161215,0.062412716,-0.048842743,-0.073008455,0.09655951,-0.03330081,-0.04303327,0.028362595,0.018907322,0.10951456,-0.042494725,-0.043367125,0.08375176,-0.12805611,-0.028603744,-0.01619996,0.019037802,-0.11663246,-0.013294584,-0.027865777,0.12626387,0.057845574,-0.012802216,-0.037790213,-0.041461576,0.036280695,0.025029391,-0.07631268,-0.12844849,0.08575924,0.030382326,-0.006718755,0.0096916035,0.057731368,0.07108453,-0.08092476,-0.11239752,-0.11639413,-0.040803462,-0.1165505,-0.010589156,0.06519195,0.07773795,-0.027593637,0.022217002,-0.022547707,-0.03700463,0.11105346,-0.06289595,0.07707264,0.084401965,-0.060100377,-0.040195562,-0.026089355,0.077560715,-0.051712744,0.069234245,0.10514656,0.072857946,-0.06935698,-0.039853502,0.04801192,-0.030263538,-0.054102138,0.10191152,0.09964453,-0.13297726,-0.06910622,0.07733328,-0.11764235,-0.004528838,0.041726395,-0.103902124,0.10733225,0.06948652,0.0021820178,0.06184222,0.13925362,-0.07477738,-0.06654672,-0.041964106,-0.15193921,0.12265887,0.044963956,0.09077589,-0.047881007,0.016675131,0.113839984,-0.06683289,-0.09283848,0.060863666,0.056273907,0.013782097,-0.113194905,0.13268994,0.041596804,-0.085168526,-0.095719874,-0.10443785,0.094115436,0.08165299,0.025221745,0.09607925,0.13063093,0.030703539,0.12234177,0.107122704,-0.11064264,0.117074795,-0.110541165,0.08815797,0.046049085,-0.012477145,0.123766676,-0.13589187,0.039162446,0.10960927,0.048070073,-0.04454051,-0.10655711,0.12442322,0.11023934,-0.12021143,0.046478946,0.1004489,-0.011805037,-0.08571332,-0.01374041,0.10994779,-0.018265862,0.071539514,-0.12269441,-0.070371844,-0.021128232,-0.119281635,-0.11391784,-0.0040872563,0.13308825,0.04153778,-0.056927245,-0.04357989,-0.043123823,-0.025878632,0.019414138,-0.11911726,-0.03237772,0.05505986,-0.06201671,0.08156379,0.13915646,-0.05793736,0.060344867,-0.06984144,-0.11213989,-0.03296227,0.10483727,-0.01388167,-0.09580556,0.098684415,0.052350704,-0.080582805,-0.084722966,0.0023677389,-0.10062847,-0.042570032,-0.08123391,-0.06283495,0.118009105,0.09540401,-0.11502174,0.08091893,-0.039760757,0.13855782,-0.030862985,-0.07974194,-0.0156229315,0.12378769,-0.054317772,0.13419506,-0.08800237,-0.02248259,0.0062632635,0.12718913,0.058965307,-0.058382016,-0.049435288,0.03388936,0.08901918,-0.09318573,0.12807477,0.07075379,0.017448813,0.039941177,-0.031000065,0.050601922,-0.120613776,-0.049968425,0.03763475,-0.06547167,0.01379785,-0.07494214,-0.071033135,-0.07049348,-0.008364623,-0.029504923,0.1138285,0.09488916,0.10307061,0.04558017,0.054912224,-0.03219596,0.11472745,-0.031913232,-0.05171916,0.114137486,-0.080942094,-0.032154396,-0.072644964,-0.0724727,0.09179397,0.015795106,0.047158312,-0.11481346,-0.13739622,-0.07478432,0.03261761,-0.070299804,0.069844455,-0.012373721,-0.07938341,-0.11279442,0.019720584,-0.03243845,-0.009156969,0.110703975,-0.012355032,-0.0848091,-0.037210517,-0.07310708,-0.048770264,-0.12696269,-0.03315637,0.05806284,-0.018540066,-0.031377126,0.094987564,0.054254994,-0.094088964,-0.044023298,-0.0025407437,-0.047550652,-0.021903146,0.044538856,0.086029164,0.059629973,-0.0067866677,-0.10021807,-0.053050533,-0.09855542,-0.03459285,-0.12094808,0.078597344,0.019556563,0.07457786,0.017882042,0.10316934,0.14158557,-0.12441866,0.014917779,-0.12213991,-0.049445063,0.033901557,0.014019123,-0.08723968,-0.041505404,-0.03974727,-0.058768213,-0.12548473,-0.007469347,-0.053866338,-0.09703514,0.03351835,-0.072045706,0.08354903,-0.009025277,0.010385915,0.043678038,-0.00074116734,-0.055897217,0.042730767,-0.077314876,-0.09105016,0.08396477,0.057665933,0.014370607,-0.11086808
